\data\
ngram 1=203
ngram 2=929
ngram 3=3418
ngram 4=10550
ngram 5=26035

\1-grams:
-0.6633447	<unk>
-inf	<s>	-3.2413676
-1.2808352	</s>
-1.6970819	string	-0.93104136
-1.6744112	var	-0.7713888
-1.3588382	identifier	-1.2001764
-1.7731975	numeric	-0.8569517
-1.6127375	if	-0.9613691
-1.5939835	function	-0.72602546
-1.6744112	return	-0.90509397
-1.9012817	null	-0.6879878
-1.9402196	regularexpression	-0.51860845
-1.9012817	false	-0.6796872
-2.4044216	in	-0.43736035
-1.8325348	true	-0.73442847
-1.9402196	typeof	-0.80075204
-1.6744112	for	-0.87476337
-1.8325348	else	-0.8724969
-1.8018535	delete	-1.0051993
-2.0837328	continue	-0.57908416
-1.8325348	throw	-1.0751863
-1.7731975	new	-0.7939077
-1.8325348	try	-0.84661275
-1.9402196	catch	-0.86417353
-1.9012817	break	-0.81715125
-2.4044216	instanceof	-0.4579882
-2.03045	do	-0.6040314
-1.8018535	while	-0.8294658
-1.5107251	this	-0.7528091
-1.8655493	switch	-0.73650384
-2.03045	case	-0.914335
-2.0837328	default	-0.47230387
-2.1444793	finally	-0.5296689
-2.299541	class	-0.54067415
-3.4368687	extends	-0.2273387
-3.4368687	super	-0.28910598
-3.3915098	`the	-0.1485702
-2.299541	\`	-0.3678155
-2.03045	$	-1.053997
-1.8018535	{	-0.22938378
-1.6744112	}	-0.42504603
-3.3915098	prop	-0.1485702
-2.7476585	supplied	-0.5311183
-3.4368687	to	-0.21317813
-2.0837328	<	-0.2123672
-3.3915098	select	-0.1485702
-1.8655493	>	-0.42169943
-3.3915098	must	-0.1485702
-3.3915098	be	-0.1485702
-3.4368687	an	-0.1485702
-3.3915098	array	-0.1485702
-1.9829957	`	-0.277084
-3.3915098	`\`multiple\`	-0.1485702
-3.4368687	is	-0.1485702
-3.3915098	true.`	-0.1485702
-2.7476585	a	-0.1485702
-3.3915098	scalar	-0.1485702
-3.3915098	`value	-0.1485702
-3.3915098	\`multiple\`	-0.1485702
-3.3915098	false.`	-0.1485702
-3.3915098	check	-0.1485702
-3.3915098	the	-0.1485702
-3.4368687	render	-0.1485702
-3.3915098	method	-0.1485702
-2.5429785	of	-0.21317813
-3.4368687	.`	-0.1485702
-3.4368687	react.render	-0.1485702
-3.3915098	call	-0.1485702
-3.3915098	using	-0.1485702
-3.3915098	it	-0.1485702
-3.4368687	was	-0.1485702
-3.3915098	passed	-0.1485702
-3.3915098	child	-0.1485702
-3.3915098	from	-0.1485702
-3.3915098	`required	-0.1485702
-3.3915098	not	-0.1485702
-3.3915098	specified	-0.1485702
-3.3915098	`\`	-0.1485702
-3.3915098	\`.`	-0.1485702
-3.4368687	`invalid	-0.28910598
-3.3915098	type	-0.1485702
-2.03045	,	-0.27852225
-3.3915098	expected	-0.1485702
-3.4368687	array.`	-0.1485702
-2.7476585	[	-0.1485702
-2.7476585	]	-0.1485702
-3.3915098	single	-0.1485702
-3.3915098	reactelement.`	-0.1485702
-3.4368687	instance	-0.38118118
-3.3915098	argument	-0.1485702
-3.3915098	oneof	-0.1485702
-3.4368687	value	-0.1485702
-3.3915098	`supplied	-0.1485702
-3.3915098	one	-0.1485702
-3.3915098	object.`	-0.1485702
-3.3915098	.	-0.1485702
-3.3915098	oneoftype	-0.1485702
-3.3915098	reactnode.`	-0.1485702
-3.3915098	\`object\`.`	-0.1485702
-2.0837328	const	-0.7976843
-2.0837328	export	-0.6033636
-2.5429785	import	-0.48044413
-2.03045	void	-0.72010374
-3.4368687	yield	-0.24948482
-3.4368687	hellomessage	-0.1485702
-2.0837328	=	-0.38320863
-3.3915098	react.createclass	-0.1485702
-1.9012817	(	-0.19946472
-1.8325348	:	-0.32760423
-1.9402196	)	-0.5420958
-3.3915098	div	-0.1485702
-3.3915098	hello	-0.1485702
-3.3915098	this.props.name	-0.1485702
-3.3915098	/div	-0.1485702
-2.5429785	;	-0.656057
-3.3915098	name=	-0.1485702
-2.0837328	''	-0.18617111
-3.3915098	john	-0.1485702
-2.299541	/	-0.8321483
-3.3915098	mountnode	-0.1485702
-3.3915098	with	-0.1485702
-2.7476585	markdowneditor	-0.1485702
-3.3915098	getinitialstate	-0.1485702
-3.3915098	'type	-0.1485702
-3.3915098	some	-0.1485702
-3.3915098	*markdown*	-0.1485702
-3.3915098	here	-0.1485702
-3.3915098	!	-0.1485702
-3.4368687	'	-0.1485702
-3.3915098	handlechange	-0.1485702
-3.3915098	this.setstate	-0.1485702
-3.3915098	react.finddomnode	-0.1485702
-3.3915098	this.refs.textarea	-0.1485702
-3.3915098	.value	-0.1485702
-3.4368687	classname=	-0.38118118
-3.3915098	h3	-0.1485702
-3.4368687	input	-0.1485702
-3.3915098	/h3	-0.1485702
-3.4368687	textarea	-0.1485702
-3.4368687	onchange=	-0.38118118
-3.3915098	this.handlechange	-0.1485702
-3.3915098	ref=	-0.1485702
-3.3915098	defaultvalue=	-0.1485702
-3.4368687	this.state.value	-0.1485702
-3.3915098	output	-0.1485702
-3.3915098	content	-0.1485702
-3.3915098	dangerouslysetinnerhtml=	-0.1485702
-3.3915098	__html	-0.1485702
-3.3915098	marked	-0.1485702
-3.3915098	sanitize	-0.1485702
-3.4368687	debugger	-0.1485702
-3.4368687	timer	-0.1485702
-3.3915098	secondselapsed	-0.1485702
-3.3915098	0	-0.1485702
-3.3915098	tick	-0.1485702
-3.4368687	this.state.secondselapsed	-0.1485702
-2.5429785	+	-0.24948482
-3.3915098	1	-0.1485702
-3.3915098	componentdidmount	-0.1485702
-3.4368687	this.interval	-0.1485702
-3.3915098	setinterval	-0.1485702
-3.3915098	this.tick	-0.1485702
-3.3915098	1000	-0.1485702
-3.3915098	componentwillunmount	-0.1485702
-3.3915098	clearinterval	-0.1485702
-3.3915098	seconds	-0.1485702
-3.3915098	elapsed	-0.1485702
-3.4368687	todolist	-0.1485702
-3.4368687	createitem	-0.1485702
-2.7476585	itemtext	-0.28910598
-3.4368687	index	-0.1485702
-3.3915098	li	-0.1485702
-3.3915098	key=	-0.1485702
-3.3915098	/li	-0.1485702
-3.3915098	ul	-0.1485702
-3.3915098	this.props.items.map	-0.1485702
-3.3915098	/ul	-0.1485702
-3.4368687	todoapp	-0.1485702
-3.3915098	items	-0.1485702
-3.4368687	text	-0.38118118
-3.3915098	onchange	-0.1485702
-3.3915098	e	-0.1485702
-3.3915098	e.target.value	-0.1485702
-3.3915098	handlesubmit	-0.1485702
-3.3915098	e.preventdefault	-0.1485702
-3.4368687	nextitems	-0.1485702
-3.3915098	this.state.items.concat	-0.1485702
-3.4368687	this.state.text	-0.1485702
-3.4368687	nexttext	-0.1485702
-3.3915098	todo	-0.1485702
-3.3915098	items=	-0.1485702
-3.3915098	this.state.items	-0.1485702
-3.3915098	form	-0.1485702
-3.3915098	onsubmit=	-0.1485702
-3.3915098	this.handlesubmit	-0.1485702
-3.3915098	this.onchange	-0.1485702
-3.3915098	value=	-0.1485702
-3.3915098	button	-0.1485702
-3.3915098	'add	-0.1485702
-3.3915098	#	-0.1485702
-3.3915098	this.state.items.length	-0.1485702
-3.3915098	/button	-0.1485702
-3.3915098	/form	-0.1485702

\2-grams:
-2.2061362	<s> </s>
-1.2589818	string </s>
-0.4818732	var </s>
-1.2034549	identifier </s>
-1.1710136	numeric </s>
-0.81184644	if </s>
-0.93504816	function </s>
-1.1942037	return </s>
-1.0681707	null </s>
-1.012825	regularexpression </s>
-1.2821878	false </s>
-0.9018287	in </s>
-1.1262408	true </s>
-0.7090316	typeof </s>
-0.8576622	for </s>
-1.0624673	else </s>
-0.73262906	delete </s>
-1.1841669	continue </s>
-0.8237752	throw </s>
-0.8758366	new </s>
-1.060994	try </s>
-0.6500604	catch </s>
-1.0557863	break </s>
-0.829496	instanceof </s>
-1.1276278	do </s>
-0.8153079	while </s>
-0.89811575	this </s>
-0.79025203	switch </s>
-0.9436291	case </s>
-0.99184436	default </s>
-1.2898991	class </s>
-0.93717766	{ </s>
-1.0765842	} </s>
-0.46428496	> </s>
-1.3154343	` </s>
-0.7397753	\`.` </s>
-1.2475287	, </s>
-0.4855531	reactelement.` </s>
-1.4280815	const </s>
-1.194763	export </s>
-0.6401298	import </s>
-0.7052895	void </s>
-0.99173945	yield </s>
-1.2806281	( </s>
-1.4469904	) </s>
-0.87361646	div </s>
-0.10193744	; </s>
-0.8211054	'' </s>
-0.4855531	! </s>
-0.7397753	textarea </s>
-0.63330173	<s> string	-2.7395551
-1.2898988	string string	-0.5707452
-1.2926476	identifier string	-0.8991475
-1.3505383	numeric string	-0.4871958
-0.99347174	if string	-0.6431438
-1.5070143	function string	-0.27203232
-1.2223886	return string	-0.5467093
-1.1508732	null string	-0.39279717
-1.1460979	regularexpression string	-0.33689708
-1.1094487	false string	-0.4331373
-1.2633044	true string	-0.42993432
-1.6140456	for string	-0.2887404
-0.8317082	throw string	-0.37317064
-2.051225	while string	-0.24042913
-1.2927113	this string	-0.34804663
-0.6057979	case string	-0.5222881
-1.8356276	default string	-0.24042913
-0.9553007	.` string	-0.24042913
-1.7544074	export string	-0.24042913
-0.9083427	import string	-0.24042913
-1.5214854	<s> var	-2.5796604
-1.2584105	string var	-0.8439414
-1.4357445	identifier var	-1.0837017
-1.199893	numeric var	-0.82046026
-1.0759794	function var	-0.6791311
-1.3861365	return var	-0.66309214
-1.3345783	null var	-0.52478945
-1.1441197	regularexpression var	-0.49132806
-1.2695825	false var	-0.5759419
-1.2617273	true var	-0.6674193
-0.42555293	for var	-1.0123458
-1.0351747	else var	-0.6791311
-0.97473156	continue var	-0.49132806
-0.7948624	try var	-0.7977907
-1.142947	break var	-0.7113158
-1.6879215	do var	-0.24042913
-1.4479007	this var	-0.49132806
-1.8249677	default var	-0.24042913
-1.6675823	finally var	-0.24042913
-0.7345423	export var	-0.5651878
-0.7961736	debugger var	-0.24042913
-0.28940108	<s> identifier	-3.0130336
-1.1853012	string identifier	-0.70200825
-0.33290973	var identifier	-0.87982005
-1.1854358	identifier identifier	-1.0396149
-1.0968281	numeric identifier	-0.6655673
-0.77037764	if identifier	-0.8353918
-0.7546916	function identifier	-0.7046074
-1.0175146	return identifier	-0.684315
-0.9653842	null identifier	-0.53143287
-0.7598347	regularexpression identifier	-0.45788616
-1.0422053	false identifier	-0.5401099
-0.52382934	in identifier	-0.3229917
-1.0240318	true identifier	-0.5549231
-0.29052722	typeof identifier	-0.5219541
-0.60424453	for identifier	-0.7455846
-0.93983227	else identifier	-0.558856
-0.37723893	delete identifier	-0.61776793
-0.86537874	continue identifier	-0.3658651
-0.50032866	throw identifier	-0.5879079
-0.18594469	new identifier	-0.5631208
-0.7530575	try identifier	-0.5884459
-0.22835033	catch identifier	-0.54503924
-0.9195849	break identifier	-0.48475975
-0.3254314	instanceof identifier	-0.34804663
-0.4140128	do identifier	-0.5302752
-0.5017029	while identifier	-0.56409144
-0.6318143	this identifier	-0.82149285
-0.34027058	switch identifier	-0.67420065
-0.5448127	case identifier	-0.535999
-0.8151746	default identifier	-0.3711499
-0.47512418	finally identifier	-0.39591917
-0.18560748	class identifier	-0.46733516
-0.58563447	extends identifier	-0.26391333
-0.38510066	super identifier	-0.27203238
-1.4271493	{ identifier	-0.24042913
-1.3583369	` identifier	-0.24042913
-0.89394134	.` identifier	-0.24042913
-0.0868936	const identifier	-0.56503737
-1.2096107	export identifier	-0.24042913
-0.4865564	import identifier	-0.32737675
-0.8238629	void identifier	-0.37839007
-0.4992512	yield identifier	-0.25369284
-0.9997693	<s> numeric	-2.4403965
-1.4437673	string numeric	-0.5248189
-1.3852494	identifier numeric	-0.79339606
-1.2729597	numeric numeric	-0.520195
-1.4486988	if numeric	-0.3529391
-2.243414	function numeric	-0.24042913
-1.3918344	return numeric	-0.5092441
-1.4294207	null numeric	-0.35672557
-1.4121865	regularexpression numeric	-0.26956332
-1.3488182	false numeric	-0.346367
-1.4016843	true numeric	-0.40223134
-2.1183622	for numeric	-0.24042913
-0.77430874	while numeric	-0.49737877
-1.2976004	this numeric	-0.40167162
-0.60648763	case numeric	-0.47905847
-1.8692731	default numeric	-0.24042913
-0.37922224	void numeric	-0.43492848
-1.6425934	<s> if	-2.3083985
-1.3181131	string if	-0.66228217
-1.3639258	identifier if	-0.8534063
-1.2645139	numeric if	-0.59772974
-1.3904355	function if	-0.3850506
-1.3819115	return if	-0.56511796
-1.4117428	null if	-0.36056012
-1.5860604	regularexpression if	-0.25911385
-1.2641616	false if	-0.44932377
-1.2043004	true if	-0.46005344
-1.099667	for if	-0.37839007
-0.87985784	else if	-0.6199155
-0.7446966	continue if	-0.5398858
-0.83018434	try if	-0.6028166
-0.93037075	break if	-0.6860806
-0.56006473	do if	-0.43620312
-1.2862768	this if	-0.4092425
-1.0340341	default if	-0.4121468
-0.76636326	finally if	-0.29920888
-1.1402867	extends if	-0.24042913
-0.5127974	array if	-0.24042913
-1.0161307	` if	-0.2887404
-0.5127974	`value if	-0.24042913
-0.78998774	debugger if	-0.24042913
-1.5832623	<s> function	-2.1535714
-1.3519696	string function	-0.5032389
-1.4325397	identifier function	-0.7367517
-1.3896161	numeric function	-0.4719125
-2.2874672	if function	-0.24042913
-1.3882823	function function	-0.49132806
-1.2175622	return function	-0.6205501
-1.3263689	null function	-0.39490566
-1.2426715	regularexpression function	-0.35578975
-1.2025969	false function	-0.5302752
-1.2029234	true function	-0.55827487
-1.804587	new function	-0.24042913
-1.1871972	catch function	-0.2887404
-1.2120175	break function	-0.644369
-1.3865471	instanceof function	-0.24042913
-1.284683	this function	-0.4523155
-1.3961389	default function	-0.2887404
-1.6426246	finally function	-0.24042913
-0.5117173	false.` function	-0.24042913
-0.7879453	array.` function	-0.24042913
-0.44459414	export function	-0.7131768
-1.4271631	import function	-0.24042913
-1.0616337	yield function	-0.24042913
-1.3692644	= function	-0.24042913
-0.43435937	: function	-0.76930773
-1.629016	<s> return	-1.8751634
-1.3569268	string return	-0.5853213
-1.3823953	identifier return	-0.77703327
-1.349084	numeric return	-0.506878
-1.0759794	function return	-0.5398858
-1.6547301	return return	-0.4137817
-1.3345783	null return	-0.33265477
-1.6027583	regularexpression return	-0.2507101
-1.4245143	false return	-0.34098595
-1.2617273	true return	-0.36611354
-0.99129784	else return	-0.4672643
-1.9741889	delete return	-0.24042913
-1.4675136	continue return	-0.2887404
-1.0202682	try return	-0.52609015
-1.0799308	break return	-0.49967074
-1.554375	this return	-0.2912396
-0.76332366	default return	-0.3461101
-1.1519183	extends return	-0.24042913
-0.9523153	.` return	-0.24042913
-0.7961736	\`.` return	-0.24042913
-0.51605386	reactnode.` return	-0.24042913
-2.400133	<s> null	-1.264358
-1.6144737	string null	-0.39310205
-1.4824437	identifier null	-0.6818301
-1.5257237	numeric null	-0.35944915
-1.2239722	if null	-0.76930773
-1.6792675	function null	-0.27203238
-1.2292368	return null	-0.5602858
-1.4398551	null null	-0.3289724
-1.4270742	regularexpression null	-0.29920888
-1.4458098	false null	-0.28881738
-1.9722338	true null	-0.25911385
-1.9478422	this null	-0.26391333
-1.8849578	switch null	-0.24042913
-2.793339	<s> regularexpression	-1.0840098
-1.554385	string regularexpression	-0.4779474
-1.6331148	identifier regularexpression	-0.4902235
-1.6886663	numeric regularexpression	-0.37839007
-1.1192828	if regularexpression	-0.7113158
-2.3280938	function regularexpression	-0.24042913
-1.5168697	return regularexpression	-0.5759419
-1.9232866	null regularexpression	-0.27203238
-1.2761213	regularexpression regularexpression	-0.33478856
-2.378343	true regularexpression	-0.24042913
-1.2601869	typeof regularexpression	-0.2887404
-2.1184943	while regularexpression	-0.24042913
-2.5299075	<s> false	-1.1680673
-1.498144	string false	-0.4553921
-1.5040414	identifier false	-0.6882999
-1.5257237	numeric false	-0.42614034
-1.5699176	if false	-0.46827775
-2.3097854	function false	-0.24042913
-1.2292368	return false	-0.5761768
-1.3514776	null false	-0.29352412
-2.075639	regularexpression false	-0.24042913
-1.284378	false false	-0.43627447
-1.4104637	true false	-0.42635995
-2.3503127	this false	-0.24042913
-1.9186174	default false	-0.24042913
-3.8096044	<s> in	-0.88926804
-1.6329015	string in	-0.49248666
-1.8789375	identifier in	-0.6678501
-2.2285583	numeric in	-0.2887404
-0.5338464	specified in	-0.24042913
-2.2286134	<s> true	-1.4383364
-1.4468225	string true	-0.50607866
-1.5021633	identifier true	-0.74083275
-1.5931834	numeric true	-0.42474505
-1.9513494	if true	-0.2887404
-1.2634723	return true	-0.589016
-1.4346066	null true	-0.35788006
-1.2806315	false true	-0.3836247
-1.4060519	true true	-0.33628842
-1.8553543	new true	-0.24042913
-0.8961529	while true	-0.4735377
-1.7210569	this true	-0.26876652
-1.8719933	switch true	-0.24042913
-1.788833	export true	-0.24042913
-1.669544	: true	-0.24042913
-2.949839	<s> typeof	-1.8832511
-1.4078817	string typeof	-0.6162668
-1.6042858	identifier typeof	-0.7481618
-2.533987	numeric typeof	-0.24042913
-0.99751735	if typeof	-0.69360685
-1.6834856	function typeof	-0.343339
-1.5168697	return typeof	-0.5194303
-1.9232866	null typeof	-0.2887404
-2.3246071	false typeof	-0.24042913
-2.378343	true typeof	-0.24042913
-1.9552295	this typeof	-0.27203238
-1.0941538	switch typeof	-0.343339
-2.6751575	<s> for	-1.7719953
-1.6660792	string for	-0.44582233
-1.4965771	identifier for	-0.83851135
-1.6610082	numeric for	-0.3934096
-1.3969601	function for	-0.46679747
-1.7593168	return for	-0.28881738
-1.663683	null for	-0.27863866
-1.9581918	regularexpression for	-0.24042913
-1.858598	false for	-0.27863866
-1.4774594	true for	-0.46679747
-1.1389905	else for	-0.5398858
-1.2425251	continue for	-0.343339
-1.5156257	try for	-0.31523678
-1.417416	break for	-0.2887404
-1.6879215	do for	-0.24042913
-1.695738	this for	-0.27203238
-1.8249677	default for	-0.24042913
-1.1519183	extends for	-0.24042913
-0.7961736	array.` for	-0.24042913
-0.51605386	object.` for	-0.24042913
-0.51605386	\`object\`.` for	-0.24042913
-2.3021202	<s> else	-1.5876142
-1.6099864	string else	-0.51533777
-1.573923	identifier else	-0.7024737
-1.5213846	numeric else	-0.46681958
-2.275333	function else	-0.24042913
-1.6707832	return else	-0.36439323
-1.4346066	null else	-0.38309324
-1.6382133	regularexpression else	-0.24042913
-1.3532047	false else	-0.39216357
-1.2712768	true else	-0.4216873
-1.0974627	continue else	-0.3663893
-1.148927	break else	-0.47305122
-1.5725102	this else	-0.33364594
-1.8932447	default else	-0.24042913
-0.52264094	true.` else	-0.24042913
-3.5351088	<s> delete	-1.1445405
-1.6789677	string delete	-0.5033288
-1.7269064	identifier delete	-0.64275765
-1.7827383	numeric delete	-0.32066944
-2.3872473	if delete	-0.24042913
-1.8789039	function delete	-0.26391333
-2.124844	return delete	-0.27203238
-1.8922746	null delete	-0.26391333
-2.0278	regularexpression delete	-0.24042913
-2.2490265	false delete	-0.24042913
-2.302923	true delete	-0.24042913
-1.6407204	else delete	-0.27863866
-1.5266732	try delete	-0.31523678
-1.7167333	this delete	-0.27203238
-1.7009422	finally delete	-0.24042913
-1.7911437	void delete	-0.24042913
-3.9423041	<s> continue	-0.33019462
-1.7870624	string continue	-0.28035638
-1.7777699	identifier continue	-0.4719125
-1.811237	numeric continue	-0.29273692
-2.3908029	null continue	-0.24042913
-2.1489186	regularexpression continue	-0.24042913
-2.391408	false continue	-0.24042913
-2.0058327	true continue	-0.24042913
-2.403796	else continue	-0.24042913
-2.92871	<s> throw	-1.426523
-1.548533	string throw	-0.5101321
-1.629331	identifier throw	-0.8323595
-1.5931834	numeric throw	-0.45353946
-1.32195	function throw	-0.43461278
-1.6707832	return throw	-0.46827775
-1.5441688	null throw	-0.343339
-2.0431683	regularexpression throw	-0.24042913
-1.9031553	false throw	-0.26391333
-1.9563613	true throw	-0.26391333
-1.0885768	else throw	-0.66503406
-1.960891	continue throw	-0.24042913
-2.2323995	try throw	-0.24042913
-2.3147967	this throw	-0.24042913
-1.2064176	default throw	-0.31523678
-2.5327375	<s> new	-2.299187
-1.8662645	string new	-0.4121468
-1.5228211	identifier new	-0.78927183
-1.9188675	numeric new	-0.343339
-1.4486988	if new	-0.5651878
-1.6627932	function new	-0.343339
-1.2613437	return new	-0.681215
-2.2341328	null new	-0.24042913
-1.4121865	regularexpression new	-0.343339
-1.8877894	false new	-0.2887404
-1.4881676	in new	-0.24042913
-1.9410486	true new	-0.2887404
-0.50345045	throw new	-0.88740706
-1.5244411	try new	-0.343339
-2.0752466	while new	-0.24042913
-2.281967	this new	-0.24042913
-1.8692731	default new	-0.24042913
-3.2676544	<s> try	-0.86419314
-1.548533	string try	-0.45749152
-1.4806565	identifier try	-0.6540417
-1.5213846	numeric try	-0.41214675
-1.4103111	function try	-0.31705886
-1.6707832	return try	-0.29619205
-1.69105	null try	-0.26391333
-2.0431683	regularexpression try	-0.24042913
-1.6958022	false try	-0.27203232
-1.6025102	true try	-0.3200915
-1.4877125	else try	-0.35578975
-1.960891	continue try	-0.24042913
-2.2323995	try try	-0.24042913
-2.3147967	this try	-0.24042913
-1.1814811	finally try	-0.24042913
-3.269147	<s> catch	-1.5651878
-1.6167349	string catch	-0.5651878
-1.6331148	identifier catch	-0.6901265
-1.600892	numeric catch	-0.55827487
-2.3280938	function catch	-0.24042913
-2.157023	return catch	-0.2887404
-2.3252604	null catch	-0.24042913
-2.0928326	regularexpression catch	-0.24042913
-1.9272745	false catch	-0.2887404
-1.7635632	true catch	-0.30622384
-1.8274597	break catch	-0.24042913
-2.3692226	this catch	-0.24042913
-3.1476147	<s> break	-0.6886195
-1.7738427	string break	-0.36423105
-1.8614453	identifier break	-0.5057235
-1.7947237	numeric break	-0.29309756
-2.305441	null break	-0.24042913
-2.075639	regularexpression break	-0.24042913
-1.7056154	false break	-0.26124045
-1.498665	true break	-0.34730315
-1.4915845	else break	-0.28035638
-1.497448	continue break	-0.24042913
-2.2867088	break break	-0.24042913
-2.3503127	this break	-0.24042913
-1.4459654	default break	-0.24042913
-3.84103	<s> instanceof	-1.0123458
-2.3167675	string instanceof	-0.2887404
-1.9348905	identifier instanceof	-0.54009527
-2.2285583	numeric instanceof	-0.27203238
-1.486645	this instanceof	-0.5651878
-3.8649702	<s> do	-0.6791311
-2.2633734	string do	-0.2887404
-1.9223826	identifier do	-0.5650791
-1.8070494	numeric do	-0.4259425
-2.596352	return do	-0.24042913
-2.3678386	null do	-0.24042913
-2.179859	for do	-0.24042913
-1.8959725	else do	-0.24042913
-2.3301592	break do	-0.24042913
-2.409708	this do	-0.24042913
-3.096765	<s> while	-1.2332357
-1.6789677	string while	-0.41946378
-1.628077	identifier while	-0.63186586
-1.590644	numeric while	-0.44932377
-1.8789039	function while	-0.27203238
-1.9209503	return while	-0.30622384
-1.5408248	null while	-0.37839007
-2.0278	regularexpression while	-0.24042913
-1.6909776	false while	-0.31523678
-2.302923	true while	-0.24042913
-1.3718302	else while	-0.4311626
-1.4859794	continue while	-0.24042913
-1.254043	try while	-0.5651878
-1.5818664	break while	-0.29920888
-2.2980716	this while	-0.24042913
-1.8810936	default while	-0.24042913
-1.9777215	<s> this	-1.7952368
-1.3833594	string this	-0.5244232
-1.3442514	identifier this	-0.6764507
-1.3817194	numeric this	-0.51727796
-0.8952355	if this	-0.66616225
-1.377673	function this	-0.4311626
-1.1804289	return this	-0.5496198
-1.3971428	null this	-0.44533688
-1.8555628	regularexpression this	-0.24042913
-1.4017422	false this	-0.4102858
-0.6909738	in this	-0.29920888
-1.2477854	true this	-0.62169945
-0.9952294	typeof this	-0.343339
-2.023122	for this	-0.24042913
-1.1930903	else this	-0.49132806
-0.52200425	delete this	-0.7113158
-1.2235609	continue this	-0.31523678
-1.2865118	new this	-0.27203238
-1.1496882	try this	-0.644369
-1.4009712	break this	-0.3998507
-1.3671576	instanceof this	-0.24042913
-1.6396656	do this	-0.24042913
-1.0526274	while this	-0.49132806
-1.1184748	this this	-0.53304434
-0.9168534	switch this	-0.4121468
-1.7392427	default this	-0.24042913
-0.91891074	finally this	-0.343339
-0.94912434	super this	-0.24042913
-1.2292068	void this	-0.2887404
-0.50635684	with this	-0.24042913
-3.5534418	<s> switch	-0.896934
-1.7705997	string switch	-0.28881738
-1.9126294	identifier switch	-0.51263994
-1.6823661	numeric switch	-0.5651878
-1.67509	function switch	-0.27863866
-2.1406355	return switch	-0.24042913
-1.9075038	null switch	-0.2887404
-1.9110471	false switch	-0.2887404
-1.753678	true switch	-0.343339
-2.1436596	for switch	-0.24042913
-1.8766698	else switch	-0.2887404
-1.9723005	continue switch	-0.24042913
-2.2439153	try switch	-0.24042913
-2.2731407	break switch	-0.24042913
-2.9141424	<s> case	-1.4421749
-1.7837197	string case	-0.47800702
-1.8679225	identifier case	-0.644369
-1.8070494	numeric case	-0.36400405
-2.174053	return case	-0.26391333
-1.9396646	null case	-0.24042913
-1.9441317	false case	-0.2887404
-1.9971862	true case	-0.24042913
-1.089452	break case	-0.6258856
-1.9703923	this case	-0.2887404
-3.8027396	<s> default	-0.48589784
-2.0522974	string default	-0.30622384
-2.060776	identifier default	-0.30664793
-2.1866488	numeric default	-0.24042913
-2.182825	return default	-0.24042913
-2.391408	false default	-0.24042913
-2.444977	true default	-0.24042913
-1.1549904	break default	-0.38519335
-1.0264326	export default	-0.27203238
-3.9051394	<s> finally	-0.67942005
-2.28395	string finally	-0.2887404
-1.872295	identifier finally	-0.4970188
-2.1967533	numeric finally	-0.27203238
-2.4150493	null finally	-0.24042913
-1.9616698	false finally	-0.27863866
-2.469672	true finally	-0.24042913
-2.454359	this finally	-0.24042913
-4.8090277	<s> class	-0.2887404
-2.7775183	string class	-0.24042913
-2.1615934	identifier class	-0.3998507
-2.6932683	numeric class	-0.24042913
-2.4578931	function class	-0.24042913
-2.4703848	false class	-0.24042913
-2.7236025	identifier extends	-0.25911385
-1.439851	class extends	-0.24042913
-5.475617	<s> super	-0.24042913
-3.3134747	identifier super	-0.24042913
-3.3112109	identifier `the	-0.24042913
-0.5327127	`the \`	-0.24042913
-1.9720463	} \`	-0.24042913
-0.7037182	to \`	-0.2887404
-1.2893952	of \`	-0.24042913
-0.8284976	type \`	-0.24042913
-0.8284976	value \`	-0.24042913
-0.3661212	\` $	-0.644369
-1.7618039	< $	-0.24042913
-1.591422	` $	-0.24042913
-0.6979705	of $	-0.2887404
-0.52820754	from $	-0.24042913
-0.52820754	`required $	-0.24042913
-0.52820754	`\` $	-0.24042913
-0.40417346	`invalid $	-0.2887404
-0.98634106	[ $	-0.24042913
-0.52820754	. $	-0.24042913
-2.476686	return {	-0.24042913
-0.0394888	$ {	-0.86621773
-1.6799622	{ {	-0.24042913
-0.9905497	> {	-0.24042913
-1.4284961	, {	-0.24042913
-1.0561525	( {	-0.24042913
-1.6593904	: {	-0.24042913
-0.80760634	) {	-0.343339
-0.5215361	hello {	-0.24042913
-0.22854204	onchange= {	-0.24042913
-0.5215361	defaultvalue= {	-0.24042913
-0.5215361	dangerouslysetinnerhtml= {	-0.24042913
-0.5215361	key= {	-0.24042913
-0.5215361	items= {	-0.24042913
-0.5215361	onsubmit= {	-0.24042913
-0.5215361	value= {	-0.24042913
-3.638594	<s> }	-0.60354906
-2.745307	identifier }	-0.24042913
-2.224005	true }	-0.24042913
-1.7764366	} }	-0.24042913
-1.047981	) }	-0.2887404
-0.51605386	this.props.name }	-0.24042913
-1.3689896	'' }	-0.24042913
-0.7961736	' }	-0.24042913
-0.51605386	.value }	-0.24042913
-0.51605386	this.handlechange }	-0.24042913
-0.7961736	this.state.value }	-0.24042913
-0.51605386	0 }	-0.24042913
-0.7961736	this.state.secondselapsed }	-0.24042913
-0.7961736	1 }	-0.24042913
-0.3975223	itemtext }	-0.24042913
-0.51605386	e.target.value }	-0.24042913
-0.7961736	this.state.text }	-0.24042913
-0.7961736	nexttext }	-0.24042913
-0.51605386	this.state.items }	-0.24042913
-0.51605386	this.handlesubmit }	-0.24042913
-0.51605386	this.onchange }	-0.24042913
-1.6140836	\` prop	-0.24042913
-1.6036292	\` supplied	-0.24042913
-0.5361226	prop supplied	-0.24042913
-0.5361226	argument supplied	-0.24042913
-0.15135181	supplied to	-0.24042913
-0.5376329	`supplied to	-0.24042913
-3.8027396	<s> <	-0.31879157
-2.6199446	return <	-0.24042913
-1.0107685	} <	-0.25911385
-1.2729938	to <	-0.24042913
-0.5293295	using <	-0.24042913
-1.6104048	( <	-0.24042913
-0.8218374	input <	-0.24042913
-0.5293295	output <	-0.24042913
-0.5293295	todo <	-0.24042913
-1.9267311	< select	-0.24042913
-1.1594517	} >	-0.24042913
-0.5237485	select >	-0.24042913
-0.9736575	div >	-0.24042913
-0.5237485	/div >	-0.24042913
-1.4219428	'' >	-0.24042913
-0.06812287	/ >	-0.3998507
-0.5237485	h3 >	-0.24042913
-0.5237485	/h3 >	-0.24042913
-0.5237485	/li >	-0.24042913
-0.5237485	ul >	-0.24042913
-0.5237485	/ul >	-0.24042913
-0.5237485	button >	-0.24042913
-0.5237485	/button >	-0.24042913
-0.5237485	/form >	-0.24042913
-1.875404	> must	-0.24042913
-0.53759	must be	-0.24042913
-0.838274	be an	-0.24042913
-1.3138434	expected an	-0.24042913
-1.1383564	an array	-0.24042913
-4.4012733	<s> `	-0.46827775
-2.3938835	identifier `	-0.25911385
-2.454517	if `	-0.24042913
-1.5209011	in `	-0.24042913
-1.5436066	\` `	-0.24042913
-1.8966268	} `	-0.24042913
-1.2623938	to `	-0.24042913
-0.5270885	scalar `	-0.24042913
-0.81745344	type `	-0.24042913
-1.2543552	expected `	-0.24042913
-0.9831352	] `	-0.24042913
-1.679672	` `\`multiple\`	-0.24042913
-0.5376329	`\`multiple\` is	-0.24042913
-0.5376329	\`multiple\` is	-0.24042913
-0.8381884	is true.`	-0.24042913
-0.83526146	be a	-0.24042913
-0.5361226	passed a	-0.24042913
-1.3048992	expected a	-0.24042913
-1.1383564	a scalar	-0.24042913
-1.679672	` `value	-0.24042913
-2.6163418	if \`multiple\`	-0.24042913
-0.8381884	is false.`	-0.24042913
-1.679672	` check	-0.24042913
-0.53759	check the	-0.24042913
-4.3491116	<s> render	-0.5651878
-0.838274	the render	-0.24042913
-0.8381884	render method	-0.24042913
-1.5956569	\` of	-0.24042913
-0.53498304	method of	-0.24042913
-0.23250751	instance of	-0.24042913
-0.53498304	one of	-0.24042913
-2.0497904	} .`	-0.24042913
-1.8759012	> .`	-0.24042913
-4.469306	<s> react.render	-0.46827775
-0.838274	the react.render	-0.24042913
-0.8381884	react.render call	-0.24042913
-0.53759	call using	-0.24042913
-1.679672	` it	-0.24042913
-1.614392	\` was	-0.24042913
-0.5376329	it was	-0.24042913
-0.8381884	was passed	-0.24042913
-1.1383564	a child	-0.24042913
-0.53759	child from	-0.24042913
-3.3112109	identifier `required	-0.24042913
-0.8381884	was not	-0.24042913
-0.53759	not specified	-0.24042913
-0.65198505	` `\`	-0.46827775
-2.049054	} \`.`	-0.24042913
-5.475617	<s> `invalid	-0.24042913
-3.3134747	identifier `invalid	-0.24042913
-1.3139441	of type	-0.24042913
-1.5506712	\` ,	-0.24042913
-1.9106991	} ,	-0.24042913
-1.7772915	> ,	-0.24042913
-0.98634106	] ,	-0.24042913
-0.52820754	oneof ,	-0.24042913
-0.52820754	oneoftype ,	-0.24042913
-0.8196399	this.state.value ,	-0.24042913
-0.52820754	this.tick ,	-0.24042913
-0.9941145	itemtext ,	-0.24042913
-0.8196399	nextitems ,	-0.24042913
-0.6738584	, expected	-0.27622426
-1.1385273	an array.`	-0.24042913
-1.3141646	of array.`	-0.24042913
-2.02451	} [	-0.24042913
-1.6894317	( [	-0.24042913
-1.8145466	: [	-0.24042913
-2.02451	} ]	-0.24042913
-1.0094697	[ ]	-0.24042913
-0.83526146	this.state.text ]	-0.24042913
-1.1383564	a single	-0.24042913
-0.53759	single reactelement.`	-0.24042913
-1.1385273	an instance	-0.24042913
-1.3138434	expected instance	-0.24042913
-1.0142062	`invalid argument	-0.24042913
-1.3139441	to oneof	-0.24042913
-1.3283026	{ value	-0.2887404
-1.3141646	of value	-0.24042913
-1.679672	` `supplied	-0.24042913
-1.3135875	expected one	-0.24042913
-1.1383564	an object.`	-0.24042913
-2.049054	} .	-0.24042913
-1.3139441	to oneoftype	-0.24042913
-1.1383564	a reactnode.`	-0.24042913
-1.3135875	expected \`object\`.`	-0.24042913
-3.8336544	<s> const	-1.0123458
-2.2735398	string const	-0.2887404
-1.8701032	identifier const	-0.7131768
-2.1866488	numeric const	-0.2887404
-2.6199446	return const	-0.24042913
-2.3908029	null const	-0.24042913
-1.9528122	false const	-0.2887404
-2.0058327	true const	-0.2887404
-2.403796	else const	-0.24042913
-3.4951065	<s> export	-0.7869278
-1.7870624	string export	-0.4819606
-1.7777699	identifier export	-0.49903405
-1.811237	numeric export	-0.32066944
-2.3881621	function export	-0.24042913
-1.6768221	regularexpression export	-0.2887404
-1.7259333	false export	-0.343339
-2.0058327	true export	-0.2887404
-1.978177	this export	-0.2887404
-3.0150242	<s> import	-1.5194303
-2.0843546	string import	-0.27863866
-2.1702337	identifier import	-0.35578975
-2.2622898	regularexpression import	-0.24042913
-3.7199368	<s> void	-1.1214902
-1.6949565	string void	-0.5033288
-1.6667235	identifier void	-0.61376053
-1.6950593	numeric void	-0.4259425
-1.9748131	if void	-0.2887404
-1.6846294	return void	-0.4121468
-1.4478488	null void	-0.46679747
-2.3679805	false void	-0.24042913
-2.1370761	while void	-0.24042913
-2.409708	this void	-0.24042913
-5.475617	<s> yield	-0.24042913
-2.4679189	identifier yield	-0.29920888
-2.1774106	var hellomessage	-0.24042913
-1.9276379	< hellomessage	-0.24042913
-0.8218374	hellomessage =	-0.24042913
-0.98957074	markdowneditor =	-0.24042913
-0.8218374	timer =	-0.24042913
-0.8218374	this.interval =	-0.24042913
-0.8218374	todolist =	-0.24042913
-0.8218374	createitem =	-0.24042913
-0.8218374	todoapp =	-0.24042913
-0.8218374	nextitems =	-0.24042913
-0.8218374	nexttext =	-0.24042913
-0.33951128	= react.createclass	-0.5651878
-1.8993181	function (	-0.24042913
-2.5324104	return (	-0.24042913
-0.8131132	react.render (	-0.24042913
-0.524859	react.createclass (	-0.24042913
-0.524859	this.setstate (	-0.24042913
-0.524859	react.finddomnode (	-0.24042913
-0.524859	marked (	-0.24042913
-1.0996499	+ (	-0.24042913
-0.524859	setinterval (	-0.24042913
-0.524859	clearinterval (	-0.24042913
-0.524859	this.props.items.map (	-0.24042913
-0.524859	e.preventdefault (	-0.24042913
-0.524859	this.state.items.concat (	-0.24042913
-0.80881596	render :	-0.24042913
-0.80881596	value :	-0.24042913
-0.52264094	getinitialstate :	-0.24042913
-0.52264094	handlechange :	-0.24042913
-0.52264094	__html :	-0.24042913
-0.52264094	sanitize :	-0.24042913
-0.52264094	secondselapsed :	-0.24042913
-0.52264094	tick :	-0.24042913
-0.52264094	componentdidmount :	-0.24042913
-0.52264094	componentwillunmount :	-0.24042913
-0.52264094	elapsed :	-0.24042913
-0.52264094	items :	-0.24042913
-0.22887114	text :	-0.24042913
-0.52264094	onchange :	-0.24042913
-0.52264094	handlesubmit :	-0.24042913
-4.5303187	<s> )	-0.343339
-0.7975919	} )	-0.49132806
-0.97995293	] )	-0.24042913
-1.0698085	( )	-0.24042913
-0.5259723	mountnode )	-0.24042913
-0.5259723	this.refs.textarea )	-0.24042913
-0.81527793	1 )	-0.24042913
-0.81527793	this.interval )	-0.24042913
-0.5259723	1000 )	-0.24042913
-0.81527793	createitem )	-0.24042913
-0.81527793	index )	-0.24042913
-0.5259723	e )	-0.24042913
-1.3279947	< div	-0.26391333
-1.875404	> hello	-0.24042913
-1.9270822	{ this.props.name	-0.24042913
-1.3279947	< /div	-0.2887404
-1.0198678	} ;	-0.46827775
-1.0118511	> ;	-0.343339
-0.3587793	) ;	-0.7113158
-1.510918	'' ;	-0.24042913
-0.8381884	hellomessage name=	-0.24042913
-1.4485078	= ''	-0.24042913
-1.7360215	: ''	-0.24042913
-0.5293295	name= ''	-0.24042913
-0.5293295	john ''	-0.24042913
-0.98957074	markdowneditor ''	-0.24042913
-0.23085082	classname= ''	-0.24042913
-0.8218374	textarea ''	-0.24042913
-0.5293295	ref= ''	-0.24042913
-0.5293295	content ''	-0.24042913
-1.5340761	'' john	-0.24042913
-5.2208996	<s> /	-0.24042913
-1.1802301	} /	-0.343339
-1.4916048	'' /	-0.24042913
-0.9994063	markdowneditor /	-0.24042913
-0.8284976	timer /	-0.24042913
-0.8284976	todoapp /	-0.24042913
-1.5348293	, mountnode	-0.24042913
-3.3112109	identifier with	-0.24042913
-2.1619575	var markdowneditor	-0.24042913
-1.8967028	< markdowneditor	-0.24042913
-1.5209064	'' markdowneditor	-0.24042913
-4.6356277	<s> getinitialstate	-0.343339
-1.8333652	: 'type	-0.24042913
-0.53759	'type some	-0.24042913
-0.53759	some *markdown*	-0.24042913
-0.53759	*markdown* here	-0.24042913
-0.53759	here !	-0.24042913
-5.475617	<s> '	-0.24042913
-0.5376329	# '	-0.24042913
-5.4726286	<s> handlechange	-0.24042913
-4.469011	<s> this.setstate	-0.46827775
-1.8333652	: react.finddomnode	-0.24042913
-1.7083846	( this.refs.textarea	-0.24042913
-1.6817117	) .value	-0.24042913
-5.475617	<s> classname=	-0.24042913
-1.0139768	div classname=	-0.24042913
-1.9267311	< h3	-0.24042913
-1.9276379	< input	-0.24042913
-1.8759012	> input	-0.24042913
-1.0709618	< /h3	-0.343339
-1.9276379	< textarea	-0.24042913
-1.5344659	'' textarea	-0.24042913
-5.475617	<s> onchange=	-0.24042913
-0.838274	input onchange=	-0.24042913
-1.9270822	{ this.handlechange	-0.24042913
-5.4726286	<s> ref=	-0.24042913
-5.4726286	<s> defaultvalue=	-0.24042913
-1.9279548	{ this.state.value	-0.24042913
-1.7089493	( this.state.value	-0.24042913
-1.875404	> output	-0.24042913
-1.5340761	'' content	-0.24042913
-5.4726286	<s> dangerouslysetinnerhtml=	-0.24042913
-5.4726286	<s> __html	-0.24042913
-1.8333652	: marked	-0.24042913
-1.9270822	{ sanitize	-0.24042913
-2.7236025	identifier debugger	-0.2887404
-2.583339	function debugger	-0.24042913
-2.1774106	var timer	-0.24042913
-1.9276379	< timer	-0.24042913
-1.3280832	{ secondselapsed	-0.2887404
-1.8333652	: 0	-0.24042913
-5.4726286	<s> tick	-0.24042913
-1.9279548	{ this.state.secondselapsed	-0.24042913
-1.8339258	: this.state.secondselapsed	-0.24042913
-0.83299506	' +	-0.24042913
-0.83299506	this.state.secondselapsed +	-0.24042913
-0.83299506	index +	-0.24042913
-0.53498304	this.state.items.length +	-0.24042913
-0.5340821	+ 1	-0.24042913
-5.4726286	<s> componentdidmount	-0.24042913
-5.475617	<s> this.interval	-0.24042913
-1.7089493	( this.interval	-0.24042913
-1.4900041	= setinterval	-0.24042913
-1.7083846	( this.tick	-0.24042913
-1.5348293	, 1000	-0.24042913
-5.4726286	<s> componentwillunmount	-0.24042913
-5.4726286	<s> clearinterval	-0.24042913
-1.875404	> seconds	-0.24042913
-0.53759	seconds elapsed	-0.24042913
-2.1774106	var todolist	-0.24042913
-1.9276379	< todolist	-0.24042913
-2.1774106	var createitem	-0.24042913
-1.7089493	( createitem	-0.24042913
-1.8981475	{ itemtext	-0.24042913
-1.6894317	( itemtext	-0.24042913
-1.134088	+ itemtext	-0.24042913
-1.9279548	{ index	-0.24042913
-1.5351448	, index	-0.24042913
-1.9267311	< li	-0.24042913
-0.53759	li key=	-0.24042913
-1.9267311	< /li	-0.24042913
-1.9267311	< ul	-0.24042913
-1.9270822	{ this.props.items.map	-0.24042913
-1.9267311	< /ul	-0.24042913
-2.1774106	var todoapp	-0.24042913
-1.9276379	< todoapp	-0.24042913
-1.3280832	{ items	-0.2887404
-1.9279548	{ text	-0.24042913
-0.9316466	, text	-0.2887404
-5.4726286	<s> onchange	-0.24042913
-1.7083846	( e	-0.24042913
-1.8333652	: e.target.value	-0.24042913
-5.4726286	<s> handlesubmit	-0.24042913
-5.4726286	<s> e.preventdefault	-0.24042913
-2.1774106	var nextitems	-0.24042913
-1.8339258	: nextitems	-0.24042913
-1.4900041	= this.state.items.concat	-0.24042913
-1.9279548	{ this.state.text	-0.24042913
-1.0139768	[ this.state.text	-0.24042913
-2.1774106	var nexttext	-0.24042913
-1.8339258	: nexttext	-0.24042913
-1.875404	> todo	-0.24042913
-0.8381884	todolist items=	-0.24042913
-1.9270822	{ this.state.items	-0.24042913
-1.9267311	< form	-0.24042913
-0.53759	form onsubmit=	-0.24042913
-1.9270822	{ this.handlesubmit	-0.24042913
-1.9270822	{ this.onchange	-0.24042913
-2.049054	} value=	-0.24042913
-1.9267311	< button	-0.24042913
-1.9270822	{ 'add	-0.24042913
-0.53759	'add #	-0.24042913
-1.7083846	( this.state.items.length	-0.24042913
-1.9267311	< /button	-0.24042913
-1.9267311	< /form	-0.24042913

\3-grams:
-1.2290263	<s> string </s>
-1.0723734	string string </s>
-1.1645133	identifier string </s>
-1.1753922	numeric string </s>
-1.2892084	if string </s>
-1.1153194	function string </s>
-0.963355	return string </s>
-1.2123612	null string </s>
-0.9672421	regularexpression string </s>
-1.1096196	false string </s>
-0.9701419	true string </s>
-0.9940249	throw string </s>
-1.1004155	this string </s>
-1.0113547	case string </s>
-0.9349274	<s> var </s>
-0.73017496	string var </s>
-0.5391231	identifier var </s>
-0.7066938	numeric var </s>
-0.70970154	function var </s>
-0.7960976	return var </s>
-0.6577949	null var </s>
-0.7514879	regularexpression var </s>
-0.7089474	false var </s>
-0.92757916	true var </s>
-0.63181007	for var </s>
-0.70970154	else var </s>
-0.7514879	continue var </s>
-0.93079615	try var </s>
-0.7514879	this var </s>
-1.8814576	<s> identifier </s>
-1.1102357	string identifier </s>
-1.1611581	var identifier </s>
-1.2164198	identifier identifier </s>
-1.1013058	numeric identifier </s>
-1.2210603	if identifier </s>
-1.100744	function identifier </s>
-1.1183586	return identifier </s>
-1.1586837	null identifier </s>
-1.0241321	regularexpression identifier </s>
-1.0974274	false identifier </s>
-1.2767029	in identifier </s>
-1.0727487	true identifier </s>
-0.8192907	typeof identifier </s>
-0.906474	for identifier </s>
-0.965656	else identifier </s>
-0.92419297	delete identifier </s>
-1.0752417	continue identifier </s>
-0.91523784	throw identifier </s>
-1.0677159	new identifier </s>
-1.071542	try identifier </s>
-1.0273453	catch identifier </s>
-1.2183673	break identifier </s>
-0.9353131	instanceof identifier </s>
-1.2685	do identifier </s>
-0.9441271	while identifier </s>
-1.1334941	this identifier </s>
-1.3192735	switch identifier </s>
-0.91839254	case identifier </s>
-0.8667358	default identifier </s>
-1.3429508	finally identifier </s>
-0.96002865	class identifier </s>
-0.852718	extends identifier </s>
-1.303262	const identifier </s>
-0.60458845	export identifier </s>
-1.1152493	import identifier </s>
-1.0130228	void identifier </s>
-1.019384	yield identifier </s>
-3.2756245	<s> numeric </s>
-1.006706	string numeric </s>
-1.0792323	identifier numeric </s>
-1.1984828	numeric numeric </s>
-0.8605999	if numeric </s>
-1.1284342	return numeric </s>
-0.98137707	null numeric </s>
-1.1613915	regularexpression numeric </s>
-1.0739498	false numeric </s>
-0.9797467	true numeric </s>
-0.8960991	while numeric </s>
-1.0581808	this numeric </s>
-0.90842646	case numeric </s>
-1.0982058	void numeric </s>
-1.7885833	<s> if </s>
-0.8715464	string if </s>
-0.74688554	identifier if </s>
-0.8098829	numeric if </s>
-0.77989054	function if </s>
-0.68263376	return if </s>
-0.9052849	null if </s>
-0.769675	regularexpression if </s>
-0.8033857	false if </s>
-0.71345496	true if </s>
-0.8684294	for if </s>
-0.85357034	else if </s>
-0.9237027	continue if </s>
-1.0035095	try if </s>
-0.70613724	break if </s>
-0.6222845	do if </s>
-0.93092334	this if </s>
-0.7892482	finally if </s>
-0.52111113	debugger if </s>
-2.189085	<s> function </s>
-0.9066341	string function </s>
-0.92346954	identifier function </s>
-0.99044144	numeric function </s>
-0.9652931	function function </s>
-0.90800864	return function </s>
-1.0092198	null function </s>
-0.95109266	regularexpression function </s>
-0.9385748	false function </s>
-0.8262279	true function </s>
-1.1168302	this function </s>
-0.30813256	finally function </s>
-1.1871419	export function </s>
-2.9795556	<s> return </s>
-1.1590623	string return </s>
-1.194629	identifier return </s>
-1.1521316	numeric return </s>
-0.9679357	function return </s>
-1.2068878	null return </s>
-1.1770533	false return </s>
-1.2574826	true return </s>
-1.056581	else return </s>
-1.2861408	try return </s>
-1.2762306	break return </s>
-1.1026316	this return </s>
-0.95553327	default return </s>
-0.95869017	string null </s>
-1.0560178	identifier null </s>
-1.0274124	numeric null </s>
-0.7272376	function null </s>
-0.9963397	return null </s>
-0.88225746	null null </s>
-0.89298755	regularexpression null </s>
-1.0127968	false null </s>
-0.87912166	true null </s>
-0.53854036	this null </s>
-0.87350816	string regularexpression </s>
-1.0303135	identifier regularexpression </s>
-0.68321055	if regularexpression </s>
-0.87387174	return regularexpression </s>
-0.7130801	null regularexpression </s>
-0.9911884	regularexpression regularexpression </s>
-0.8812366	string false </s>
-1.0300599	identifier false </s>
-0.8252239	numeric false </s>
-1.0320102	return false </s>
-0.826537	false false </s>
-0.86341095	true false </s>
-0.8906406	string in </s>
-0.9461116	identifier in </s>
-2.346374	<s> true </s>
-0.91884845	string true </s>
-1.1325942	identifier true </s>
-0.9351883	numeric true </s>
-1.0594512	return true </s>
-1.1660389	null true </s>
-1.0034267	false true </s>
-0.99981827	true true </s>
-1.3120261	while true </s>
-0.86201066	this true </s>
-0.8246767	string typeof </s>
-1.0907073	identifier typeof </s>
-0.95530033	if typeof </s>
-0.6175672	return typeof </s>
-0.60877174	this typeof </s>
-0.754948	string for </s>
-0.71276224	identifier for </s>
-1.0234504	numeric for </s>
-0.9047894	return for </s>
-0.80109847	null for </s>
-0.80109847	false for </s>
-0.94024223	else for </s>
-0.8385185	this for </s>
-0.85336936	string else </s>
-0.9951239	identifier else </s>
-1.03433	numeric else </s>
-1.1688383	return else </s>
-1.2349198	null else </s>
-1.0774307	false else </s>
-1.007149	true else </s>
-1.157327	break else </s>
-1.164243	this else </s>
-0.9538049	string delete </s>
-1.0303369	identifier delete </s>
-0.49625802	if delete </s>
-0.6838588	function delete </s>
-0.6838588	null delete </s>
-0.49625802	false delete </s>
-0.73882145	else delete </s>
-1.4153624	identifier continue </s>
-0.9663139	numeric continue </s>
-0.84193677	true continue </s>
-1.1150863	string throw </s>
-0.91926175	identifier throw </s>
-1.038796	numeric throw </s>
-0.8864789	function throw </s>
-0.7258446	false throw </s>
-0.7258446	true throw </s>
-1.2699882	else throw </s>
-0.86470664	string new </s>
-0.57112503	identifier new </s>
-0.7585675	return new </s>
-0.54396236	throw new </s>
-1.6907432	<s> try </s>
-0.9971267	identifier try </s>
-1.1412189	function try </s>
-0.9801862	return try </s>
-0.99797976	null try </s>
-1.028329	false try </s>
-1.0956583	true try </s>
-0.64812136	string catch </s>
-0.8939757	identifier catch </s>
-0.91140705	numeric catch </s>
-0.5646766	true catch </s>
-0.46693498	break catch </s>
-1.6116381	<s> break </s>
-0.97338915	string break </s>
-0.9793185	identifier break </s>
-1.0692849	numeric break </s>
-0.8677945	null break </s>
-1.0203228	false break </s>
-1.1555549	true break </s>
-1.0886081	else break </s>
-0.6602559	identifier instanceof </s>
-0.6558766	numeric instanceof </s>
-1.1292948	identifier do </s>
-0.9028021	numeric do </s>
-0.85641557	string while </s>
-0.81060004	identifier while </s>
-0.65891486	numeric while </s>
-0.8700759	null while </s>
-0.7439556	false while </s>
-0.6389053	true while </s>
-0.74932325	else while </s>
-0.7908946	break while </s>
-0.7588384	string this </s>
-0.88452864	identifier this </s>
-0.6742353	numeric this </s>
-0.6414848	if this </s>
-0.77400994	function this </s>
-0.9368405	return this </s>
-0.9743685	null this </s>
-0.5447729	regularexpression this </s>
-0.5476993	false this </s>
-0.89502776	true this </s>
-0.75106263	else this </s>
-0.84872925	delete this </s>
-0.7760696	continue this </s>
-0.95216084	while this </s>
-1.1963726	this this </s>
-0.8729795	switch this </s>
-0.68873996	string switch </s>
-0.90482605	identifier switch </s>
-0.76863956	function switch </s>
-0.629138	return switch </s>
-0.28541246	try switch </s>
-0.6451371	string case </s>
-0.75090533	identifier case </s>
-1.0373542	numeric case </s>
-1.0078149	break case </s>
-0.91650856	string default </s>
-1.1386557	identifier default </s>
-0.6983486	return default </s>
-1.2060947	break default </s>
-0.61608773	string class </s>
-0.30842096	{ { </s>
-0.81970173	( { </s>
-0.22269577	) { </s>
-0.71178746	<s> } </s>
-0.3248436	} } </s>
-0.3248436	this.handlechange } </s>
-0.46969575	} > </s>
-0.46969575	div > </s>
-0.38728356	/div > </s>
-0.20586027	'' > </s>
-0.524891	/ > </s>
-0.20586027	/h3 > </s>
-0.20586027	/button > </s>
-0.20586027	/form > </s>
-0.9520999	identifier ` </s>
-0.4986288	} \`.` </s>
-0.33947575	} , </s>
-0.21249154	single reactelement.` </s>
-1.3033271	identifier const </s>
-0.24789631	<s> export </s>
-1.2043285	identifier export </s>
-0.018420374	<s> import </s>
-0.68699056	string import </s>
-0.7913528	identifier import </s>
-0.93931335	string void </s>
-1.0356568	identifier void </s>
-0.7668748	numeric void </s>
-0.9251115	return void </s>
-0.68604624	null void </s>
-0.86582303	identifier yield </s>
-0.34174576	return ( </s>
-1.0841739	} ) </s>
-0.74681	< div </s>
-0.03206395	} ; </s>
-0.043300495	> ; </s>
-0.018031426	) ; </s>
-0.05564934	'' ; </s>
-0.2908	textarea '' </s>
-0.2908	content '' </s>
-0.21249154	here ! </s>
-0.27589464	< textarea </s>
-0.23967485	<s> string string	-2.697212
-1.116983	string string string	-0.46420246
-1.2432054	identifier string string	-0.67269385
-1.1187999	numeric string string	-0.40541112
-1.5425407	if string string	-0.2333333
-0.8685671	function string string	-0.2333333
-1.1478629	return string string	-0.34476706
-0.96894646	null string string	-0.31282967
-1.1258543	regularexpression string string	-0.25852883
-1.0086156	false string string	-0.3375225
-1.0867112	true string string	-0.3180294
-1.1098106	this string string	-0.25976586
-0.34235317	default string string	-0.2333333
-0.7664981	export string string	-0.2333333
-0.766273	<s> identifier string	-2.288962
-1.123352	string identifier string	-0.5635828
-1.1449922	var identifier string	-0.5791169
-1.2493278	identifier identifier string	-0.8595691
-1.1517406	numeric identifier string	-0.48884404
-1.2045122	if identifier string	-0.55265725
-1.2505016	function identifier string	-0.4106644
-1.1627843	return identifier string	-0.5155393
-1.0046204	null identifier string	-0.42097938
-1.0431321	regularexpression identifier string	-0.33846664
-0.88643336	false identifier string	-0.4463094
-1.1988716	in identifier string	-0.25166586
-1.0303831	true identifier string	-0.42519495
-0.68170774	typeof identifier string	-0.48024654
-1.7530123	for identifier string	-0.2333333
-1.1592319	else identifier string	-0.34607023
-0.7609208	delete identifier string	-0.25637248
-1.3282698	continue identifier string	-0.2333333
-0.87152493	throw identifier string	-0.53475726
-0.94572186	new identifier string	-0.4129985
-0.8588073	try identifier string	-0.3849135
-1.5163485	catch identifier string	-0.2333333
-1.3937752	break identifier string	-0.25637248
-1.257678	instanceof identifier string	-0.24634849
-1.3182282	while identifier string	-0.27938262
-1.1695031	this identifier string	-0.6338555
-1.5854211	switch identifier string	-0.2333333
-0.7041332	default identifier string	-0.43797866
-1.3900955	finally identifier string	-0.2333333
-1.0526013	const identifier string	-0.26433203
-1.1473769	import identifier string	-0.2333333
-1.0353476	void identifier string	-0.2333333
-0.6968765	<s> numeric string	-2.0667555
-1.0378817	string numeric string	-0.42541087
-1.1878331	identifier numeric string	-0.535807
-1.2485455	numeric numeric string	-0.39871746
-1.5513778	return numeric string	-0.2333333
-1.0253184	null numeric string	-0.24855614
-1.2465326	regularexpression numeric string	-0.2333333
-1.1304379	false numeric string	-0.28070265
-0.84360915	true numeric string	-0.34285298
-0.94677144	void numeric string	-0.3375225
-2.893422	<s> if string	-0.26433203
-1.3644385	string if string	-0.26433203
-1.0392281	identifier if string	-0.534778
-1.1764352	numeric if string	-0.2333333
-1.1649468	function if string	-0.2333333
-1.3684037	return if string	-0.2333333
-0.9940016	null if string	-0.2333333
-0.8510088	regularexpression if string	-0.2333333
-1.2031109	false if string	-0.2333333
-1.1393499	true if string	-0.28070265
-1.3378016	else if string	-0.28070265
-1.3234433	break if string	-0.2333333
-1.0145831	this if string	-0.26433203
-3.0466757	<s> function string	-0.26433203
-1.7498736	string function string	-0.2333333
-1.8783038	identifier function string	-0.2333333
-1.333397	this function string	-0.2333333
-1.2977479	<s> return string	-0.9270459
-0.9897867	string return string	-0.35441157
-1.1992176	identifier return string	-0.51043373
-1.080471	numeric return string	-0.31333387
-0.90054685	function return string	-0.37379712
-1.2201508	null return string	-0.25166586
-1.0921588	regularexpression return string	-0.2333333
-1.1891849	false return string	-0.2333333
-1.4209108	true return string	-0.2333333
-1.211728	else return string	-0.2801022
-1.2867897	break return string	-0.2333333
-1.1140841	this return string	-0.26433203
-1.316368	default return string	-0.2333333
-0.37257352	<s> null string	-1.4056438
-0.7928312	string null string	-0.4253502
-1.1755949	identifier null string	-0.35441157
-1.1912959	numeric null string	-0.28070265
-1.5762308	return null string	-0.2333333
-0.74533296	null null string	-0.27367735
-0.43970805	regularexpression null string	-0.25166586
-1.0482996	false null string	-0.2333333
-0.90681875	true null string	-0.2333333
-0.7663669	<s> regularexpression string	-0.58457494
-0.7858542	string regularexpression string	-0.36711898
-1.144925	identifier regularexpression string	-0.34106043
-0.8878264	regularexpression regularexpression string	-0.29170045
-0.28200442	typeof regularexpression string	-0.2333333
-0.57834685	<s> false string	-0.96732825
-0.78309715	string false string	-0.43471166
-1.0681924	identifier false string	-0.5389111
-0.79830927	numeric false string	-0.31476256
-0.32807836	function false string	-0.2333333
-1.3964354	return false string	-0.31303993
-0.7245487	null false string	-0.31303993
-0.32807836	regularexpression false string	-0.2333333
-1.1996131	false false string	-0.26433203
-1.0861933	true false string	-0.25637248
-0.34147403	<s> true string	-1.6087185
-0.9422015	string true string	-0.5092498
-1.1211131	identifier true string	-0.5051508
-0.848271	numeric true string	-0.3269881
-1.5891807	return true string	-0.2333333
-1.2265766	null true string	-0.2333333
-1.2005435	false true string	-0.2333333
-1.1938584	true true string	-0.2333333
-1.8797778	identifier for string	-0.2333333
-1.3144568	numeric for string	-0.2333333
-1.6870463	<s> throw string	-0.31303993
-0.93970275	string throw string	-0.28070265
-0.92070496	identifier throw string	-0.34753925
-1.0433588	numeric throw string	-0.2333333
-0.58976567	function throw string	-0.31268957
-0.72927505	true throw string	-0.2333333
-1.0946047	else throw string	-0.2333333
-1.8868856	identifier while string	-0.2333333
-2.3409636	<s> this string	-0.38861048
-0.81906027	string this string	-0.30008614
-1.1426249	identifier this string	-0.35993326
-1.4469334	numeric this string	-0.2333333
-1.6540219	if this string	-0.2333333
-1.506911	return this string	-0.26433203
-1.2850871	else this string	-0.2333333
-0.26313788	<s> case string	-0.8416522
-0.4654708	string case string	-0.39645857
-0.47775483	identifier case string	-0.43675447
-0.5668311	numeric case string	-0.26433203
-0.42272598	return case string	-0.25637248
-0.44970995	null case string	-0.2333333
-0.44970995	true case string	-0.2333333
-0.5173539	break case string	-0.46489877
-1.5289772	identifier default string	-0.2333333
-0.31082654	> .` string	-0.2333333
-0.9196315	identifier export string	-0.27938262
-0.5862388	string import string	-0.28070265
-0.9386746	identifier import string	-0.2333333
-2.0923705	<s> string var	-2.0739648
-1.2542703	string string var	-0.5348887
-1.2605065	identifier string var	-0.9972867
-1.1116856	numeric string var	-0.5550872
-0.8620006	function string var	-0.28070265
-1.1412266	return string var	-0.5347385
-1.0697438	null string var	-0.43797866
-1.2537956	regularexpression string var	-0.28070265
-1.3823715	false string var	-0.28070265
-1.079176	true string var	-0.43797866
-1.1573322	throw string var	-0.28070265
-1.4098371	this string var	-0.2333333
-1.1236728	case string var	-0.43797866
-0.34023988	.` string var	-0.2333333
-0.7609087	export string var	-0.2333333
-1.8205918	<s> identifier var	-2.6914377
-1.4394934	string identifier var	-0.5348887
-1.2746518	var identifier var	-0.7653376
-1.3997023	identifier identifier var	-1.0789567
-1.4370342	numeric identifier var	-0.61406994
-1.2815921	if identifier var	-0.73900867
-1.0908608	function identifier var	-0.7653376
-1.2535143	return identifier var	-0.714788
-1.4002514	null identifier var	-0.43797866
-1.3414162	regularexpression identifier var	-0.31303993
-1.4890769	false identifier var	-0.31303993
-1.0954595	in identifier var	-0.43797866
-1.3805236	true identifier var	-0.43797866
-1.3584486	typeof identifier var	-0.31303993
-1.8185521	else identifier var	-0.2333333
-1.6780446	delete identifier var	-0.2333333
-1.0803537	throw identifier var	-0.61406994
-1.3229035	new identifier var	-0.44594273
-1.4279983	catch identifier var	-0.31303993
-1.1481738	instanceof identifier var	-0.29170045
-1.1871675	while identifier var	-0.38861048
-1.387882	this identifier var	-0.68002594
-1.0905697	yield identifier var	-0.2333333
-1.9499408	<s> numeric var	-1.8487558
-1.2556673	string numeric var	-0.38861048
-1.274865	identifier numeric var	-0.83591866
-1.277799	numeric numeric var	-0.44594273
-0.74960357	function numeric var	-0.2333333
-0.98941517	return numeric var	-0.5550872
-1.2185336	null numeric var	-0.2333333
-0.9640019	regularexpression numeric var	-0.28070265
-1.283614	false numeric var	-0.2333333
-1.3444725	true numeric var	-0.2333333
-0.7808141	while numeric var	-0.5348887
-1.3896164	this numeric var	-0.2333333
-1.4847543	case numeric var	-0.2333333
-1.2415857	void numeric var	-0.31303993
-1.066279	<s> function var	-2.151889
-0.94354165	string function var	-0.5039347
-1.0093691	identifier function var	-0.71097994
-0.8866246	numeric function var	-0.37899593
-0.71034527	return function var	-0.73900867
-1.0709062	null function var	-0.28070265
-1.0099493	regularexpression function var	-0.2333333
-1.2204968	false function var	-0.2333333
-1.2709966	true function var	-0.2333333
-1.1867156	this function var	-0.2333333
-1.959559	<s> return var	-1.2161299
-1.3907192	string return var	-0.38861048
-1.3461684	identifier return var	-0.64223737
-1.4490312	numeric return var	-0.31303993
-1.2883251	null return var	-0.28070265
-1.4547454	false return var	-0.2333333
-1.34254	true return var	-0.28070265
-1.6082993	else return var	-0.2333333
-1.400322	default return var	-0.2333333
-1.5419422	<s> null var	-0.87731135
-1.332809	string null var	-0.28070265
-1.2099061	identifier null var	-0.68101674
-1.4573176	numeric null var	-0.2333333
-0.8536869	return null var	-0.68964046
-1.3437319	null null var	-0.2333333
-1.1117187	<s> regularexpression var	-0.9150999
-1.2130213	string regularexpression var	-0.28070265
-1.2335957	identifier regularexpression var	-0.38861048
-0.99619395	numeric regularexpression var	-0.2333333
-1.0441601	regularexpression regularexpression var	-0.28070265
-1.452274	<s> false var	-0.83591866
-1.2304823	string false var	-0.31303993
-1.1306514	identifier false var	-0.68101674
-1.4518163	numeric false var	-0.2333333
-0.97795415	return false var	-0.68964046
-1.4575667	false false var	-0.2333333
-1.1365668	true false var	-0.31303993
-1.5995698	<s> true var	-0.9820467
-1.0979214	string true var	-0.5348887
-1.1545924	identifier true var	-0.73900867
-1.4589846	numeric true var	-0.2333333
-0.8852669	return true var	-0.87731135
-1.3942449	false true var	-0.2333333
-1.374286	true true var	-0.2333333
-0.47927094	while true var	-0.68101674
-0.30832213	<s> for var	-1.8181899
-0.38256854	string for var	-0.4677917
-0.36390677	identifier for var	-0.8966165
-0.5218092	numeric for var	-0.2998147
-0.1884111	function for var	-0.5348887
-0.40018582	return for var	-0.31303993
-0.40685868	null for var	-0.26433203
-0.36820373	regularexpression for var	-0.2333333
-0.40685868	false for var	-0.26433203
-0.5736735	true for var	-0.28070265
-0.41091692	else for var	-0.4677917
-0.14468029	continue for var	-0.31303993
-0.5407257	try for var	-0.2333333
-0.36062223	break for var	-0.28070265
-0.19320177	do for var	-0.2333333
-0.44066596	this for var	-0.26433203
-0.19320177	default for var	-0.2333333
-0.19320177	extends for var	-0.2333333
-0.19320177	array.` for var	-0.2333333
-0.19320177	object.` for var	-0.2333333
-0.19320177	\`object\`.` for var	-0.2333333
-1.4952618	<s> else var	-1.01201
-1.1003065	string else var	-0.29170045
-1.0954714	identifier else var	-0.5550872
-0.8479076	numeric else var	-0.61406994
-0.96166295	return else var	-0.28070265
-1.0491884	null else var	-0.28070265
-1.2318183	false else var	-0.2333333
-1.2845795	true else var	-0.2333333
-1.1456928	break else var	-0.28070265
-0.9684819	this else var	-0.28070265
-1.0545242	<s> continue var	-0.2333333
-1.0409274	string continue var	-0.2333333
-0.8624379	identifier continue var	-0.38861048
-0.8903123	numeric continue var	-0.28070265
-0.69327354	null continue var	-0.2333333
-0.66814774	<s> try var	-0.87731135
-0.8171407	string try var	-0.31303993
-0.8712616	identifier try var	-0.5550872
-0.76606995	numeric try var	-0.29170045
-0.8336868	function try var	-0.28070265
-0.84826684	return try var	-0.2333333
-0.8523753	null try var	-0.2333333
-0.7129902	false try var	-0.28070265
-0.7823999	true try var	-0.28070265
-0.88133526	else try var	-0.2333333
-0.63096106	continue try var	-0.2333333
-0.2862377	try try var	-0.2333333
-0.63096106	this try var	-0.2333333
-1.4025817	<s> break var	-0.31303993
-1.3114191	string break var	-0.2333333
-1.2415934	identifier break var	-0.31303993
-1.264771	numeric break var	-0.2333333
-0.5952889	regularexpression break var	-0.2333333
-1.2026837	true break var	-0.2333333
-1.1357368	else break var	-0.2333333
-0.6490587	this do var	-0.2333333
-1.7782977	<s> this var	-1.0663676
-1.6352279	string this var	-0.2333333
-1.2628317	identifier this var	-0.60084474
-1.1378523	return this var	-0.5348887
-1.4315747	this this var	-0.2333333
-1.5263561	identifier default var	-0.2333333
-1.5343112	identifier finally var	-0.2333333
-1.2043003	<s> export var	-0.28070265
-0.488562	string export var	-0.43797866
-0.76157516	identifier export var	-0.43797866
-0.3810012	numeric export var	-0.31303993
-0.47159165	regularexpression export var	-0.28070265
-0.28647104	function debugger var	-0.2333333
-0.6101797	<s> string identifier	-2.27925
-0.9620733	string string identifier	-0.52941746
-1.0791491	identifier string identifier	-0.84217346
-0.9928068	numeric string identifier	-0.4572304
-0.61904085	if string identifier	-0.32722676
-1.0855314	function string identifier	-0.2333333
-0.8661848	return string identifier	-0.47353315
-0.7340149	null string identifier	-0.4250522
-0.842322	regularexpression string identifier	-0.31720877
-0.72091484	false string identifier	-0.44020328
-0.7999145	true string identifier	-0.38638848
-0.6045767	throw string identifier	-0.31436443
-0.3347484	while string identifier	-0.2333333
-0.73535514	this string identifier	-0.34237593
-0.91115135	case string identifier	-0.36010864
-0.7465892	export string identifier	-0.2333333
-0.60191274	import string identifier	-0.2333333
-0.0544963	<s> var identifier	-1.943804
-0.10545979	string var identifier	-0.5855725
-0.1586085	identifier var identifier	-0.83511597
-0.11214244	numeric var identifier	-0.49361044
-0.11814629	function var identifier	-0.47810435
-0.09941385	return var identifier	-0.38281614
-0.14346659	null var identifier	-0.3397297
-0.12123351	regularexpression var identifier	-0.30953923
-0.12497664	false var identifier	-0.34383613
-0.07695434	true var identifier	-0.3840297
-0.12693506	for var identifier	-0.7688217
-0.11814629	else var identifier	-0.4312122
-0.12123351	continue var identifier	-0.3962993
-0.070601135	try var identifier	-0.5346784
-0.0477291	break var identifier	-0.35615528
-0.1597555	do var identifier	-0.2333333
-0.12123351	this var identifier	-0.2985812
-0.1597555	default var identifier	-0.2333333
-0.1597555	finally var identifier	-0.2333333
-0.06839325	export var identifier	-0.32646108
-0.1597555	debugger var identifier	-0.2333333
-0.21472622	<s> identifier identifier	-2.7747705
-1.0534567	string identifier identifier	-0.621125
-1.0657738	var identifier identifier	-0.7419263
-1.1584623	identifier identifier identifier	-1.0124967
-0.98105645	numeric identifier identifier	-0.6188734
-1.0721681	if identifier identifier	-0.7691953
-0.8684585	function identifier identifier	-0.6994544
-0.9718618	return identifier identifier	-0.6838974
-0.90267956	null identifier identifier	-0.4773165
-0.75567615	regularexpression identifier identifier	-0.48243332
-0.8316911	false identifier identifier	-0.4774655
-1.027547	in identifier identifier	-0.28407833
-0.83911276	true identifier identifier	-0.50730145
-0.8781096	typeof identifier identifier	-0.41294223
-0.7339892	for identifier identifier	-0.48757583
-0.83960456	else identifier identifier	-0.5368297
-0.39208955	delete identifier identifier	-0.5082513
-0.52143943	continue identifier identifier	-0.38879904
-0.7699192	throw identifier identifier	-0.39615953
-0.8001004	new identifier identifier	-0.51906794
-0.59293646	try identifier identifier	-0.5262041
-0.7952633	catch identifier identifier	-0.4104743
-0.59095776	break identifier identifier	-0.46223128
-0.8222202	instanceof identifier identifier	-0.34089112
-0.24221426	do identifier identifier	-0.4601444
-0.5200607	while identifier identifier	-0.607563
-0.9396022	this identifier identifier	-0.7186587
-0.40473735	switch identifier identifier	-0.5984471
-0.3041296	case identifier identifier	-0.41236857
-0.6909901	default identifier identifier	-0.33830738
-0.53053755	finally identifier identifier	-0.40604502
-0.5814078	class identifier identifier	-0.35856384
-0.55539465	extends identifier identifier	-0.25637248
-0.753044	super identifier identifier	-0.2333333
-0.3347593	` identifier identifier	-0.2333333
-0.21795966	const identifier identifier	-0.4529556
-0.60193294	export identifier identifier	-0.2333333
-0.48951918	import identifier identifier	-0.32482988
-0.3305216	void identifier identifier	-0.35856384
-1.012721	yield identifier identifier	-0.2333333
-0.561236	<s> numeric identifier	-2.0060296
-0.8419786	string numeric identifier	-0.4425181
-1.0158533	identifier numeric identifier	-0.7646291
-0.98235625	numeric numeric identifier	-0.39000374
-0.48313552	if numeric identifier	-0.30453372
-0.7265175	function numeric identifier	-0.2333333
-0.9121975	return numeric identifier	-0.501426
-0.5015053	null numeric identifier	-0.35425457
-0.77183306	regularexpression numeric identifier	-0.26530313
-0.6230189	false numeric identifier	-0.35856384
-0.8030799	true numeric identifier	-0.31476256
-0.3268622	for numeric identifier	-0.2333333
-0.67566466	while numeric identifier	-0.3980678
-0.61871725	this numeric identifier	-0.36139742
-0.8940033	case numeric identifier	-0.30475557
-0.3268622	default numeric identifier	-0.2333333
-0.7754399	void numeric identifier	-0.3776141
-0.0342614	<s> if identifier	-1.8995006
-0.5376715	string if identifier	-0.48174328
-0.59739137	identifier if identifier	-0.7792357
-0.5102873	numeric if identifier	-0.47230214
-0.6291769	function if identifier	-0.33305517
-0.4961885	return if identifier	-0.38536817
-0.5405413	null if identifier	-0.30475557
-0.5410687	regularexpression if identifier	-0.24342236
-0.38431317	false if identifier	-0.3542064
-0.452665	true if identifier	-0.40078664
-0.29169068	for if identifier	-0.43797866
-0.49270767	else if identifier	-0.58079374
-0.2520767	continue if identifier	-0.4070241
-0.19057654	try if identifier	-0.62379557
-0.19558118	break if identifier	-0.39947772
-0.3311422	do if identifier	-0.35495025
-0.40028387	this if identifier	-0.33944693
-0.22655441	default if identifier	-0.2713606
-0.38400534	finally if identifier	-0.25166586
-0.28177184	extends if identifier	-0.2333333
-0.2419042	` if identifier	-0.26433203
-0.0857958	<s> function identifier	-2.001195
-0.59183323	string function identifier	-0.530257
-0.69897425	identifier function identifier	-0.7638515
-0.45202425	numeric function identifier	-0.43042707
-0.17829552	function function identifier	-0.3569513
-0.52898663	return function identifier	-0.49743122
-0.5016472	null function identifier	-0.35017633
-0.34239665	regularexpression function identifier	-0.32646108
-0.21813422	false function identifier	-0.4211284
-0.22599111	true function identifier	-0.45895773
-0.2788011	new function identifier	-0.2333333
-0.23947789	catch function identifier	-0.26433203
-0.08985433	break function identifier	-0.61406994
-0.2788011	instanceof function identifier	-0.2333333
-0.27407014	this function identifier	-0.36910966
-0.23947789	default function identifier	-0.28070265
-0.2788011	false.` function identifier	-0.2333333
-0.2788011	array.` function identifier	-0.2333333
-0.098010786	export function identifier	-0.50456494
-0.2788011	import function identifier	-0.2333333
-0.1248937	<s> return identifier	-1.8498454
-0.83607626	string return identifier	-0.5291635
-0.8885851	identifier return identifier	-0.66819793
-0.82424176	numeric return identifier	-0.41537154
-0.7125413	function return identifier	-0.43233266
-0.3080812	return return identifier	-0.38307676
-0.7799995	null return identifier	-0.29969233
-0.79090035	regularexpression return identifier	-0.24855614
-0.8376994	false return identifier	-0.3026462
-0.6363267	true return identifier	-0.37346154
-0.56267494	else return identifier	-0.4608063
-0.31844825	delete return identifier	-0.2333333
-0.2716048	continue return identifier	-0.2333333
-0.26815948	try return identifier	-0.40005046
-0.26671728	break return identifier	-0.4677917
-0.8955896	this return identifier	-0.26507884
-0.6473339	default return identifier	-0.27938262
-0.31844825	extends return identifier	-0.2333333
-0.31844825	.` return identifier	-0.2333333
-0.5722233	\`.` return identifier	-0.2333333
-0.45254818	<s> null identifier	-0.9732463
-0.7536155	string null identifier	-0.35462904
-0.87025905	identifier null identifier	-0.68887246
-0.6165621	numeric null identifier	-0.43521243
-0.071437486	if null identifier	-0.3587974
-0.41833097	function null identifier	-0.2333333
-0.8524419	return null identifier	-0.438507
-0.8481921	null null identifier	-0.26783207
-0.8557321	regularexpression null identifier	-0.2333333
-0.58402985	false null identifier	-0.25637248
-0.59534633	true null identifier	-0.25637248
-0.78182757	this null identifier	-0.2333333
-0.31212768	switch null identifier	-0.2333333
-0.26057124	<s> regularexpression identifier	-1.0282791
-0.6265899	string regularexpression identifier	-0.37326694
-0.62327147	identifier regularexpression identifier	-0.5281665
-0.29021013	numeric regularexpression identifier	-0.43797866
-0.18649697	if regularexpression identifier	-0.6595938
-0.2797847	function regularexpression identifier	-0.2333333
-0.17215438	return regularexpression identifier	-0.44916975
-0.3801858	null regularexpression identifier	-0.28070265
-0.6276927	regularexpression regularexpression identifier	-0.2848141
-0.2797847	true regularexpression identifier	-0.2333333
-0.2797847	while regularexpression identifier	-0.2333333
-0.3112625	<s> false identifier	-1.1023502
-0.7128013	string false identifier	-0.38090768
-0.8949928	identifier false identifier	-0.69574314
-0.6996202	numeric false identifier	-0.3587098
-0.16072436	if false identifier	-0.27080643
-0.8964497	return false identifier	-0.48494756
-0.70956	null false identifier	-0.26433203
-0.70132965	false false identifier	-0.37924647
-0.73601055	true false identifier	-0.3436593
-0.32121605	this false identifier	-0.2333333
-0.32121605	default false identifier	-0.2333333
-0.054903887	<s> in identifier	-0.47669965
-0.21540351	string in identifier	-0.36494398
-0.33125877	identifier in identifier	-0.4316647
-0.19408007	numeric in identifier	-0.25166586
-0.42222607	<s> true identifier	-1.2852666
-0.792593	string true identifier	-0.45370483
-0.95392865	identifier true identifier	-0.7151919
-0.72073776	numeric true identifier	-0.35856384
-0.27220246	if true identifier	-0.28070265
-0.8522903	return true identifier	-0.5347385
-0.46246594	null true identifier	-0.28800347
-0.6337329	false true identifier	-0.3444844
-0.7231043	true true identifier	-0.30259418
-0.31919244	new true identifier	-0.2333333
-1.0667089	while true identifier	-0.28070265
-0.82948434	this true identifier	-0.25166586
-0.31919244	export true identifier	-0.2333333
-0.0027805706	<s> typeof identifier	-1.2597044
-0.1388297	string typeof identifier	-0.4523828
-0.13020273	identifier typeof identifier	-0.63479096
-0.14290875	numeric typeof identifier	-0.2333333
-0.21483064	if typeof identifier	-0.73648626
-0.10859759	function typeof identifier	-0.26433203
-0.17368692	return typeof identifier	-0.43000317
-0.12544875	null typeof identifier	-0.25637248
-0.14290875	false typeof identifier	-0.2333333
-0.14290875	true typeof identifier	-0.2333333
-0.22361097	this typeof identifier	-0.26433203
-0.10859759	switch typeof identifier	-0.31303993
-0.30121174	<s> for identifier	-1.295604
-0.5344243	string for identifier	-0.33087116
-0.522002	identifier for identifier	-0.71626985
-0.3651386	numeric for identifier	-0.323914
-0.65039873	function for identifier	-0.2333333
-0.6032217	return for identifier	-0.28070265
-0.48783207	null for identifier	-0.2333333
-0.4490859	regularexpression for identifier	-0.2333333
-0.48783207	false for identifier	-0.25166586
-0.21838754	true for identifier	-0.2799688
-0.3679252	else for identifier	-0.3305716
-0.27557704	try for identifier	-0.29170045
-0.43089885	break for identifier	-0.2333333
-0.53040826	this for identifier	-0.28070265
-0.35833287	<s> else identifier	-1.2405987
-0.74463665	string else identifier	-0.40264496
-0.73598987	identifier else identifier	-0.46716678
-0.8248837	numeric else identifier	-0.34933147
-0.77800745	return else identifier	-0.24855614
-0.6214558	null else identifier	-0.35844707
-0.55502856	regularexpression else identifier	-0.2333333
-0.64107394	false else identifier	-0.37058735
-0.5701369	true else identifier	-0.40187594
-0.63536763	continue else identifier	-0.28800347
-0.56285965	break else identifier	-0.3635584
-0.63973993	this else identifier	-0.38861048
-0.02565394	<s> delete identifier	-1.1046138
-0.1477896	string delete identifier	-0.48350257
-0.2198064	identifier delete identifier	-0.42551062
-0.27708897	numeric delete identifier	-0.2713606
-0.3431939	if delete identifier	-0.2333333
-0.32669866	function delete identifier	-0.25637248
-0.26120833	return delete identifier	-0.28070265
-0.475264	null delete identifier	-0.2333333
-0.17632812	regularexpression delete identifier	-0.2333333
-0.3431939	false delete identifier	-0.2333333
-0.17632812	true delete identifier	-0.2333333
-0.38182393	else delete identifier	-0.25637248
-0.2126652	try delete identifier	-0.31303993
-0.26120833	this delete identifier	-0.28070265
-0.17632812	finally delete identifier	-0.2333333
-0.81803656	<s> continue identifier	-0.28070265
-0.6817355	string continue identifier	-0.31303993
-0.96240455	identifier continue identifier	-0.2840637
-0.7086775	numeric continue identifier	-0.26900506
-0.65740544	null continue identifier	-0.2333333
-0.73362786	true continue identifier	-0.2333333
-0.57609016	<s> throw identifier	-0.705069
-0.44664413	string throw identifier	-0.31076863
-0.41107213	identifier throw identifier	-0.53322685
-0.45452258	numeric throw identifier	-0.28800347
-0.7192492	function throw identifier	-0.2333333
-0.5052875	return throw identifier	-0.25637248
-0.3803488	null throw identifier	-0.24855614
-0.40426457	regularexpression throw identifier	-0.2333333
-0.3820404	false throw identifier	-0.2333333
-0.3820404	true throw identifier	-0.2333333
-0.34650195	else throw identifier	-0.39925665
-0.40426457	continue throw identifier	-0.2333333
-0.40426457	this throw identifier	-0.2333333
-0.58637905	default throw identifier	-0.2333333
-0.0007601592	<s> new identifier	-1.4043688
-0.10782604	string new identifier	-0.27445233
-0.21477638	identifier new identifier	-0.5989866
-0.074677244	numeric new identifier	-0.27507335
-0.043249507	if new identifier	-0.3587098
-0.074677244	function new identifier	-0.31303993
-0.13855511	return new identifier	-0.4339227
-0.0970301	null new identifier	-0.2333333
-0.074677244	regularexpression new identifier	-0.24855614
-0.08573228	false new identifier	-0.2333333
-0.0970301	in new identifier	-0.2333333
-0.08573228	true new identifier	-0.25637248
-0.16346836	throw new identifier	-0.64147466
-0.074677244	try new identifier	-0.26433203
-0.0970301	while new identifier	-0.2333333
-0.0970301	this new identifier	-0.2333333
-0.0970301	default new identifier	-0.2333333
-0.27008602	<s> try identifier	-0.80195117
-0.34474146	string try identifier	-0.4413944
-0.45764083	identifier try identifier	-0.53249514
-0.4229203	numeric try identifier	-0.46409473
-0.5628712	function try identifier	-0.27975938
-0.49018472	return try identifier	-0.31303993
-0.6623812	null try identifier	-0.25637248
-0.2784866	regularexpression try identifier	-0.2333333
-0.6939857	false try identifier	-0.25637248
-0.48887953	true try identifier	-0.3237119
-0.34211746	else try identifier	-0.25166586
-0.6139998	continue try identifier	-0.2333333
-0.6139998	this try identifier	-0.2333333
-0.5029663	finally try identifier	-0.2333333
-0.0048602377	<s> catch identifier	-0.8089658
-0.13978846	string catch identifier	-0.3818274
-0.1234296	identifier catch identifier	-0.50534815
-0.08291772	numeric catch identifier	-0.2671298
-0.11638047	function catch identifier	-0.2333333
-0.10255217	return catch identifier	-0.26433203
-0.11638047	null catch identifier	-0.2333333
-0.11638047	regularexpression catch identifier	-0.2333333
-0.10255217	false catch identifier	-0.25637248
-0.24777082	true catch identifier	-0.27507335
-0.25777623	break catch identifier	-0.2333333
-0.11638047	this catch identifier	-0.2333333
-0.5347511	<s> break identifier	-0.59351623
-0.7905121	string break identifier	-0.26900506
-0.8026068	identifier break identifier	-0.37156022
-0.8874573	numeric break identifier	-0.29289666
-0.81189716	null break identifier	-0.2333333
-0.55014366	regularexpression break identifier	-0.2333333
-0.9462288	false break identifier	-0.2333333
-1.073371	true break identifier	-0.2333333
-0.6996058	else break identifier	-0.27367735
-0.30600128	break break identifier	-0.2333333
-0.81189716	default break identifier	-0.2333333
-0.022850031	<s> instanceof identifier	-0.83576846
-0.13740762	string instanceof identifier	-0.25637248
-0.23738986	identifier instanceof identifier	-0.42128062
-0.2392566	numeric instanceof identifier	-0.26433203
-0.06727821	this instanceof identifier	-0.27367735
-0.44292834	<s> do identifier	-0.5348887
-0.16499832	string do identifier	-0.28070265
-0.3244246	identifier do identifier	-0.59273046
-0.3888264	numeric do identifier	-0.35225973
-0.18928207	return do identifier	-0.2333333
-0.18928207	null do identifier	-0.2333333
-0.18928207	for do identifier	-0.2333333
-0.36235198	else do identifier	-0.2333333
-0.07682883	<s> while identifier	-1.1343389
-0.2954145	string while identifier	-0.42062193
-0.42949635	identifier while identifier	-0.48979926
-0.46930188	numeric while identifier	-0.35661438
-0.30791485	function while identifier	-0.28070265
-0.49824828	return while identifier	-0.2333333
-0.2428543	null while identifier	-0.27938262
-0.2173788	regularexpression while identifier	-0.2333333
-0.25008145	false while identifier	-0.25637248
-0.49108207	true while identifier	-0.2333333
-0.2428912	else while identifier	-0.37899593
-0.40489733	continue while identifier	-0.2333333
-0.089603506	try while identifier	-0.5348887
-0.61406744	break while identifier	-0.2333333
-0.40489733	this while identifier	-0.2333333
-0.2173788	default while identifier	-0.2333333
-0.09319782	<s> this identifier	-1.5195714
-0.4518661	string this identifier	-0.46494895
-0.623232	identifier this identifier	-0.78144026
-0.36179444	numeric this identifier	-0.4375763
-0.36091626	if this identifier	-0.6413378
-0.2664768	function this identifier	-0.31734908
-0.5470344	return this identifier	-0.5770907
-0.21924002	null this identifier	-0.2904138
-0.45996416	regularexpression this identifier	-0.2333333
-0.3299443	false this identifier	-0.31986693
-0.35158062	in this identifier	-0.2333333
-0.1428456	true this identifier	-0.3288861
-0.18555222	typeof this identifier	-0.26900506
-0.25233218	for this identifier	-0.2333333
-0.26340643	else this identifier	-0.40121123
-0.13436455	delete this identifier	-0.4640448
-0.28168458	continue this identifier	-0.26433203
-0.34819072	new this identifier	-0.25637248
-0.082940936	try this identifier	-0.30669582
-0.27340212	break this identifier	-0.27080643
-0.25233218	instanceof this identifier	-0.2333333
-0.25233218	do this identifier	-0.2333333
-0.1663108	while this identifier	-0.36711898
-0.21583523	this this identifier	-0.4038905
-0.20885651	switch this identifier	-0.35225973
-0.25233218	default this identifier	-0.2333333
-0.18555222	finally this identifier	-0.26433203
-0.25233218	super this identifier	-0.2333333
-0.21772668	void this identifier	-0.2333333
-0.25233218	with this identifier	-0.2333333
-0.18083477	<s> switch identifier	-0.63208604
-0.3567246	string switch identifier	-0.26836723
-0.18640508	identifier switch identifier	-0.48807517
-0.06947488	numeric switch identifier	-0.43797866
-0.36176425	function switch identifier	-0.28070265
-0.39328247	return switch identifier	-0.2333333
-0.14230193	null switch identifier	-0.2333333
-0.14230193	false switch identifier	-0.26433203
-0.12285169	true switch identifier	-0.26433203
-0.16258094	for switch identifier	-0.2333333
-0.14230193	else switch identifier	-0.26433203
-0.16258094	continue switch identifier	-0.2333333
-0.16258094	break switch identifier	-0.2333333
-0.9810637	<s> case identifier	-0.7688217
-0.9022308	string case identifier	-0.2333333
-0.6648991	identifier case identifier	-0.42551062
-0.65660655	numeric case identifier	-0.28070265
-0.5823311	return case identifier	-0.2333333
-0.4241983	null case identifier	-0.2333333
-0.40945894	false case identifier	-0.28070265
-0.4241983	true case identifier	-0.2333333
-0.50489444	break case identifier	-0.476054
-0.7978452	<s> default identifier	-0.2333333
-0.6243421	string default identifier	-0.26433203
-0.79097915	identifier default identifier	-0.27938262
-0.52208805	numeric default identifier	-0.2333333
-0.7241814	break default identifier	-0.28947848
-0.65068954	export default identifier	-0.2333333
-0.10237615	<s> finally identifier	-0.5804126
-0.18184702	string finally identifier	-0.28070265
-0.34097984	identifier finally identifier	-0.3883603
-0.29863748	numeric finally identifier	-0.26433203
-0.20926777	null finally identifier	-0.2333333
-0.43114915	false finally identifier	-0.25637248
-0.20926777	this finally identifier	-0.2333333
-0.08559456	<s> class identifier	-0.2333333
-0.23098801	string class identifier	-0.2333333
-0.15514103	identifier class identifier	-0.28800347
-0.09687211	numeric class identifier	-0.2333333
-0.09687211	function class identifier	-0.2333333
-0.09687211	false class identifier	-0.2333333
-0.47207147	identifier extends identifier	-0.25637248
-0.24079615	class extends identifier	-0.2333333
-0.1791573	<s> super identifier	-0.2333333
-0.3473549	identifier super identifier	-0.2333333
-0.060973868	$ { identifier	-0.83591866
-0.17087881	<s> ` identifier	-0.43797866
-0.5437054	} .` identifier	-0.2333333
-0.007722819	<s> const identifier	-0.7265406
-0.042521875	string const identifier	-0.27080643
-0.035086658	identifier const identifier	-0.7901612
-0.042521875	numeric const identifier	-0.28070265
-0.04781033	return const identifier	-0.2333333
-0.04781033	null const identifier	-0.2333333
-0.042521875	false const identifier	-0.28070265
-0.042521875	true const identifier	-0.28070265
-0.04781033	else const identifier	-0.2333333
-1.6152709	<s> export identifier	-0.2333333
-1.4197226	identifier export identifier	-0.2333333
-1.5516516	<s> import identifier	-0.31303993
-0.43655062	string import identifier	-0.26433203
-0.28332967	identifier import identifier	-0.25976586
-0.21279886	regularexpression import identifier	-0.2333333
-0.9990543	string void identifier	-0.2333333
-0.80556226	identifier void identifier	-0.43797866
-0.49460155	numeric void identifier	-0.29170045
-0.65364915	return void identifier	-0.26433203
-0.21664503	<s> yield identifier	-0.2333333
-0.31256035	identifier yield identifier	-0.24634849
-1.3714489	<s> string numeric	-1.8465168
-1.3636222	string string numeric	-0.42348257
-1.3808707	identifier string numeric	-0.5884613
-1.3007632	numeric string numeric	-0.36792064
-1.6562605	return string numeric	-0.25166586
-1.4237124	null string numeric	-0.2333333
-1.3105805	false string numeric	-0.2333333
-0.99989724	true string numeric	-0.27367735
-1.2111603	throw string numeric	-0.25637248
-1.3140156	this string numeric	-0.2333333
-1.0682611	<s> identifier numeric	-2.0868034
-1.2375722	string identifier numeric	-0.46102485
-1.2698056	var identifier numeric	-0.5799885
-1.297839	identifier identifier numeric	-0.7777423
-1.1274354	numeric identifier numeric	-0.44422588
-1.1867801	if identifier numeric	-0.62378764
-1.5774261	function identifier numeric	-0.32814217
-1.2096014	return identifier numeric	-0.4487096
-1.0702057	null identifier numeric	-0.39151147
-1.471387	regularexpression identifier numeric	-0.25166586
-1.1323458	false identifier numeric	-0.3647421
-1.5272483	in identifier numeric	-0.2333333
-1.1758351	true identifier numeric	-0.3186153
-1.0697291	typeof identifier numeric	-0.28800347
-0.6194566	for identifier numeric	-0.6641664
-1.2620304	else identifier numeric	-0.34736952
-1.4238645	delete identifier numeric	-0.2333333
-1.369117	continue identifier numeric	-0.2333333
-1.7598091	throw identifier numeric	-0.2333333
-1.0984974	new identifier numeric	-0.39340866
-1.5383396	try identifier numeric	-0.28070265
-1.10868	break identifier numeric	-0.2713606
-1.0311031	do identifier numeric	-0.26433203
-0.82519996	while identifier numeric	-0.39555898
-1.1790813	this identifier numeric	-0.55164605
-1.3624114	switch identifier numeric	-0.28070265
-0.34162766	<s> numeric numeric	-2.2421489
-1.1773405	string numeric numeric	-0.36969557
-1.2034088	identifier numeric numeric	-0.6369226
-0.97735345	numeric numeric numeric	-0.44568044
-1.1493464	if numeric numeric	-0.2333333
-0.76353276	function numeric numeric	-0.2333333
-1.3912781	return numeric numeric	-0.25637248
-1.2505615	null numeric numeric	-0.2333333
-1.1079803	false numeric numeric	-0.26433203
-0.71125317	true numeric numeric	-0.37486446
-0.9248094	this numeric numeric	-0.26836723
-1.1273916	void numeric numeric	-0.27667433
-3.1961408	<s> if numeric	-0.28070265
-1.7698865	string if numeric	-0.2333333
-1.192015	identifier if numeric	-0.5138426
-1.000143	numeric if numeric	-0.4677917
-1.3471149	else if numeric	-0.31303993
-1.861571	identifier function numeric	-0.2333333
-1.5746326	<s> return numeric	-0.67734534
-1.1988797	string return numeric	-0.2924802
-1.187256	identifier return numeric	-0.53187656
-1.1131682	numeric return numeric	-0.3307615
-1.2044182	function return numeric	-0.29726356
-1.4810966	null return numeric	-0.2333333
-1.3447493	true return numeric	-0.25166586
-1.4189044	else return numeric	-0.24855614
-1.3873241	this return numeric	-0.2333333
-1.9239686	<s> null numeric	-0.5348887
-1.5655193	string null numeric	-0.2333333
-1.4474856	identifier null numeric	-0.37291655
-1.3031772	numeric null numeric	-0.26433203
-1.146281	null null numeric	-0.2333333
-2.0128312	<s> regularexpression numeric	-0.28070265
-1.3213959	identifier regularexpression numeric	-0.26273274
-1.3673944	regularexpression regularexpression numeric	-0.2333333
-2.337343	<s> false numeric	-0.2333333
-1.4046557	string false numeric	-0.2333333
-1.4033738	identifier false numeric	-0.27110866
-1.1230098	numeric false numeric	-0.2333333
-1.2916504	false false numeric	-0.26433203
-1.3177345	true false numeric	-0.2333333
-2.0909448	<s> true numeric	-0.27080643
-1.2375441	string true numeric	-0.28947848
-1.4760861	identifier true numeric	-0.33775133
-0.98763615	numeric true numeric	-0.35856384
-1.8142179	return true numeric	-0.2333333
-1.0072832	null true numeric	-0.28070265
-1.9679291	identifier for numeric	-0.2333333
-0.94668823	<s> while numeric	-0.5346551
-1.0024635	string while numeric	-0.2333333
-0.6788458	identifier while numeric	-0.44201332
-0.64838445	numeric while numeric	-0.34120736
-0.44820765	return while numeric	-0.25166586
-0.8501323	null while numeric	-0.2333333
-0.9376178	else while numeric	-0.2333333
-0.50972176	continue while numeric	-0.2333333
-0.38481325	break while numeric	-0.27938262
-2.0621395	<s> this numeric	-0.40341222
-1.5595785	string this numeric	-0.2333333
-1.2388054	identifier this numeric	-0.3543991
-1.0297736	numeric this numeric	-0.29170045
-1.0951556	if this numeric	-0.28070265
-1.3718278	return this numeric	-0.25976586
-1.383633	this this numeric	-0.2333333
-0.46593505	<s> case numeric	-0.8805431
-0.5672921	string case numeric	-0.30071786
-0.6030602	identifier case numeric	-0.37950543
-0.43067938	numeric case numeric	-0.3028311
-0.6178858	return case numeric	-0.2333333
-0.4316716	false case numeric	-0.2333333
-0.58457685	break case numeric	-0.36827058
-0.21258739	this case numeric	-0.28070265
-1.5369366	identifier default numeric	-0.2333333
-0.019554362	<s> void numeric	-0.5112969
-0.14815584	string void numeric	-0.35615528
-0.2001874	identifier void numeric	-0.44018692
-0.3761932	numeric void numeric	-0.2760065
-0.15462254	if void numeric	-0.28070265
-0.27934933	return void numeric	-0.33775133
-0.1788499	null void numeric	-0.30669582
-0.17704493	false void numeric	-0.2333333
-0.17704493	while void numeric	-0.2333333
-0.17704493	this void numeric	-0.2333333
-2.437428	<s> string if	-1.1919093
-1.2693756	string string if	-0.39195678
-1.2259854	identifier string if	-0.75922275
-1.362132	numeric string if	-0.31646603
-1.1370828	function string if	-0.2333333
-1.2363298	return string if	-0.33775133
-1.3707559	null string if	-0.28070265
-1.4508044	regularexpression string if	-0.2333333
-1.5690613	false string if	-0.2333333
-1.387332	true string if	-0.28070265
-1.1764646	throw string if	-0.28070265
-1.26804	this string if	-0.25637248
-1.0208478	case string if	-0.36711898
-1.8421232	<s> identifier if	-2.0262027
-1.3190397	string identifier if	-0.48991776
-1.2354506	var identifier if	-0.6038971
-1.2962108	identifier identifier if	-0.7643715
-1.2479575	numeric identifier if	-0.43927115
-1.2419654	if identifier if	-0.50620115
-1.122172	function identifier if	-0.5376539
-1.2827884	return identifier if	-0.505712
-1.5123227	null identifier if	-0.26571998
-1.3218218	false identifier if	-0.35856384
-1.22481	in identifier if	-0.26530313
-1.5007353	true identifier if	-0.2713606
-1.3392289	typeof identifier if	-0.27938262
-1.565476	for identifier if	-0.28070265
-1.3628569	else identifier if	-0.43797866
-1.3601413	continue identifier if	-0.2333333
-1.0715446	throw identifier if	-0.5347385
-1.541687	new identifier if	-0.2713606
-1.717143	try identifier if	-0.2333333
-0.81259525	catch identifier if	-0.54667866
-1.1049099	break identifier if	-0.37899593
-1.2857819	instanceof identifier if	-0.25637248
-1.3376812	while identifier if	-0.29170045
-1.3369583	this identifier if	-0.5788001
-0.9391368	case identifier if	-0.31303993
-1.3302518	default identifier if	-0.2333333
-1.0202552	finally identifier if	-0.31303993
-1.9188219	<s> numeric if	-1.287994
-1.1753016	string numeric if	-0.42551062
-1.1539657	identifier numeric if	-0.68252134
-1.3887624	numeric numeric if	-0.3157296
-1.1527092	return numeric if	-0.34285298
-1.2080392	regularexpression numeric if	-0.2333333
-1.1053607	false numeric if	-0.28070265
-1.3789831	true numeric if	-0.2333333
-0.7881537	while numeric if	-0.4129422
-1.2400132	this numeric if	-0.26433203
-0.92395014	case numeric if	-0.4677917
-1.2665696	void numeric if	-0.28800347
-1.886438	<s> function if	-0.9067871
-1.2036276	string function if	-0.29618964
-1.0460665	identifier function if	-0.6459515
-1.4520937	return function if	-0.26433203
-1.4115244	null function if	-0.2333333
-1.977957	<s> return if	-1.0513684
-1.3896058	string return if	-0.33830738
-1.2586015	identifier return if	-0.46620345
-1.3047414	numeric return if	-0.33775133
-1.2867522	null return if	-0.25637248
-1.2496034	false return if	-0.26433203
-1.3408903	true return if	-0.25637248
-1.6058913	else return if	-0.2333333
-1.170842	this return if	-0.26433203
-1.4719	<s> null if	-0.714788
-1.3622653	string null if	-0.28070265
-1.0746791	identifier null if	-0.541203
-1.2973202	numeric null if	-0.28070265
-1.0555869	return null if	-0.3890167
-1.8814306	<s> regularexpression if	-0.31303993
-1.3607233	identifier regularexpression if	-0.33775133
-1.49923	<s> false if	-0.5550872
-1.2287388	string false if	-0.29170045
-1.0593331	identifier false if	-0.59035826
-1.4487165	numeric false if	-0.2333333
-1.0292735	return false if	-0.48807517
-1.2626339	false false if	-0.28070265
-1.286299	true false if	-0.28070265
-1.438722	<s> true if	-1.1369487
-1.1871834	string true if	-0.43797866
-1.0822071	identifier true if	-0.5347385
-1.4240642	numeric true if	-0.2333333
-0.9660388	return true if	-0.48350257
-1.3611042	false true if	-0.2333333
-1.169712	true true if	-0.26433203
-0.6513504	while true if	-0.4677917
-1.1182798	this true if	-0.2333333
-1.2133887	string for if	-0.2333333
-1.673832	identifier for if	-0.2333333
-1.1500958	numeric for if	-0.2333333
-1.0267729	return for if	-0.2333333
-0.9455935	this for if	-0.2333333
-0.3913709	<s> else if	-1.5057002
-0.73228925	string else if	-0.42779022
-0.7280827	identifier else if	-0.6372521
-0.7464707	numeric else if	-0.37291655
-0.49903795	return else if	-0.38861048
-0.71334326	null else if	-0.31303993
-0.5400471	regularexpression else if	-0.2333333
-0.6281646	false else if	-0.3558796
-0.7088305	true else if	-0.3972513
-0.45596817	continue else if	-0.43797866
-0.6240225	break else if	-0.61406994
-0.76841176	this else if	-0.29170045
-0.30021772	default else if	-0.2333333
-0.30021772	true.` else if	-0.2333333
-0.48933262	<s> continue if	-0.43797866
-0.7561287	string continue if	-0.28070265
-0.40560013	identifier continue if	-0.62379557
-0.7786983	numeric continue if	-0.25637248
-0.6104907	null continue if	-0.2333333
-0.50024635	regularexpression continue if	-0.2333333
-0.27686247	false continue if	-0.2333333
-0.6782642	true continue if	-0.2333333
-0.8761569	<s> try if	-0.42551062
-1.1159477	string try if	-0.2333333
-1.0148488	identifier try if	-0.5348887
-0.77853763	numeric try if	-0.29170045
-0.99305624	function try if	-0.2333333
-0.67058384	return try if	-0.2333333
-0.873996	null try if	-0.2333333
-0.7282736	false try if	-0.28070265
-0.960992	true try if	-0.2333333
-0.6445425	continue try if	-0.2333333
-0.6445425	this try if	-0.2333333
-0.5264286	finally try if	-0.2333333
-1.3108591	<s> break if	-0.31303993
-1.1645678	string break if	-0.2333333
-0.8685642	identifier break if	-0.46409473
-0.89252466	numeric break if	-0.29170045
-0.8167029	null break if	-0.2333333
-0.95248055	false break if	-0.2333333
-0.9131385	true break if	-0.26433203
-0.84619164	else break if	-0.28070265
-0.5527674	continue break if	-0.2333333
-0.5527674	this break if	-0.2333333
-0.8167029	default break if	-0.2333333
-0.24537556	<s> do if	-0.73900867
-0.47794718	identifier do if	-0.46409473
-0.43509942	numeric do if	-0.38861048
-0.43077433	else do if	-0.2333333
-0.23400562	break do if	-0.2333333
-0.43077433	this do if	-0.2333333
-1.7988812	<s> this if	-1.0400386
-1.3562434	string this if	-0.28070265
-1.2366998	identifier this if	-0.46233493
-1.4441327	numeric this if	-0.2333333
-1.1116121	return this if	-0.32482988
-0.954684	in this if	-0.2333333
-1.3795536	this this if	-0.2333333
-1.2325017	<s> default if	-0.2333333
-1.1674128	identifier default if	-0.2333333
-0.5755786	numeric default if	-0.2333333
-1.073972	break default if	-0.26433203
-1.1471854	<s> finally if	-0.2333333
-0.6089473	identifier finally if	-0.5348887
-0.54604554	false finally if	-0.2333333
-0.2810198	true finally if	-0.2333333
-0.90346754	identifier extends if	-0.2333333
-0.22066323	an array if	-0.2333333
-0.31828895	} ` if	-0.2333333
-0.31828895	] ` if	-0.2333333
-0.22066323	` `value if	-0.2333333
-0.24483483	identifier debugger if	-0.2333333
-1.5511078	<s> string function	-1.8105786
-1.2214282	string string function	-0.39925665
-1.3430446	identifier string function	-0.6676781
-1.2774487	numeric string function	-0.38861048
-0.88044626	function string function	-0.28070265
-1.3485918	return string function	-0.35856384
-1.5509773	null string function	-0.2333333
-1.2939329	regularexpression string function	-0.2333333
-1.1320814	false string function	-0.33830738
-1.2552944	true string function	-0.29170045
-1.013724	throw string function	-0.31303993
-1.2812619	this string function	-0.28070265
-1.458736	<s> identifier function	-2.0553365
-1.2063681	string identifier function	-0.57239604
-1.211368	var identifier function	-0.65570015
-1.3641597	identifier identifier function	-0.7775175
-1.2124927	numeric identifier function	-0.52638185
-2.0309346	if identifier function	-0.28070265
-1.3329818	function identifier function	-0.36865973
-1.1497393	return identifier function	-0.57239604
-1.2086914	null identifier function	-0.36626223
-1.3405153	regularexpression identifier function	-0.29170045
-1.227875	false identifier function	-0.38203272
-1.3905777	in identifier function	-0.28070265
-0.9946642	true identifier function	-0.45887053
-1.7075833	typeof identifier function	-0.2333333
-1.5270268	else identifier function	-0.2713606
-1.4490415	throw identifier function	-0.31303993
-1.2371143	new identifier function	-0.48350257
-1.7569833	catch identifier function	-0.2333333
-1.283337	break identifier function	-0.2333333
-1.5122336	instanceof identifier function	-0.2333333
-1.183306	this identifier function	-0.640064
-0.8982586	extends identifier function	-0.2333333
-1.0897604	yield identifier function	-0.2333333
-2.0908535	<s> numeric function	-1.2766984
-1.3112798	string numeric function	-0.30008614
-1.3754044	identifier numeric function	-0.57262945
-1.2575581	numeric numeric function	-0.40215245
-1.0923392	return numeric function	-0.61406994
-1.2955457	null numeric function	-0.2333333
-1.2626389	regularexpression numeric function	-0.2333333
-1.114172	this numeric function	-0.31303993
-1.1551367	void numeric function	-0.43797866
-2.3449798	identifier if function	-0.2333333
-2.580843	<s> function function	-0.68101674
-1.2031871	string function function	-0.43797866
-1.3618959	identifier function function	-0.5347385
-1.2911096	numeric function function	-0.28070265
-0.34810168	if function function	-0.2333333
-1.7303553	<s> return function	-1.003697
-1.4637983	string return function	-0.26153708
-1.234172	identifier return function	-0.57134354
-1.1586045	numeric return function	-0.32572627
-1.1659929	function return function	-0.27367735
-1.1162766	return return function	-0.2333333
-1.373242	null return function	-0.2333333
-1.0901448	regularexpression return function	-0.2333333
-1.1871393	false return function	-0.28070265
-1.1371751	true return function	-0.31303993
-1.5045907	else return function	-0.2333333
-1.2904541	this return function	-0.2333333
-1.3136605	default return function	-0.2333333
-1.6321803	<s> null function	-0.5550872
-1.3294833	string null function	-0.26433203
-1.2086141	identifier null function	-0.45938107
-1.2667388	numeric null function	-0.28070265
-1.2443583	return null function	-0.38861048
-1.1187606	null null function	-0.25637248
-1.081818	<s> regularexpression function	-0.949862
-1.4512599	string regularexpression function	-0.2333333
-1.0949943	identifier regularexpression function	-0.42446944
-1.2884921	regularexpression regularexpression function	-0.2333333
-1.4448471	<s> false function	-0.83591866
-1.3403752	string false function	-0.28070265
-1.2498803	identifier false function	-0.5804126
-1.2350788	numeric false function	-0.28070265
-1.0768774	return false function	-0.50985223
-1.1514752	null false function	-0.2333333
-1.418489	false false function	-0.2333333
-1.260975	true false function	-0.28070265
-1.8991985	<s> true function	-0.68101674
-1.18677	string true function	-0.43797866
-1.2204618	identifier true function	-0.5777284
-1.4232047	numeric true function	-0.2333333
-1.2219061	return true function	-0.4129422
-1.20122	null true function	-0.2333333
-1.177964	false true function	-0.26433203
-1.3382077	true true function	-0.2333333
-1.3498659	while true function	-0.2333333
-1.5185713	identifier new function	-0.28070265
-1.0212448	identifier catch function	-0.31303993
-0.9873306	true catch function	-0.2333333
-1.4270387	<s> break function	-0.31303993
-1.3541403	string break function	-0.2333333
-1.5497622	identifier break function	-0.2333333
-1.3101037	numeric break function	-0.2333333
-1.169987	else break function	-0.2333333
-0.60581774	continue break function	-0.2333333
-1.3959678	identifier instanceof function	-0.2333333
-0.99446	<s> this function	-1.6852757
-1.5524722	string this function	-0.2333333
-1.2363999	identifier this function	-0.4998032
-1.4434353	numeric this function	-0.2333333
-1.0239614	return this function	-0.61406994
-0.77093065	new this function	-0.2333333
-1.1196373	this this function	-0.28070265
-0.34128594	<s> default function	-0.73900867
-0.46188414	export default function	-0.28070265
-1.5283345	identifier finally function	-0.2333333
-0.22034608	is false.` function	-0.2333333
-0.28499684	of array.` function	-0.2333333
-0.55286324	<s> export function	-0.73900867
-0.31663835	string export function	-0.5348887
-0.35066423	identifier export function	-0.68964046
-0.43658274	numeric export function	-0.28070265
-0.19951983	function export function	-0.2333333
-0.3689532	regularexpression export function	-0.28070265
-0.14912885	false export function	-0.31303993
