\data\
ngram 1=204
ngram 2=649
ngram 3=1440
ngram 4=3242
ngram 5=7010
ngram 6=14241

\1-grams:
-0.5332646	<unk>
-inf	<s>	-3.1390877
-1.1439723	</s>
-2.0650022	string	-0.4342327
-1.1347488	punctuator	-0.98308957
-1.9321276	var	-0.37078443
-1.3715273	identifier	-0.6709008
-2.2574139	numeric	-0.34060276
-1.8305247	if	-0.605894
-1.8783617	function	-0.5991056
-2.0650022	return	-0.41165292
-2.6114428	null	-0.3648777
-2.3993104	regularexpression	-0.43182448
-2.6114428	false	-0.26711327
-2.150638	in	-0.4193337
-2.3993104	true	-0.26711327
-2.6114428	typeof	-0.28956944
-2.0650022	for	-0.69148654
-2.6114428	else	-0.24994868
-2.2574139	delete	-0.35601655
-2.3993104	continue	-0.3402454
-2.3993104	throw	-0.43364808
-2.2574139	new	-0.5153953
-2.6114428	try	-0.43621406
-2.942436	catch	-0.34167665
-2.150638	break	-0.4870993
-2.3993104	instanceof	-0.3782524
-2.942436	do	-0.34167665
-2.2574139	while	-0.58234215
-1.7482429	this	-0.5874107
-2.3993104	switch	-0.40177402
-2.6114428	case	-0.33986866
-2.2574139	default	-0.3782524
-2.942436	finally	-0.51753926
-2.942436	class	-0.27479523
-2.6114428	extends	-0.34167665
-3.2295978	super	-0.12001088
-3.2295978	`the	-0.12001088
-2.150638	\`	-0.31761315
-1.8783617	$	-0.91226727
-1.6482543	{	-0.21658054
-1.5202585	}	-0.34449014
-3.2295978	prop	-0.12001088
-2.6114428	supplied	-0.38938856
-2.942436	to	-0.21685226
-1.9321276	<	-0.1913094
-3.2295978	select	-0.12001088
-1.7122941	>	-0.35386118
-3.2295978	must	-0.12001088
-3.2295978	be	-0.12001088
-2.942436	an	-0.12001088
-3.2295978	array	-0.12001088
-1.8305247	`	-0.51691246
-3.2295978	`\`multiple\`	-0.12001088
-2.942436	is	-0.12001088
-3.2295978	true.`	-0.12001088
-2.6114428	a	-0.12001088
-3.2295978	scalar	-0.12001088
-3.2295978	`value	-0.12001088
-3.2295978	\`multiple\`	-0.12001088
-3.2295978	false.`	-0.12001088
-3.2295978	check	-0.12001088
-3.2295978	the	-0.12001088
-2.942436	render	-0.12001088
-3.2295978	method	-0.12001088
-2.3993104	of	-0.21685226
-2.942436	.`	-0.51753926
-2.942436	react.render	-0.12001088
-3.2295978	call	-0.12001088
-3.2295978	using	-0.12001088
-3.2295978	it	-0.12001088
-2.942436	was	-0.12001088
-3.2295978	passed	-0.12001088
-3.2295978	child	-0.12001088
-3.2295978	from	-0.12001088
-3.2295978	`required	-0.12001088
-3.2295978	not	-0.12001088
-3.2295978	specified	-0.12001088
-3.2295978	`\`	-0.12001088
-3.2295978	\`.`	-0.12001088
-3.2295978	`invalid	-0.12001088
-3.2295978	type	-0.12001088
-1.8783617	,	-0.24994868
-3.2295978	expected	-0.12001088
-2.942436	array.`	-0.51753926
-2.6114428	[	-0.12001088
-2.6114428	]	-0.12001088
-3.2295978	single	-0.12001088
-3.2295978	reactelement.`	-0.12001088
-2.942436	instance	-0.51753926
-3.2295978	argument	-0.12001088
-3.2295978	oneof	-0.12001088
-2.942436	value	-0.12001088
-3.2295978	`supplied	-0.12001088
-3.2295978	one	-0.12001088
-3.2295978	object.`	-0.12001088
-3.2295978	.	-0.12001088
-3.2295978	oneoftype	-0.12001088
-3.2295978	reactnode.`	-0.12001088
-3.2295978	\`object\`.`	-0.12001088
-3.2295978	const	-0.12001088
-2.942436	export	-0.30220786
-2.942436	import	-0.43333942
-2.6114428	void	-0.38211873
-2.942436	yield	-0.51753926
-2.942436	hellomessage	-0.12001088
-1.9321276	=	-0.32502693
-3.2295978	react.createclass	-0.12001088
-1.7482429	(	-0.1956793
-1.6790948	:	-0.2870741
-1.7874382	)	-0.48599666
-3.2295978	div	-0.12001088
-3.2295978	hello	-0.12001088
-3.2295978	this.props.name	-0.12001088
-3.2295978	/div	-0.12001088
-2.3993104	;	-0.5143273
-3.2295978	name=	-0.12001088
-1.9321276	''	-0.17549078
-3.2295978	john	-0.12001088
-2.150638	/	-0.69041854
-3.2295978	mountnode	-0.12001088
-3.2295978	with	-0.12001088
-2.6114428	markdowneditor	-0.12001088
-3.2295978	getinitialstate	-0.12001088
-3.2295978	'type	-0.12001088
-3.2295978	some	-0.12001088
-3.2295978	*markdown*	-0.12001088
-3.2295978	here	-0.12001088
-3.2295978	!	-0.12001088
-2.942436	'	-0.12001088
-3.2295978	handlechange	-0.12001088
-3.2295978	this.setstate	-0.12001088
-3.2295978	react.finddomnode	-0.12001088
-3.2295978	this.refs.textarea	-0.12001088
-3.2295978	.value	-0.12001088
-2.942436	classname=	-0.51753926
-3.2295978	h3	-0.12001088
-2.942436	input	-0.12001088
-3.2295978	/h3	-0.12001088
-2.942436	textarea	-0.12001088
-2.942436	onchange=	-0.51753926
-3.2295978	this.handlechange	-0.12001088
-3.2295978	ref=	-0.12001088
-3.2295978	defaultvalue=	-0.12001088
-2.942436	this.state.value	-0.12001088
-3.2295978	output	-0.12001088
-3.2295978	content	-0.12001088
-3.2295978	dangerouslysetinnerhtml=	-0.12001088
-3.2295978	__html	-0.12001088
-3.2295978	marked	-0.12001088
-3.2295978	sanitize	-0.12001088
-3.2295978	debugger	-0.12001088
-2.942436	timer	-0.12001088
-3.2295978	secondselapsed	-0.12001088
-3.2295978	0	-0.12001088
-3.2295978	tick	-0.12001088
-2.942436	this.state.secondselapsed	-0.12001088
-2.3993104	+	-0.27479523
-3.2295978	1	-0.12001088
-3.2295978	componentdidmount	-0.12001088
-2.942436	this.interval	-0.12001088
-3.2295978	setinterval	-0.12001088
-3.2295978	this.tick	-0.12001088
-3.2295978	1000	-0.12001088
-3.2295978	componentwillunmount	-0.12001088
-3.2295978	clearinterval	-0.12001088
-3.2295978	seconds	-0.12001088
-3.2295978	elapsed	-0.12001088
-2.942436	todolist	-0.12001088
-2.942436	createitem	-0.12001088
-2.6114428	itemtext	-0.34167665
-2.942436	index	-0.12001088
-3.2295978	li	-0.12001088
-3.2295978	key=	-0.12001088
-3.2295978	/li	-0.12001088
-3.2295978	ul	-0.12001088
-3.2295978	this.props.items.map	-0.12001088
-3.2295978	/ul	-0.12001088
-2.942436	todoapp	-0.12001088
-3.2295978	items	-0.12001088
-2.942436	text	-0.51753926
-3.2295978	onchange	-0.12001088
-3.2295978	e	-0.12001088
-3.2295978	e.target.value	-0.12001088
-3.2295978	handlesubmit	-0.12001088
-3.2295978	e.preventdefault	-0.12001088
-2.942436	nextitems	-0.12001088
-3.2295978	this.state.items.concat	-0.12001088
-2.942436	this.state.text	-0.12001088
-2.942436	nexttext	-0.12001088
-3.2295978	todo	-0.12001088
-3.2295978	items=	-0.12001088
-3.2295978	this.state.items	-0.12001088
-3.2295978	form	-0.12001088
-3.2295978	onsubmit=	-0.12001088
-3.2295978	this.handlesubmit	-0.12001088
-3.2295978	this.onchange	-0.12001088
-3.2295978	value=	-0.12001088
-3.2295978	button	-0.12001088
-3.2295978	'add	-0.12001088
-3.2295978	#	-0.12001088
-3.2295978	this.state.items.length	-0.12001088
-3.2295978	/button	-0.12001088
-3.2295978	/form	-0.12001088

\2-grams:
-3.287912	<s> </s>
-0.64701265	string </s>
-1.246045	punctuator </s>
-0.9230932	var </s>
-0.62160724	identifier </s>
-0.8284534	numeric </s>
-0.5955138	if </s>
-0.74143285	function </s>
-1.1882643	return </s>
-0.5799103	null </s>
-0.646857	regularexpression </s>
-0.7132332	false </s>
-0.89686966	in </s>
-0.7132332	true </s>
-1.1737182	typeof </s>
-0.7712477	for </s>
-1.2803046	else </s>
-1.2332124	delete </s>
-1.1364789	continue </s>
-1.3319187	throw </s>
-0.7697531	new </s>
-0.5159752	try </s>
-0.94628525	catch </s>
-0.9347078	break </s>
-0.6901199	instanceof </s>
-1.137121	do </s>
-0.6621032	while </s>
-0.73816264	this </s>
-1.1149243	switch </s>
-1.2443867	case </s>
-1.2202203	default </s>
-1.0066196	class </s>
-0.940658	{ </s>
-1.064007	} </s>
-0.468793	> </s>
-1.4080576	` </s>
-1.1903324	, </s>
-0.7565326	const </s>
-0.62942314	export </s>
-0.6470352	import </s>
-0.8058274	void </s>
-1.2087193	( </s>
-1.3905146	) </s>
-0.8698823	div </s>
-0.14508834	; </s>
-0.7277406	'' </s>
-0.52886415	! </s>
-0.7565326	textarea </s>
-1.0575533	<s> string	-3.1257782
-1.4573741	punctuator string	-0.61133105
-1.5931401	identifier string	-0.16964068
-1.3942666	return string	-0.24542493
-0.92364997	throw string	-0.3728029
-0.7410028	case string	-0.16964068
-1.4240505	import string	-0.16226923
-0.22249438	<s> punctuator	-2.9024494
-0.57243127	string punctuator	-0.33720133
-1.0874305	punctuator punctuator	-0.72928405
-0.44451147	identifier punctuator	-0.5580889
-0.7194023	numeric punctuator	-0.30948108
-0.29741552	if punctuator	-0.36413005
-0.91032445	function punctuator	-0.23845081
-1.1842817	return punctuator	-0.31687284
-0.48455957	null punctuator	-0.24151689
-0.37292147	regularexpression punctuator	-0.30097476
-0.62527186	false punctuator	-0.29320136
-1.3451889	in punctuator	-0.16226923
-0.62527186	true punctuator	-0.23828413
-0.6742484	typeof punctuator	-0.30986345
-0.18262446	for punctuator	-0.32560593
-0.9551964	else punctuator	-0.3498618
-1.2281979	delete punctuator	-0.16226923
-0.30435503	continue punctuator	-0.27859947
-0.84447265	throw punctuator	-0.3728029
-0.85877633	new punctuator	-0.25490147
-0.4178421	try punctuator	-0.30349588
-0.3031377	catch punctuator	-0.2760591
-0.6799321	break punctuator	-0.21631424
-1.2155945	instanceof punctuator	-0.16226923
-0.57596326	do punctuator	-0.30986345
-0.25287506	while punctuator	-0.3188502
-0.31203625	this punctuator	-0.29377636
-0.23336439	switch punctuator	-0.27127886
-1.2390485	case punctuator	-0.16226923
-0.42284462	default punctuator	-0.19273382
-0.14353795	finally punctuator	-0.2760591
-0.94360113	extends punctuator	-0.16226923
-0.527152	super punctuator	-0.16226923
-0.18764244	` punctuator	-0.27127886
-0.527152	true.` punctuator	-0.16226923
-0.527152	false.` punctuator	-0.16226923
-0.14353795	.` punctuator	-0.16226923
-0.527152	\`.` punctuator	-0.16226923
-0.14353795	array.` punctuator	-0.5351527
-0.527152	reactelement.` punctuator	-0.16226923
-0.527152	object.` punctuator	-0.16226923
-0.527152	reactnode.` punctuator	-0.16226923
-0.527152	\`object\`.` punctuator	-0.16226923
-1.1484069	export punctuator	-0.16226923
-0.645942	import punctuator	-0.25490147
-1.2809395	void punctuator	-0.16226923
-0.14353795	yield punctuator	-0.30986345
-0.527152	with punctuator	-0.16226923
-0.527152	debugger punctuator	-0.16226923
-1.9815347	<s> var	-2.004415
-1.8427925	string var	-0.16226923
-1.430434	punctuator var	-0.92545354
-1.5820924	identifier var	-0.17212586
-1.1981798	numeric var	-0.3728029
-1.3440285	null var	-0.16226923
-1.47955	false var	-0.16226923
-1.7293795	else var	-0.16226923
-1.3944625	export var	-0.16226923
-0.6547493	<s> identifier	-3.3449605
-1.5900638	string identifier	-0.16226923
-1.1154917	punctuator identifier	-0.76192784
-0.39050454	var identifier	-0.5207569
-1.2260838	identifier identifier	-0.30341688
-1.5307214	numeric identifier	-0.16226923
-0.38796258	function identifier	-0.39397463
-0.863879	return identifier	-0.4417196
-1.3027068	false identifier	-0.16226923
-0.54377055	in identifier	-0.42985332
-1.3027068	true identifier	-0.16226923
-0.6128958	typeof identifier	-0.2609751
-0.9480229	else identifier	-0.16964068
-0.6653954	delete identifier	-0.16964068
-1.2243222	continue identifier	-0.16226923
-0.786024	throw identifier	-0.16964068
-0.4845869	new identifier	-0.2798485
-0.87858224	break identifier	-0.16964068
-0.4379345	instanceof identifier	-0.23907267
-1.2247875	do identifier	-0.16226923
-1.6677821	this identifier	-0.16226923
-0.7994405	case identifier	-0.3728029
-1.3190123	default identifier	-0.16226923
-0.43095165	class identifier	-0.30986345
-0.31556073	extends identifier	-0.5351527
-1.4500917	{ identifier	-0.16226923
-0.815406	const identifier	-0.16226923
-0.66834605	import identifier	-0.3728029
-0.8409381	void identifier	-0.5351527
-1.4775475	<s> numeric	-3.0727415
-1.602002	punctuator numeric	-0.42027462
-1.2220025	return numeric	-0.2852697
-0.74438655	case numeric	-0.16964068
-0.7857913	void numeric	-0.16964068
-2.258042	<s> if	-2.1015449
-1.8097917	string if	-0.16226923
-1.4494687	punctuator if	-0.9124886
-1.6631479	identifier if	-0.3728029
-1.0928627	numeric if	-0.17212586
-1.9683635	return if	-0.16226923
-1.0127118	else if	-0.16964068
-0.621924	do if	-0.3728029
-1.8441339	this if	-0.16226923
-0.59748447	array if	-0.16226923
-0.59748447	`value if	-0.16226923
-1.9269271	<s> function	-2.2565036
-1.4514316	punctuator function	-0.79766697
-2.218791	identifier function	-0.16226923
-1.7931731	numeric function	-0.16226923
-1.4667305	return function	-0.30986345
-1.4046435	regularexpression function	-0.16226923
-0.745668	default function	-0.5351527
-0.687108	export function	-0.3728029
-1.4803379	= function	-0.16226923
-0.46137708	: function	-0.5980946
-1.96526	<s> return	-1.5381651
-1.5353938	punctuator return	-0.693175
-2.2961786	identifier return	-0.16226923
-1.20793	numeric return	-0.3728029
-1.5019453	true return	-0.16226923
-1.128012	else return	-0.21544799
-1.8953841	this return	-0.16226923
-2.6412542	<s> null	-2.0213404
-1.6426201	punctuator null	-0.64782524
-1.420776	return null	-0.16964068
-3.120046	<s> regularexpression	-1.546263
-1.7188076	punctuator regularexpression	-0.5808785
-1.5148834	return regularexpression	-0.3728029
-1.4917775	typeof regularexpression	-0.16226923
-2.8792667	<s> false	-1.7849097
-1.6807098	punctuator false	-0.54530424
-1.420776	return false	-0.1671696
-3.8115973	<s> in	-0.7436719
-1.1157335	string in	-0.1671696
-2.4688218	punctuator in	-0.3728029
-1.4142756	identifier in	-0.36290652
-1.8765808	numeric in	-0.16226923
-0.60764825	specified in	-0.16226923
-2.599844	<s> true	-2.0623605
-1.5725921	punctuator true	-0.6873338
-1.5148834	return true	-0.2760591
-1.8498309	: true	-0.16226923
-3.3127787	<s> typeof	-1.247513
-1.6807098	punctuator typeof	-0.52504766
-1.5234547	return typeof	-0.5351527
-3.1993477	<s> for	-1.4658567
-1.8785087	string for	-0.16226923
-1.5078003	punctuator for	-0.7363973
-2.2961786	identifier for	-0.16226923
-1.8541797	numeric for	-0.16226923
-1.5019453	false for	-0.16226923
-1.7717448	else for	-0.16226923
-2.912565	<s> else	-1.228035
-1.6426201	punctuator else	-0.4919369
-1.9516823	numeric else	-0.16226923
-4.004147	<s> delete	-0.5675807
-1.602002	punctuator delete	-0.6182881
-2.1443238	return delete	-0.16226923
-1.8186941	else delete	-0.16226923
-1.6154217	void delete	-0.16226923
-4.3586617	<s> continue	-0.39397463
-1.8738407	punctuator continue	-0.44930416
-2.3904116	identifier continue	-0.16226923
-1.8442203	else continue	-0.16226923
-3.4734435	<s> throw	-0.72303337
-1.6395754	punctuator throw	-0.65371424
-2.182077	return throw	-0.16226923
-1.8442203	else throw	-0.16226923
-2.8543298	<s> new	-1.808948
-1.5401942	punctuator new	-0.7341571
-1.4073191	return new	-0.16815633
-1.7133007	in new	-0.16226923
-0.6319335	throw new	-0.170704
-3.7364962	<s> try	-0.8228532
-1.6076033	punctuator try	-0.7888752
-1.871341	else try	-0.16226923
-3.891597	<s> catch	-0.808948
-2.2654555	punctuator catch	-0.2665507
-3.5631514	<s> break	-0.89779717
-1.8975322	string break	-0.16226923
-1.7115854	punctuator break	-0.5690701
-2.325375	identifier break	-0.16226923
-1.8765808	numeric break	-0.16226923
-1.7945853	else break	-0.16226923
-3.9635305	<s> instanceof	-0.7363973
-2.0201437	punctuator instanceof	-0.43706635
-1.4217519	identifier instanceof	-0.39999342
-1.1064912	this instanceof	-0.17212586
-4.3796506	<s> do	-0.28372526
-1.7721369	punctuator do	-0.41516393
-3.4582765	<s> while	-1.2135186
-1.2214285	string while	-0.5351527
-1.5401942	punctuator while	-0.7557025
-1.9002005	numeric while	-0.16226923
-1.8186941	else while	-0.16226923
-2.3879526	<s> this	-2.1450725
-1.3428925	punctuator this	-0.7239279
-2.15313	identifier this	-0.16226923
-1.7396901	numeric this	-0.16226923
-1.3573097	return this	-0.16815633
-1.4379522	false this	-0.16226923
-0.6880467	in this	-0.2970646
-1.4050956	typeof this	-0.16226923
-1.6553366	else this	-0.16226923
-0.4998659	delete this	-0.2665507
-0.915432	new this	-0.5351527
-1.4241965	instanceof this	-0.16226923
-0.87287927	void this	-0.5351527
-4.0599713	<s> switch	-0.64924717
-1.938278	string switch	-0.16226923
-1.7645991	punctuator switch	-0.507918
-2.3904116	identifier switch	-0.16226923
-3.3325498	<s> case	-0.861336
-1.7686644	punctuator case	-0.53453755
-0.7307841	break case	-0.16964068
-3.9590867	<s> default	-0.43536735
-1.8112653	punctuator default	-0.47315586
-1.5255585	true default	-0.16226923
-1.023928	break default	-0.5351527
-1.428894	export default	-0.16226923
-4.6976137	<s> finally	-0.17212586
-2.2654555	punctuator finally	-0.2970646
-5.4630113	<s> class	-0.16226923
-2.1343718	punctuator class	-0.24733761
-3.145076	punctuator extends	-0.16226923
-2.4269888	identifier extends	-0.16226923
-1.2099978	class extends	-0.16226923
-3.2815595	punctuator super	-0.16226923
-3.2815595	punctuator `the	-0.16226923
-0.60764825	`the \`	-0.16226923
-1.9782172	} \`	-0.16226928
-0.6263768	to \`	-0.5351527
-1.3513399	of \`	-0.16226923
-0.8993434	type \`	-0.16226923
-0.8993434	value \`	-0.16226923
-0.39321056	\` $	-0.47315586
-1.7405139	< $	-0.16226923
-1.6722233	` $	-0.16226923
-0.619558	of $	-0.5351527
-0.59949833	from $	-0.16226923
-0.59949833	`required $	-0.16226923
-0.59949833	`\` $	-0.16226923
-0.88353086	`invalid $	-0.16226923
-1.043265	[ $	-0.16226923
-0.59949833	. $	-0.16226923
-1.8619651	return {	-0.16226923
-0.0553374	$ {	-0.69500464
-1.6324823	{ {	-0.16226923
-1.042465	> {	-0.16226923
-1.4343221	, {	-0.16226923
-0.9699568	( {	-0.16226923
-1.625659	: {	-0.16226923
-0.8722221	) {	-0.17212586
-0.58755314	hello {	-0.16226923
-0.15297335	onchange= {	-0.16226923
-0.58755314	defaultvalue= {	-0.16226923
-0.58755314	dangerouslysetinnerhtml= {	-0.16226923
-0.58755314	key= {	-0.16226923
-0.58755314	items= {	-0.16226923
-0.58755314	onsubmit= {	-0.16226923
-0.58755314	value= {	-0.16226923
-3.6269674	<s> }	-0.45114368
-2.015088	identifier }	-0.16226923
-1.365086	true }	-0.16226923
-1.6783987	} }	-0.16226923
-0.96127325	) }	-0.5351527
-0.5778439	this.props.name }	-0.16226923
-1.3536648	'' }	-0.16226923
-0.84279966	' }	-0.16226923
-0.5778439	.value }	-0.16226923
-0.5778439	this.handlechange }	-0.16226923
-0.84279966	this.state.value }	-0.16226923
-0.5778439	0 }	-0.16226923
-0.84279966	this.state.secondselapsed }	-0.16226923
-0.84279966	1 }	-0.16226923
-0.32063115	itemtext }	-0.16226923
-0.5778439	e.target.value }	-0.16226923
-0.84279966	this.state.text }	-0.16226923
-0.84279966	nexttext }	-0.16226923
-0.5778439	this.state.items }	-0.16226923
-0.5778439	this.handlesubmit }	-0.16226923
-0.5778439	this.onchange }	-0.16226923
-1.6902895	\` prop	-0.16226923
-1.6716698	\` supplied	-0.16226923
-0.6138627	prop supplied	-0.16226923
-0.6138627	argument supplied	-0.16226923
-0.22730324	supplied to	-0.16226923
-0.61563313	`supplied to	-0.16226923
-3.8022542	<s> <	-0.23411682
-2.0194833	return <	-0.16226923
-1.0485921	} <	-0.2760591
-1.3248053	to <	-0.16226923
-0.60152155	using <	-0.16226923
-1.6280694	( <	-0.16226923
-0.8874303	input <	-0.16226923
-0.60152155	output <	-0.16226923
-0.60152155	todo <	-0.16226923
-1.9983938	< select	-0.16226923
-1.2034485	} >	-0.16226923
-0.5914985	select >	-0.16226923
-1.0213938	div >	-0.16226923
-0.5914985	/div >	-0.16226923
-1.4307138	'' >	-0.16226923
-0.09692133	/ >	-0.36290652
-0.5914985	h3 >	-0.16226923
-0.5914985	/h3 >	-0.16226923
-0.5914985	/li >	-0.16226923
-0.5914985	ul >	-0.16226923
-0.5914985	/ul >	-0.16226923
-0.5914985	button >	-0.16226923
-0.5914985	/button >	-0.16226923
-0.5914985	/form >	-0.16226923
-1.9494057	> must	-0.16226923
-0.61638474	must be	-0.16226923
-0.9151136	be an	-0.16226923
-1.3860915	expected an	-0.16226923
-1.2160432	an array	-0.16226923
-4.389474	<s> `	-0.2970646
-2.6994855	punctuator `	-0.16226923
-1.7269771	if `	-0.16226923
-1.6407137	in `	-0.16226923
-1.5649524	\` `	-0.16226923
-1.8538839	} `	-0.16226923
-1.3079754	to `	-0.16226923
-0.59748447	scalar `	-0.16226923
-0.8796661	type `	-0.16226923
-1.2886434	expected `	-0.16226923
-1.037693	] `	-0.16226923
-3.2815595	punctuator `\`multiple\`	-0.16226923
-0.61563313	`\`multiple\` is	-0.16226923
-0.61563313	\`multiple\` is	-0.16226923
-0.91661274	is true.`	-0.16226923
-0.9115925	be a	-0.16226923
-0.6138627	passed a	-0.16226923
-1.375758	expected a	-0.16226923
-1.2160432	a scalar	-0.16226923
-3.2815595	punctuator `value	-0.16226923
-1.817125	if \`multiple\`	-0.16226923
-0.91661274	is false.`	-0.16226923
-1.7588253	` check	-0.16226923
-0.61638474	check the	-0.16226923
-4.3796506	<s> render	-0.39397463
-0.9151136	the render	-0.16226923
-0.91661274	render method	-0.16226923
-1.6568056	\` of	-0.16226923
-0.61178136	method of	-0.16226923
-0.15645587	instance of	-0.16226923
-0.61178136	one of	-0.16226923
-2.1060767	} .`	-0.16226923
-1.9400548	> .`	-0.16226923
-4.5101604	<s> react.render	-0.2970646
-0.9151136	the react.render	-0.16226923
-0.91661274	react.render call	-0.16226923
-0.61638474	call using	-0.16226923
-1.7588253	` it	-0.16226923
-1.684668	\` was	-0.16226923
-0.61563313	it was	-0.16226923
-0.91661274	was passed	-0.16226923
-1.2160432	a child	-0.16226923
-0.61638474	child from	-0.16226923
-3.2815595	punctuator `required	-0.16226923
-0.91661274	was not	-0.16226923
-0.61638474	not specified	-0.16226923
-3.2815595	punctuator `\`	-0.16226923
-2.1201568	} \`.`	-0.16226923
-2.5648007	punctuator `invalid	-0.3728029
-1.3914957	of type	-0.16226923
-1.5769435	\` ,	-0.16226923
-1.8760647	} ,	-0.16226923
-1.7738389	> ,	-0.16226923
-1.043265	] ,	-0.16226923
-0.59949833	oneof ,	-0.16226923
-0.59949833	oneoftype ,	-0.16226923
-0.88353086	this.state.value ,	-0.16226923
-0.59949833	this.tick ,	-0.16226923
-1.0629561	itemtext ,	-0.16226923
-0.88353086	nextitems ,	-0.16226923
-0.7497137	, expected	-0.1659393
-1.2130611	an array.`	-0.16226923
-1.3879242	of array.`	-0.16226923
-2.0745227	} [	-0.16226923
-1.7531271	( [	-0.16226923
-1.8749971	: [	-0.16226923
-2.0745227	} ]	-0.16226923
-1.0844084	[ ]	-0.16226923
-0.9115925	this.state.text ]	-0.16226923
-1.2160432	a single	-0.16226923
-0.61638474	single reactelement.`	-0.16226923
-1.2130611	an instance	-0.16226923
-1.3860915	expected instance	-0.16226923
-0.91661274	`invalid argument	-0.16226923
-1.3914957	to oneof	-0.16226923
-1.2487478	{ value	-0.5351527
-1.3879242	of value	-0.16226923
-3.2815595	punctuator `supplied	-0.16226923
-1.3905408	expected one	-0.16226923
-1.2160432	an object.`	-0.16226923
-2.1201568	} .	-0.16226923
-1.3914957	to oneoftype	-0.16226923
-1.2160432	a reactnode.`	-0.16226923
-1.3905408	expected \`object\`.`	-0.16226923
-1.9544611	punctuator const	-0.53899777
-3.6675944	<s> export	-0.7161939
-1.9522212	punctuator export	-0.31792215
-3.0216584	<s> import	-1.4185764
-2.2654555	punctuator import	-0.3150278
-3.9680204	<s> void	-0.7363973
-1.8203706	punctuator void	-0.39713913
-1.5234547	return void	-0.2760591
-5.4630113	<s> yield	-0.16226923
-3.2363074	punctuator yield	-0.16226923
-1.9010715	var hellomessage	-0.16226923
-1.9832758	< hellomessage	-0.16226923
-0.8874303	hellomessage =	-0.16226923
-1.0489093	markdowneditor =	-0.16226923
-0.8874303	timer =	-0.16226923
-0.8874303	this.interval =	-0.16226923
-0.8874303	todolist =	-0.16226923
-0.8874303	createitem =	-0.16226923
-0.8874303	todoapp =	-0.16226923
-0.8874303	nextitems =	-0.16226923
-0.8874303	nexttext =	-0.16226923
-0.3769062	= react.createclass	-0.39397463
-1.0634334	function (	-0.16226923
-1.9226321	return (	-0.16226923
-0.8720381	react.render (	-0.16226923
-0.59348476	react.createclass (	-0.16226923
-0.59348476	this.setstate (	-0.16226923
-0.59348476	react.finddomnode (	-0.16226923
-0.59348476	marked (	-0.16226923
-1.1558727	+ (	-0.16226923
-0.59348476	setinterval (	-0.16226923
-0.59348476	clearinterval (	-0.16226923
-0.59348476	this.props.items.map (	-0.16226923
-0.59348476	e.preventdefault (	-0.16226923
-0.59348476	this.state.items.concat (	-0.16226923
-0.86454195	render :	-0.16226923
-0.86454195	value :	-0.16226923
-0.5895214	getinitialstate :	-0.16226923
-0.5895214	handlechange :	-0.16226923
-0.5895214	__html :	-0.16226923
-0.5895214	sanitize :	-0.16226923
-0.5895214	secondselapsed :	-0.16226923
-0.5895214	tick :	-0.16226923
-0.5895214	componentdidmount :	-0.16226923
-0.5895214	componentwillunmount :	-0.16226923
-0.5895214	elapsed :	-0.16226923
-0.5895214	items :	-0.16226923
-0.15326248	text :	-0.16226923
-0.5895214	onchange :	-0.16226923
-0.5895214	handlesubmit :	-0.16226923
-4.5075603	<s> )	-0.17212586
-0.8178374	} )	-0.3457319
-1.0321918	] )	-0.16226923
-0.98617345	( )	-0.16226923
-0.59547997	mountnode )	-0.16226923
-0.59547997	this.refs.textarea )	-0.16226923
-0.8758354	1 )	-0.16226923
-0.8758354	this.interval )	-0.16226923
-0.59547997	1000 )	-0.16226923
-0.8758354	createitem )	-0.16226923
-0.8758354	index )	-0.16226923
-0.59547997	e )	-0.16226923
-1.2511727	< div	-0.30986345
-1.9494057	> hello	-0.16226923
-1.9993228	{ this.props.name	-0.16226923
-1.2511727	< /div	-0.5351527
-1.0658591	} ;	-0.2970646
-1.0835521	> ;	-0.17212586
-0.3831219	) ;	-0.54010266
-1.5717666	'' ;	-0.16226923
-0.91661274	hellomessage name=	-0.16226923
-1.4900136	= ''	-0.16226923
-1.7421114	: ''	-0.16226923
-0.60152155	name= ''	-0.16226923
-0.60152155	john ''	-0.16226923
-1.0489093	markdowneditor ''	-0.16226923
-0.15500146	classname= ''	-0.16226923
-0.8874303	textarea ''	-0.16226923
-0.60152155	ref= ''	-0.16226923
-0.60152155	content ''	-0.16226923
-1.6101676	'' john	-0.16226923
-5.1108994	<s> /	-0.16226923
-1.2439706	} /	-0.17212586
-1.539653	'' /	-0.16226923
-1.0662962	markdowneditor /	-0.16226923
-0.8993434	timer /	-0.16226923
-0.8993434	todoapp /	-0.16226923
-1.6112664	, mountnode	-0.16226923
-3.2815595	punctuator with	-0.16226923
-1.88227	var markdowneditor	-0.16226923
-1.9495221	< markdowneditor	-0.16226923
-1.5887601	'' markdowneditor	-0.16226923
-4.7063813	<s> getinitialstate	-0.17212586
-1.9074061	: 'type	-0.16226923
-0.61638474	'type some	-0.16226923
-0.61638474	some *markdown*	-0.16226923
-0.61638474	*markdown* here	-0.16226923
-0.61638474	here !	-0.16226923
-5.4630113	<s> '	-0.16226923
-0.61563313	# '	-0.16226923
-5.5167794	<s> handlechange	-0.16226923
-4.515835	<s> this.setstate	-0.2970646
-1.9074061	: react.finddomnode	-0.16226923
-1.7832618	( this.refs.textarea	-0.16226923
-1.7584958	) .value	-0.16226923
-5.4630113	<s> classname=	-0.16226923
-1.0896609	div classname=	-0.16226923
-1.9983938	< h3	-0.16226923
-1.9832758	< input	-0.16226923
-1.9400548	> input	-0.16226923
-1.1461505	< /h3	-0.17212586
-1.9832758	< textarea	-0.16226923
-1.6036899	'' textarea	-0.16226923
-5.4630113	<s> onchange=	-0.16226923
-0.9151136	input onchange=	-0.16226923
-1.9993228	{ this.handlechange	-0.16226923
-5.5167794	<s> ref=	-0.16226923
-5.5167794	<s> defaultvalue=	-0.16226923
-1.9850154	{ this.state.value	-0.16226923
-1.774079	( this.state.value	-0.16226923
-1.9494057	> output	-0.16226923
-1.6101676	'' content	-0.16226923
-5.5167794	<s> dangerouslysetinnerhtml=	-0.16226923
-5.5167794	<s> __html	-0.16226923
-1.9074061	: marked	-0.16226923
-1.9993228	{ sanitize	-0.16226923
-3.2815595	punctuator debugger	-0.16226923
-1.9010715	var timer	-0.16226923
-1.9832758	< timer	-0.16226923
-1.2513387	{ secondselapsed	-0.5351527
-1.9074061	: 0	-0.16226923
-5.5167794	<s> tick	-0.16226923
-1.9850154	{ this.state.secondselapsed	-0.16226923
-1.8975121	: this.state.secondselapsed	-0.16226923
-0.907471	' +	-0.16226923
-0.907471	this.state.secondselapsed +	-0.16226923
-0.907471	index +	-0.16226923
-0.61178136	this.state.items.length +	-0.16226923
-0.45785022	+ 1	-0.16226923
-5.5167794	<s> componentdidmount	-0.16226923
-5.4630113	<s> this.interval	-0.16226923
-1.774079	( this.interval	-0.16226923
-1.5669397	= setinterval	-0.16226923
-1.7832618	( this.tick	-0.16226923
-1.6112664	, 1000	-0.16226923
-5.5167794	<s> componentwillunmount	-0.16226923
-5.5167794	<s> clearinterval	-0.16226923
-1.9494057	> seconds	-0.16226923
-0.61638474	seconds elapsed	-0.16226923
-1.9010715	var todolist	-0.16226923
-1.9832758	< todolist	-0.16226923
-1.9010715	var createitem	-0.16226923
-1.774079	( createitem	-0.16226923
-1.9529779	{ itemtext	-0.16226923
-1.7531271	( itemtext	-0.16226923
-1.2099978	+ itemtext	-0.16226923
-1.9850154	{ index	-0.16226923
-1.605789	, index	-0.16226923
-1.9983938	< li	-0.16226923
-0.61638474	li key=	-0.16226923
-1.9983938	< /li	-0.16226923
-1.9983938	< ul	-0.16226923
-1.9993228	{ this.props.items.map	-0.16226923
-1.9983938	< /ul	-0.16226923
-1.9010715	var todoapp	-0.16226923
-1.9832758	< todoapp	-0.16226923
-1.2513387	{ items	-0.5351527
-1.9850154	{ text	-0.16226923
-0.85418266	, text	-0.5351527
-5.5167794	<s> onchange	-0.16226923
-1.7832618	( e	-0.16226923
-1.9074061	: e.target.value	-0.16226923
-5.5167794	<s> handlesubmit	-0.16226923
-5.5167794	<s> e.preventdefault	-0.16226923
-1.9010715	var nextitems	-0.16226923
-1.8975121	: nextitems	-0.16226923
-1.5669397	= this.state.items.concat	-0.16226923
-1.9850154	{ this.state.text	-0.16226923
-1.0896609	[ this.state.text	-0.16226923
-1.9010715	var nexttext	-0.16226923
-1.8975121	: nexttext	-0.16226923
-1.9494057	> todo	-0.16226923
-0.91661274	todolist items=	-0.16226923
-1.9993228	{ this.state.items	-0.16226923
-1.9983938	< form	-0.16226923
-0.61638474	form onsubmit=	-0.16226923
-1.9993228	{ this.handlesubmit	-0.16226923
-1.9993228	{ this.onchange	-0.16226923
-2.1201568	} value=	-0.16226923
-1.9983938	< button	-0.16226923
-1.9993228	{ 'add	-0.16226923
-0.61638474	'add #	-0.16226923
-1.7832618	( this.state.items.length	-0.16226923
-1.9983938	< /button	-0.16226923
-1.9983938	< /form	-0.16226923

\3-grams:
-0.8105172	<s> string </s>
-0.5862099	punctuator string </s>
-0.6373845	identifier string </s>
-0.7628507	return string </s>
-0.70013404	throw string </s>
-0.6373845	case string </s>
-2.3646526	<s> punctuator </s>
-1.3176275	string punctuator </s>
-1.2832013	punctuator punctuator </s>
-1.0478987	identifier punctuator </s>
-1.3065614	numeric punctuator </s>
-1.0622063	if punctuator </s>
-0.6780661	function punctuator </s>
-1.2196479	return punctuator </s>
-1.2233994	null punctuator </s>
-1.1214674	regularexpression punctuator </s>
-1.2424157	false punctuator </s>
-1.1966596	true punctuator </s>
-0.9757335	typeof punctuator </s>
-1.1197813	for punctuator </s>
-1.4099149	else punctuator </s>
-0.84472275	delete punctuator </s>
-1.295307	continue punctuator </s>
-1.1191038	throw punctuator </s>
-1.3659256	try punctuator </s>
-1.0342883	catch punctuator </s>
-1.3128511	break punctuator </s>
-1.1753874	do punctuator </s>
-1.1435474	while punctuator </s>
-1.349835	this punctuator </s>
-1.2106757	switch punctuator </s>
-1.277208	default punctuator </s>
-1.0782285	import punctuator </s>
-0.47740865	<s> var </s>
-0.43583792	punctuator var </s>
-0.811017	numeric var </s>
-1.568541	<s> identifier </s>
-0.5510379	punctuator identifier </s>
-0.833823	var identifier </s>
-0.80185056	identifier identifier </s>
-0.4943465	numeric identifier </s>
-0.71076506	function identifier </s>
-0.6671084	return identifier </s>
-0.53578717	in identifier </s>
-0.43513978	typeof identifier </s>
-0.62040573	else identifier </s>
-0.62040573	delete identifier </s>
-0.62040573	throw identifier </s>
-0.6297755	new identifier </s>
-0.62040573	break identifier </s>
-0.55586314	instanceof identifier </s>
-0.6877798	case identifier </s>
-0.7098848	class identifier </s>
-0.6877798	import identifier </s>
-0.66741395	punctuator numeric </s>
-0.630088	return numeric </s>
-0.7486455	case numeric </s>
-0.7486455	void numeric </s>
-1.1889753	<s> if </s>
-0.404365	punctuator if </s>
-0.6747042	identifier if </s>
-0.60262775	else if </s>
-0.6747042	do if </s>
-1.8900218	<s> function </s>
-0.72975886	punctuator function </s>
-0.7777959	return function </s>
-0.74281085	export function </s>
-2.6597695	<s> return </s>
-1.1169633	punctuator return </s>
-1.150892	else return </s>
-0.5281015	punctuator null </s>
-0.5918355	return null </s>
-0.55222934	punctuator regularexpression </s>
-0.7000595	return regularexpression </s>
-0.6735235	punctuator false </s>
-0.7359715	return false </s>
-0.8593271	string in </s>
-0.7618475	identifier in </s>
-0.59116244	punctuator true </s>
-0.78290814	return true </s>
-0.8032496	punctuator typeof </s>
-0.778323	punctuator for </s>
-0.564746	false for </s>
-1.3633409	punctuator else </s>
-0.8061004	punctuator delete </s>
-0.8698812	punctuator continue </s>
-0.94911754	punctuator throw </s>
-1.0052335	punctuator new </s>
-0.75025326	return new </s>
-0.5935773	throw new </s>
-1.1996053	<s> try </s>
-0.8597841	punctuator try </s>
-0.9079356	punctuator catch </s>
-0.71984273	punctuator break </s>
-0.73538876	else break </s>
-0.634463	punctuator instanceof </s>
-0.5877885	identifier instanceof </s>
-1.1262063	punctuator do </s>
-0.5937917	punctuator while </s>
-0.51466596	else while </s>
-0.53776	punctuator this </s>
-0.5502831	identifier this </s>
-0.7294866	return this </s>
-0.35898036	false this </s>
-0.79243165	delete this </s>
-0.75382936	punctuator switch </s>
-0.9354464	punctuator case </s>
-0.99112797	punctuator default </s>
-0.96783876	punctuator class </s>
-0.40818578	{ { </s>
-0.84999883	( { </s>
-0.39324564	) { </s>
-0.763155	<s> } </s>
-0.4304319	} } </s>
-0.4304319	this.handlechange } </s>
-0.47137243	} > </s>
-0.47137243	div > </s>
-0.40922785	/div > </s>
-0.26310596	'' > </s>
-0.41628775	/ > </s>
-0.26310596	/h3 > </s>
-0.26310596	/button > </s>
-0.26310596	/form > </s>
-0.97947824	punctuator ` </s>
-0.44833526	} , </s>
-0.68183124	punctuator const </s>
-0.09358272	<s> export </s>
-0.71761256	punctuator export </s>
-0.016171753	<s> import </s>
-0.5433028	punctuator import </s>
-0.79115844	punctuator void </s>
-0.8381209	return void </s>
-0.4505854	return ( </s>
-1.1529374	} ) </s>
-0.8414817	< div </s>
-0.06717307	} ; </s>
-0.09208987	> ; </s>
-0.037104208	) ; </s>
-0.094451055	'' ; </s>
-0.35595894	textarea '' </s>
-0.35595894	content '' </s>
-0.28784198	here ! </s>
-0.36418152	< textarea </s>
-0.7411391	<s> punctuator string	-3.4267592
-1.569354	string punctuator string	-0.19541268
-1.4890156	punctuator punctuator string	-0.64687425
-1.2206742	identifier punctuator string	-0.5300181
-1.55633	numeric punctuator string	-0.27947205
-1.4493506	if punctuator string	-0.19695443
-1.4017967	return punctuator string	-0.19695443
-1.4102557	null punctuator string	-0.19927739
-1.2995902	regularexpression punctuator string	-0.19927739
-1.336359	false punctuator string	-0.33189127
-1.2928443	true punctuator string	-0.33189127
-1.493886	for punctuator string	-0.18778494
-1.1755652	throw punctuator string	-0.18778494
-1.509868	while punctuator string	-0.18778494
-1.4740629	this punctuator string	-0.19927739
-1.411271	default punctuator string	-0.18778494
-0.8930179	.` punctuator string	-0.18778494
-1.0636727	export punctuator string	-0.18778494
-1.1465515	import punctuator string	-0.18778494
-4.092485	<s> identifier string	-0.42703992
-1.7309027	punctuator identifier string	-0.33189127
-0.7217509	identifier identifier string	-0.42703992
-1.5829431	<s> return string	-1.0285811
-1.1461351	punctuator return string	-0.6218948
-1.2538278	else return string	-0.18778494
-0.81192255	punctuator throw string	-0.53474456
-0.7305448	else throw string	-0.18778494
-0.22712931	<s> case string	-1.1574193
-0.5978918	punctuator case string	-0.5389689
-0.43384722	break case string	-0.20317677
-1.2425472	punctuator import string	-0.18778494
-0.073499456	<s> string punctuator	-2.270731
-0.34539402	punctuator string punctuator	-0.55298173
-0.37006286	identifier string punctuator	-0.36421952
-0.5341094	return string punctuator	-0.2520348
-0.23233977	throw string punctuator	-0.2684081
-0.37006286	case string punctuator	-0.29106572
-0.30453697	import string punctuator	-0.18778494
-0.5202608	<s> punctuator punctuator	-2.4947486
-1.1503036	string punctuator punctuator	-0.31653115
-1.0309339	punctuator punctuator punctuator	-0.7099407
-1.0919776	identifier punctuator punctuator	-0.5027412
-1.1396372	numeric punctuator punctuator	-0.30121607
-0.85655254	if punctuator punctuator	-0.34042138
-0.7697399	function punctuator punctuator	-0.2627829
-1.205879	return punctuator punctuator	-0.21953054
-1.1820052	null punctuator punctuator	-0.23525205
-1.0549655	regularexpression punctuator punctuator	-0.2570036
-1.212827	false punctuator punctuator	-0.24601494
-1.1638174	true punctuator punctuator	-0.25092646
-1.0569202	for punctuator punctuator	-0.25124285
-1.3002465	else punctuator punctuator	-0.18778494
-0.7953433	delete punctuator punctuator	-0.18778494
-0.96459687	continue punctuator punctuator	-0.24843036
-1.0113231	new punctuator punctuator	-0.18778494
-1.2557256	try punctuator punctuator	-0.18778494
-0.97610116	catch punctuator punctuator	-0.18778494
-1.0254463	break punctuator punctuator	-0.31994534
-0.8883532	while punctuator punctuator	-0.3092348
-1.1335151	this punctuator punctuator	-0.28617504
-1.1619694	default punctuator punctuator	-0.18778494
-1.1279621	finally punctuator punctuator	-0.18778494
-0.7953433	extends punctuator punctuator	-0.18778494
-0.67333597	super punctuator punctuator	-0.18778494
-0.73176503	` punctuator punctuator	-0.42703992
-0.4340961	true.` punctuator punctuator	-0.18778494
-0.4340961	false.` punctuator punctuator	-0.18778494
-0.7953433	.` punctuator punctuator	-0.18778494
-0.4340961	\`.` punctuator punctuator	-0.18778494
-0.13536677	array.` punctuator punctuator	-0.42703992
-0.4340961	reactelement.` punctuator punctuator	-0.18778494
-0.4340961	object.` punctuator punctuator	-0.18778494
-0.4340961	reactnode.` punctuator punctuator	-0.18778494
-0.4340961	\`object\`.` punctuator punctuator	-0.18778494
-0.9258131	export punctuator punctuator	-0.18778494
-1.0113231	import punctuator punctuator	-0.18778494
-0.9281063	yield punctuator punctuator	-0.18778494
-0.7953433	debugger punctuator punctuator	-0.18778494
-0.012687493	<s> identifier punctuator	-2.5851057
-0.25253242	string identifier punctuator	-0.18778494
-0.36453268	punctuator identifier punctuator	-0.7577306
-0.32259265	var identifier punctuator	-0.37341326
-0.37019798	identifier identifier punctuator	-0.3092348
-0.39449617	numeric identifier punctuator	-0.18778494
-0.19164437	function identifier punctuator	-0.4601227
-0.23446144	return identifier punctuator	-0.29742947
-0.25253242	false identifier punctuator	-0.18778494
-0.2522014	in identifier punctuator	-0.30476597
-0.25253242	true identifier punctuator	-0.18778494
-0.44293737	typeof identifier punctuator	-0.24874982
-0.31109187	else identifier punctuator	-0.23934925
-0.31109187	delete identifier punctuator	-0.24278471
-0.25253242	continue identifier punctuator	-0.18778494
-0.31109187	throw identifier punctuator	-0.22458091
-0.28404865	new identifier punctuator	-0.27222663
-0.31109187	break identifier punctuator	-0.2959639
-0.30953273	instanceof identifier punctuator	-0.2383471
-0.25253242	do identifier punctuator	-0.18778494
-0.25253242	this identifier punctuator	-0.18778494
-0.20444334	case identifier punctuator	-0.2684081
-0.25253242	default identifier punctuator	-0.18778494
-0.2755394	class identifier punctuator	-0.33189127
-0.089827366	extends identifier punctuator	-0.33189127
-0.25253242	const identifier punctuator	-0.18778494
-0.089827366	void identifier punctuator	-0.33189127
-0.00049752847	<s> numeric punctuator	-1.9903467
-0.46242285	punctuator numeric punctuator	-0.46343458
-0.49605426	return numeric punctuator	-0.21672899
-0.4265216	case numeric punctuator	-0.26125768
-0.4265216	void numeric punctuator	-0.2810435
-0.02994783	<s> if punctuator	-1.6970414
-0.18127069	string if punctuator	-0.18778494
-0.23937497	punctuator if punctuator	-0.70024854
-0.1637211	identifier if punctuator	-0.25388825
-0.1762516	numeric if punctuator	-0.25124285
-0.18127069	return if punctuator	-0.18778494
-0.23168565	else if punctuator	-0.27206483
-0.1637211	do if punctuator	-0.36749002
-0.18127069	this if punctuator	-0.18778494
-0.05241921	<s> function punctuator	-2.4117973
-0.33117208	punctuator function punctuator	-0.80523676
-0.38256997	return function punctuator	-0.36749002
-0.24389055	<s> return punctuator	-1.5547928
-1.0103818	punctuator return punctuator	-0.47096103
-0.7411055	else return punctuator	-0.2684081
-0.0027888033	<s> null punctuator	-1.1089175
-0.22427233	punctuator null punctuator	-0.44331414
-0.33056113	return null punctuator	-0.23350888
-0.0071735755	<s> regularexpression punctuator	-0.7518412
-0.21452408	punctuator regularexpression punctuator	-0.40919897
-0.1858675	return regularexpression punctuator	-0.33189127
-0.2194025	typeof regularexpression punctuator	-0.18778494
-0.005471882	<s> false punctuator	-1.0039157
-0.22704133	punctuator false punctuator	-0.4521498
-0.48827565	return false punctuator	-0.23350888
-0.8612424	identifier in punctuator	-0.42703992
-0.0028799975	<s> true punctuator	-1.2622083
-0.21246536	punctuator true punctuator	-0.4594062
-0.38843465	return true punctuator	-0.24380624
-1.3688381	<s> typeof punctuator	-0.42703992
-0.77985585	punctuator typeof punctuator	-0.34308243
-0.005130367	<s> for punctuator	-1.0197862
-0.11705389	string for punctuator	-0.18778494
-0.09610631	punctuator for punctuator	-0.72205377
-0.11705389	identifier for punctuator	-0.18778494
-0.11705389	numeric for punctuator	-0.18778494
-0.21620089	false for punctuator	-0.18778494
-0.11705389	else for punctuator	-0.18778494
-0.32669395	<s> else punctuator	-0.707241
-0.8083486	punctuator else punctuator	-0.38677725
-1.5955951	punctuator delete punctuator	-0.18778494
-0.09874548	<s> continue punctuator	-0.19695443
-0.1962267	punctuator continue punctuator	-0.36859667
-0.18491212	identifier continue punctuator	-0.18778494
-0.18491212	else continue punctuator	-0.18778494
-1.23847	<s> throw punctuator	-0.33189127
-1.1669728	punctuator throw punctuator	-0.18778494
-1.0315461	punctuator new punctuator	-0.18778494
-0.8601953	throw new punctuator	-0.18778494
-0.05072412	<s> try punctuator	-0.42740333
-0.09098943	punctuator try punctuator	-0.527843
-0.24053323	else try punctuator	-0.18778494
-0.03527119	<s> catch punctuator	-0.8399989
-0.17673601	punctuator catch punctuator	-0.3092348
-0.079132274	<s> break punctuator	-0.5145046
-0.5233127	string break punctuator	-0.18778494
-0.38129345	punctuator break punctuator	-0.46813464
-0.60600734	else break punctuator	-0.18778494
-1.2449481	punctuator instanceof punctuator	-0.18778494
-0.47564477	<s> do punctuator	-0.33189127
-0.31682423	punctuator do punctuator	-0.475708
-0.011884956	<s> while punctuator	-0.67745864
-0.059842724	string while punctuator	-0.33189127
-0.15123075	punctuator while punctuator	-0.57391804
-0.15724196	numeric while punctuator	-0.18778494
-0.26732382	else while punctuator	-0.18778494
-0.0019563572	<s> this punctuator	-1.3438872
-0.21949992	punctuator this punctuator	-0.50369054
-0.30857477	identifier this punctuator	-0.18778494
-0.18891047	numeric this punctuator	-0.18778494
-0.27792957	return this punctuator	-0.21624948
-0.1299513	in this punctuator	-0.2627829
-0.18891047	typeof this punctuator	-0.18778494
-0.18891047	else this punctuator	-0.18778494
-0.1803146	delete this punctuator	-0.29618737
-0.07030992	new this punctuator	-0.33189127
-0.18891047	instanceof this punctuator	-0.18778494
-0.07030992	void this punctuator	-0.42703992
-0.042500578	<s> switch punctuator	-0.31008875
-0.14635995	string switch punctuator	-0.18778494
-0.14358294	punctuator switch punctuator	-0.4403763
-0.14635995	identifier switch punctuator	-0.18778494
-1.5648683	punctuator case punctuator	-0.18778494
-0.6423523	<s> default punctuator	-0.33189127
-0.14943841	punctuator default punctuator	-0.33002484
-0.2428149	true default punctuator	-0.18778494
-0.086973645	break default punctuator	-0.18778494
-0.091165915	<s> finally punctuator	-0.33189127
-0.066518545	punctuator finally punctuator	-0.19234551
-0.4087786	punctuator extends punctuator	-0.18778494
-0.2871647	punctuator super punctuator	-0.18778494
-0.08461318	<s> ` punctuator	-0.3281155
-0.12001641	if ` punctuator	-0.18778494
-0.12001641	in ` punctuator	-0.18778494
-0.12001641	\` ` punctuator	-0.18778494
-0.12001641	} ` punctuator	-0.18778494
-0.12001641	to ` punctuator	-0.18778494
-0.12001641	scalar ` punctuator	-0.18778494
-0.12001641	type ` punctuator	-0.18778494
-0.12001641	expected ` punctuator	-0.18778494
-0.12001641	] ` punctuator	-0.18778494
-0.2871647	is true.` punctuator	-0.18778494
-0.2871647	is false.` punctuator	-0.18778494
-0.093500815	} .` punctuator	-0.18778494
-0.093500815	> .` punctuator	-0.18778494
-0.2871647	} \`.` punctuator	-0.18778494
-0.093500815	an array.` punctuator	-0.18778494
-0.093500815	of array.` punctuator	-0.18778494
-0.2871647	single reactelement.` punctuator	-0.18778494
-0.2871647	an object.` punctuator	-0.18778494
-0.2871647	a reactnode.` punctuator	-0.18778494
-0.2871647	expected \`object\`.` punctuator	-0.18778494
-1.0520351	punctuator export punctuator	-0.25388825
-1.9164051	<s> import punctuator	-0.18778494
-0.54288566	punctuator import punctuator	-0.25388825
-1.1544781	punctuator void punctuator	-0.27947205
-0.093500815	<s> yield punctuator	-0.18778494
-0.093500815	punctuator yield punctuator	-0.18778494
-0.2871647	punctuator with punctuator	-0.18778494
-0.2871647	punctuator debugger punctuator	-0.18778494
-1.9746782	punctuator string var	-0.18778494
-1.7746164	<s> punctuator var	-2.6940713
-1.299256	string punctuator var	-0.37536865
-1.4504256	punctuator punctuator var	-0.7674482
-1.4267365	identifier punctuator var	-0.5042068
-1.2957648	numeric punctuator var	-0.4256001
-1.2937912	return punctuator var	-0.33189127
-1.3961871	null punctuator var	-0.27947205
-1.1818761	regularexpression punctuator var	-0.33189127
-1.4142137	false punctuator var	-0.19927739
-1.3687272	true punctuator var	-0.19927739
-0.5741074	for punctuator var	-0.5003074
-1.1068983	else punctuator var	-0.33189127
-1.3944056	continue punctuator var	-0.18778494
-1.0659261	try punctuator var	-0.33189127
-1.4350141	break punctuator var	-0.18778494
-1.2429354	do punctuator var	-0.18778494
-1.4596215	this punctuator var	-0.19927739
-1.3955237	default punctuator var	-0.18778494
-1.2938459	finally punctuator var	-0.18778494
-0.88783324	debugger punctuator var	-0.18778494
-2.1165369	punctuator identifier var	-0.18778494
-1.0837802	var identifier var	-0.42703992
-1.1783876	typeof identifier var	-0.18778494
-1.33363	punctuator numeric var	-0.19927739
-1.1707429	return numeric var	-0.18778494
-1.6014394	punctuator null var	-0.18778494
-1.1277308	return false var	-0.18778494
-1.4890608	punctuator else var	-0.3281155
-0.88778514	punctuator export var	-0.3281155
-1.4146801	punctuator string identifier	-0.42703992
-0.48843157	<s> punctuator identifier	-3.3424087
-1.0996186	string punctuator identifier	-0.33758008
-1.1158488	punctuator punctuator identifier	-0.68841124
-0.9411266	identifier punctuator identifier	-0.595829
-1.1549306	numeric punctuator identifier	-0.31008875
-0.8020037	if punctuator identifier	-0.35444444
-0.7773574	function punctuator identifier	-0.27947205
-1.223437	return punctuator identifier	-0.25124285
-1.2018242	null punctuator identifier	-0.19695443
-1.1484275	regularexpression punctuator identifier	-0.19927739
-1.2316959	false punctuator identifier	-0.19927739
-0.43827087	in punctuator identifier	-0.18778494
-1.1829505	true punctuator identifier	-0.19927739
-0.40700993	typeof punctuator identifier	-0.42703992
-0.73212713	for punctuator identifier	-0.31008875
-1.0184287	else punctuator identifier	-0.33189127
-0.8049952	delete punctuator identifier	-0.18778494
-1.2136673	continue punctuator identifier	-0.18778494
-0.5708833	throw punctuator identifier	-0.42703992
-0.5548018	new punctuator identifier	-0.42703992
-1.071332	try punctuator identifier	-0.19927739
-0.48953977	catch punctuator identifier	-0.33189127
-1.0400046	break punctuator identifier	-0.19927739
-0.680604	instanceof punctuator identifier	-0.18778494
-0.66828334	do punctuator identifier	-0.33189127
-0.7636802	while punctuator identifier	-0.37536865
-0.6990469	this punctuator identifier	-0.51917374
-0.62122506	switch punctuator identifier	-0.29618737
-0.43827087	case punctuator identifier	-0.18778494
-0.9963479	default punctuator identifier	-0.19927739
-0.7392972	finally punctuator identifier	-0.33189127
-0.8049952	extends punctuator identifier	-0.18778494
-0.680604	super punctuator identifier	-0.18778494
-1.1413453	` punctuator identifier	-0.18778494
-0.8049952	.` punctuator identifier	-0.18778494
-0.9388986	export punctuator identifier	-0.18778494
-0.5548018	import punctuator identifier	-0.33189127
-0.680604	void punctuator identifier	-0.18778494
-0.40700993	yield punctuator identifier	-0.33189127
-0.18071243	<s> var identifier	-2.1579354
-0.22781149	string var identifier	-0.18778494
-0.2386867	punctuator var identifier	-0.7377019
-0.22114135	identifier var identifier	-0.36749002
-0.1906413	numeric var identifier	-0.42703992
-0.22781149	null var identifier	-0.18778494
-0.22781149	false var identifier	-0.18778494
-0.22781149	else var identifier	-0.18778494
-0.22781149	export var identifier	-0.18778494
-3.092339	<s> identifier identifier	-0.68029803
-1.3968942	punctuator identifier identifier	-0.38772163
-1.4644297	var identifier identifier	-0.18778494
-1.1641963	identifier identifier identifier	-0.18778494
-0.30327395	import identifier identifier	-0.42703992
-1.4748926	punctuator numeric identifier	-0.19927739
-1.0033507	<s> function identifier	-1.7594793
-0.5206006	punctuator function identifier	-0.68029803
-0.22660683	identifier function identifier	-0.18778494
-0.22660683	numeric function identifier	-0.18778494
-0.5552199	return function identifier	-0.18778494
-0.22660683	regularexpression function identifier	-0.18778494
-0.0821129	default function identifier	-0.42703992
-0.18995985	export function identifier	-0.33189127
-0.5396144	<s> return identifier	-2.1839373
-0.8989678	punctuator return identifier	-0.74187005
-0.39154747	identifier return identifier	-0.18778494
-0.27553964	numeric return identifier	-0.42703992
-0.39154747	true return identifier	-0.18778494
-0.9412597	else return identifier	-0.18778494
-0.39154747	this return identifier	-0.18778494
-1.5142871	punctuator false identifier	-0.18778494
-0.070394084	<s> in identifier	-0.87218356
-0.44590837	string in identifier	-0.19927739
-0.22663881	punctuator in identifier	-0.42703992
-0.53893733	identifier in identifier	-0.35865334
-0.2936705	numeric in identifier	-0.18778494
-1.6236533	punctuator true identifier	-0.18778494
-0.0331848	<s> typeof identifier	-1.2406701
-0.37988222	punctuator typeof identifier	-0.68029803
-0.108198784	return typeof identifier	-0.33189127
-1.0258312	<s> else identifier	-0.80523676
-0.8454749	punctuator else identifier	-0.5711536
-0.63178796	numeric else identifier	-0.18778494
-0.12110625	<s> delete identifier	-0.68029803
-0.3188006	punctuator delete identifier	-0.7846221
-0.33678654	else delete identifier	-0.18778494
-1.0145116	punctuator continue identifier	-0.20317677
-0.5063373	<s> throw identifier	-0.7674482
-0.5342164	punctuator throw identifier	-0.6554744
-0.6644047	else throw identifier	-0.18778494
-0.004557289	<s> new identifier	-1.8399988
-0.13892967	punctuator new identifier	-0.69826895
-0.37800008	return new identifier	-0.19927739
-0.2698049	in new identifier	-0.18778494
-0.44201458	throw new identifier	-0.19927739
-1.1473736	<s> break identifier	-0.42703992
-0.6290433	punctuator break identifier	-0.5003074
-0.7100828	else break identifier	-0.18778494
-0.053817336	<s> instanceof identifier	-0.7674482
-0.23976004	punctuator instanceof identifier	-0.44231543
-0.40567136	identifier instanceof identifier	-0.29618737
-0.24210681	this instanceof identifier	-0.19927739
-1.157037	punctuator do identifier	-0.20317677
-1.9466002	punctuator this identifier	-0.18778494
-1.1747288	<s> case identifier	-0.3281155
-0.609532	punctuator case identifier	-0.4664182
-0.7237616	export default identifier	-0.18778494
-0.24648221	<s> class identifier	-0.18778494
-0.26758203	punctuator class identifier	-0.27613565
-0.19073373	identifier extends identifier	-0.18778494
-0.19073373	class extends identifier	-0.18778494
-0.094028644	$ { identifier	-0.7260555
-0.22349139	punctuator const identifier	-0.5711536
-1.9322153	<s> import identifier	-0.18778494
-0.644722	punctuator import identifier	-0.19927739
-0.8906398	punctuator void identifier	-0.42703992
-0.85780156	return void identifier	-0.18778494
-1.0143161	<s> punctuator numeric	-3.2265816
-1.56473	string punctuator numeric	-0.33189127
-1.5144219	punctuator punctuator numeric	-0.44616693
-1.420515	identifier punctuator numeric	-0.41735044
-1.6395787	numeric punctuator numeric	-0.19541268
-1.5049804	if punctuator numeric	-0.20317677
-1.3467798	return punctuator numeric	-0.2684081
-1.3810909	null punctuator numeric	-0.42703992
-1.6402453	regularexpression punctuator numeric	-0.18778494
-1.7220573	false punctuator numeric	-0.18778494
-1.6732018	true punctuator numeric	-0.18778494
-1.1169326	while punctuator numeric	-0.33189127
-1.5444643	this punctuator numeric	-0.19927739
-1.4887667	default punctuator numeric	-0.18778494
-1.8959291	<s> return numeric	-0.8399989
-1.2123733	punctuator return numeric	-0.4403763
-0.88824725	numeric return numeric	-0.18778494
-1.1694176	else return numeric	-0.18778494
-0.5616585	<s> case numeric	-0.8399989
-0.59860045	punctuator case numeric	-0.5042068
-0.69932854	break case numeric	-0.18778494
-0.07234134	<s> void numeric	-0.7674482
-0.3822578	punctuator void numeric	-0.5042068
-0.4317161	return void numeric	-0.42703992
-1.9634564	punctuator string if	-0.18778494
-1.7294452	<s> punctuator if	-2.739314
-1.4161065	string punctuator if	-0.35865334
-1.3175235	punctuator punctuator if	-0.87218356
-1.348959	identifier punctuator if	-0.60111684
-1.3025146	numeric punctuator if	-0.37536865
-1.3003958	return punctuator if	-0.33189127
-1.4061706	null punctuator if	-0.19927739
-1.5504117	regularexpression punctuator if	-0.18778494
-1.4234446	false punctuator if	-0.19927739
-1.3781631	true punctuator if	-0.19927739
-1.110867	else punctuator if	-0.33189127
-1.4035255	continue punctuator if	-0.18778494
-1.0699446	try punctuator if	-0.33189127
-1.446605	break punctuator if	-0.18778494
-0.71109223	do punctuator if	-0.33189127
-1.4698683	this punctuator if	-0.27947205
-1.4066921	default punctuator if	-0.18778494
-0.794564	finally punctuator if	-0.42703992
-0.8915233	debugger punctuator if	-0.18778494
-1.8672835	punctuator identifier if	-0.19927739
-1.090915	var identifier if	-0.42703992
-3.2766526	<s> numeric if	-0.42703992
-1.275799	punctuator numeric if	-0.20317677
-1.116292	return numeric if	-0.18778494
-1.9151763	punctuator return if	-0.42703992
-0.4072144	<s> else if	-1.3888134
-0.75029266	punctuator else if	-0.6554744
-0.6522319	numeric else if	-0.18778494
-0.38975573	<s> do if	-0.42703992
-0.6311587	punctuator do if	-0.37536865
-2.001996	punctuator this if	-0.18778494
-0.3136738	an array if	-0.18778494
-0.3136738	punctuator `value if	-0.18778494
-1.7626908	<s> punctuator function	-2.4050288
-1.3062842	string punctuator function	-0.38772163
-1.5239654	punctuator punctuator function	-0.64687425
-1.4807223	identifier punctuator function	-0.45305425
-1.4102597	numeric punctuator function	-0.2589362
-1.6618148	if punctuator function	-0.18778494
-1.3010662	return punctuator function	-0.29114082
-1.4071882	null punctuator function	-0.27947205
-1.1876984	regularexpression punctuator function	-0.36749002
-1.615478	false punctuator function	-0.18778494
-1.5652962	true punctuator function	-0.18778494
-1.1449281	new punctuator function	-0.18778494
-1.0910666	catch punctuator function	-0.18778494
-0.74418247	instanceof punctuator function	-0.18778494
-1.3015317	this punctuator function	-0.2627829
-1.3018453	finally punctuator function	-0.18778494
-1.0620124	export punctuator function	-0.18778494
-1.1449281	import punctuator function	-0.18778494
-1.0210444	yield punctuator function	-0.18778494
-2.3805788	punctuator identifier function	-0.18778494
-1.879328	punctuator numeric function	-0.18778494
-1.9222878	<s> return function	-0.8399989
-1.1123086	punctuator return function	-0.5276879
-1.5581511	punctuator regularexpression function	-0.18778494
-0.21488464	<s> default function	-0.6291455
-0.55361843	export default function	-0.18778494
-1.0642173	<s> export function	-0.20317677
-0.49478012	punctuator export function	-0.44231543
-0.4755441	createitem = function	-0.18778494
-0.25991204	render : function	-0.18778494
-0.25991204	getinitialstate : function	-0.18778494
-0.25991204	handlechange : function	-0.18778494
-0.25991204	tick : function	-0.18778494
-0.25991204	componentdidmount : function	-0.18778494
-0.25991204	componentwillunmount : function	-0.18778494
-0.25991204	onchange : function	-0.18778494
-0.25991204	handlesubmit : function	-0.18778494
-1.9885415	<s> punctuator return	-1.4334542
-1.3321851	string punctuator return	-0.26743987
-1.4072114	punctuator punctuator return	-0.633006
-1.4530953	identifier punctuator return	-0.37541366
-1.3306613	numeric punctuator return	-0.33684474
-1.6715711	return punctuator return	-0.18778494
-1.4486437	null punctuator return	-0.25569466
-1.2090132	regularexpression punctuator return	-0.18778494
-1.3647838	false punctuator return	-0.33189127
-1.4181691	true punctuator return	-0.34427282
-1.1271418	else punctuator return	-0.24843036
-1.4421155	continue punctuator return	-0.18778494
-1.0864286	try punctuator return	-0.25388825
-1.0856074	break punctuator return	-0.33189127
-1.5135338	this punctuator return	-0.24750865
-1.1526287	default punctuator return	-0.260428
-1.8226954	punctuator identifier return	-0.42703992
-1.5139213	punctuator numeric return	-0.18778494
-1.1754613	return numeric return	-0.18778494
-1.1022234	return true return	-0.18778494
-2.1463056	<s> else return	-0.18778494
-0.93151766	punctuator else return	-0.3877216
-2.0153284	punctuator this return	-0.18778494
-2.5919538	<s> punctuator null	-1.8783438
-1.5814183	string punctuator null	-0.33189127
-1.6024301	punctuator punctuator null	-0.65968335
-1.4754059	identifier punctuator null	-0.4697896
-1.6608231	numeric punctuator null	-0.19927739
-1.7867193	if punctuator null	-0.18778494
-1.7392571	return punctuator null	-0.18778494
-1.3946713	null punctuator null	-0.33189127
-1.6619546	regularexpression punctuator null	-0.18778494
-1.7488967	false punctuator null	-0.18778494
-1.7004305	true punctuator null	-0.18778494
-1.7797396	this punctuator null	-0.18778494
-1.3628087	switch punctuator null	-0.18778494
-2.3895707	<s> return null	-0.42502552
-1.2452027	punctuator return null	-0.6218948
-1.2653108	else return null	-0.18778494
-2.948368	<s> punctuator regularexpression	-1.5253961
-1.6102781	string punctuator regularexpression	-0.33189127
-1.6635817	punctuator punctuator regularexpression	-0.5042068
-1.8861759	identifier punctuator regularexpression	-0.32972968
-1.6061	numeric punctuator regularexpression	-0.42703992
-1.5419257	if punctuator regularexpression	-0.27947205
-1.3751175	return punctuator regularexpression	-0.33189127
-1.7707725	null punctuator regularexpression	-0.18778494
-1.2458146	regularexpression punctuator regularexpression	-0.33189127
-1.058962	typeof punctuator regularexpression	-0.18778494
-1.6318806	while punctuator regularexpression	-0.18778494
-2.9220946	<s> return regularexpression	-0.18778494
-1.7912772	punctuator return regularexpression	-0.33189127
-1.2330492	punctuator typeof regularexpression	-0.42703992
-2.7077558	<s> punctuator false	-1.7634821
-1.5962397	string punctuator false	-0.33189127
-1.6086754	punctuator punctuator false	-0.5389689
-1.6723722	identifier punctuator false	-0.4061448
-1.5912927	numeric punctuator false	-0.42703992
-1.8092667	if punctuator false	-0.18778494
-1.7617936	return punctuator false	-0.18778494
-1.7457706	null punctuator false	-0.18778494
-1.4094533	false punctuator false	-0.33189127
-1.3680615	true punctuator false	-0.33189127
-1.8059384	this punctuator false	-0.18778494
-1.5258964	default punctuator false	-0.18778494
-1.9182985	<s> return false	-0.8399989
-1.1490889	punctuator return false	-0.5822361
-1.2653108	else return false	-0.18778494
-3.1718562	<s> string in	-0.5711536
-0.96162105	punctuator string in	-0.4061448
-0.6091994	return string in	-0.42703992
-2.6669464	identifier punctuator in	-0.18778494
-2.2962842	numeric punctuator in	-0.18778494
-3.1541529	<s> identifier in	-0.80133736
-1.1772993	punctuator identifier in	-0.4638406
-1.0646045	var identifier in	-0.33189127
-1.3739178	return identifier in	-0.18778494
-1.4289149	punctuator numeric in	-0.42703992
-0.31728548	not specified in	-0.18778494
-2.4737635	<s> punctuator true	-1.9955685
-1.5520692	string punctuator true	-0.33189127
-1.6359289	punctuator punctuator true	-0.5711536
-1.6402725	identifier punctuator true	-0.4010744
-1.544867	numeric punctuator true	-0.33189127
-1.7431903	if punctuator true	-0.18778494
-1.6957476	return punctuator true	-0.18778494
-1.6708467	null punctuator true	-0.18778494
-1.7020992	false punctuator true	-0.18778494
-1.6529696	true punctuator true	-0.18778494
-1.1749693	new punctuator true	-0.18778494
-1.1121795	while punctuator true	-0.33189127
-1.4382641	this punctuator true	-0.42703992
-1.3419545	switch punctuator true	-0.18778494
-1.0927579	export punctuator true	-0.18778494
-2.0062244	<s> return true	-0.7674482
-1.1583611	punctuator return true	-0.5003074
-0.49281937	sanitize : true	-0.18778494
-3.0668716	<s> punctuator typeof	-1.2784586
-1.6881773	string punctuator typeof	-0.1943148
-1.7739193	punctuator punctuator typeof	-0.4016927
-1.6723722	identifier punctuator typeof	-0.4639117
-1.8659095	numeric punctuator typeof	-0.18778494
-1.2984016	if punctuator typeof	-0.3626477
-1.7617936	return punctuator typeof	-0.18778494
-1.7457706	null punctuator typeof	-0.18778494
-1.7732811	false punctuator typeof	-0.18778494
-1.7251905	true punctuator typeof	-0.18778494
-1.8059384	this punctuator typeof	-0.18778494
-1.3731837	switch punctuator typeof	-0.18778494
-2.9284184	<s> return typeof	-0.18778494
-1.8865379	punctuator return typeof	-0.20317677
-1.9861976	punctuator string for	-0.18778494
-2.8670611	<s> punctuator for	-1.6011168
-1.5224415	string punctuator for	-0.33189127
-1.4644914	punctuator punctuator for	-0.6554744
-1.6182506	identifier punctuator for	-0.48359206
-1.513856	numeric punctuator for	-0.33189127
-1.653174	return punctuator for	-0.18778494
-1.3462533	null punctuator for	-0.42703992
-1.5862913	regularexpression punctuator for	-0.18778494
-1.3551006	false punctuator for	-0.42703992
-1.3120958	true punctuator for	-0.42703992
-1.5617146	else punctuator for	-0.18778494
-1.4301807	continue punctuator for	-0.18778494
-1.0814201	try punctuator for	-0.42703992
-1.4808745	break punctuator for	-0.18778494
-1.2660884	do punctuator for	-0.18778494
-1.4999744	this punctuator for	-0.20317677
-0.90204537	extends punctuator for	-0.18778494
-2.3987536	punctuator identifier for	-0.18778494
-1.4258101	punctuator numeric for	-0.42703992
-1.5955372	punctuator false for	-0.18778494
-1.3448191	punctuator else for	-0.42502552
-2.579852	<s> punctuator else	-1.2788054
-1.669934	string punctuator else	-0.23121339
-1.4845115	punctuator punctuator else	-0.58143485
-1.6617008	identifier punctuator else	-0.30902034
-1.6608231	numeric punctuator else	-0.2524618
-1.3572925	return punctuator else	-0.29114082
-1.3946713	null punctuator else	-0.35379624
-1.6619546	regularexpression punctuator else	-0.18778494
-1.3987341	false punctuator else	-0.30813932
-1.4622378	true punctuator else	-0.19695443
-0.9729078	continue punctuator else	-0.2684081
-1.2331527	break punctuator else	-0.19349316
-1.4630944	this punctuator else	-0.18778494
-1.9456781	punctuator numeric else	-0.18778494
-3.8027112	<s> punctuator delete	-0.68029803
-1.8248718	string punctuator delete	-0.18778494
-1.5529584	punctuator punctuator delete	-0.47938317
-1.969136	identifier punctuator delete	-0.19541268
-1.6395787	numeric punctuator delete	-0.42703992
-1.7617944	if punctuator delete	-0.18778494
-1.7143437	return punctuator delete	-0.18778494
-1.6917896	null punctuator delete	-0.18778494
-1.7220573	false punctuator delete	-0.18778494
-1.6732018	true punctuator delete	-0.18778494
-1.606819	else punctuator delete	-0.18778494
-1.5641989	try punctuator delete	-0.18778494
-1.4490072	this punctuator delete	-0.18778494
-1.3524312	finally punctuator delete	-0.18778494
-2.4377806	punctuator return delete	-0.18778494
-1.6237832	punctuator else delete	-0.42703992
-1.5968169	punctuator void delete	-0.18778494
-4.150976	<s> punctuator continue	-0.42502552
-1.6597046	string punctuator continue	-0.42703992
-1.8115429	punctuator punctuator continue	-0.51306987
-2.1238658	identifier punctuator continue	-0.19927739
-2.0023758	numeric punctuator continue	-0.18778494
-1.8644551	null punctuator continue	-0.18778494
-1.8846383	false punctuator continue	-0.18778494
-1.8385634	true punctuator continue	-0.18778494
-2.4177222	punctuator identifier continue	-0.18778494
-2.0570748	punctuator else continue	-0.18778494
-3.1037054	<s> punctuator throw	-0.8923869
-1.8534548	string punctuator throw	-0.18778494
-1.5199443	punctuator punctuator throw	-0.55042785
-1.6608186	identifier punctuator throw	-0.32292405
-1.8346535	numeric punctuator throw	-0.18778494
-1.3565296	return punctuator throw	-0.33189127
-1.4944777	null punctuator throw	-0.42703992
-1.3978478	false punctuator throw	-0.33189127
-1.6984186	true punctuator throw	-0.18778494
-1.1436173	else punctuator throw	-0.2684081
-1.5809197	try punctuator throw	-0.18778494
-1.7776147	this punctuator throw	-0.18778494
-1.0492612	default punctuator throw	-0.33189127
-2.452429	punctuator return throw	-0.18778494
-1.3529408	punctuator else throw	-0.32972968
-2.6391613	<s> punctuator new	-1.8298593
-1.5375543	string punctuator new	-0.42703992
-1.6287299	punctuator punctuator new	-0.4697896
-1.5629058	identifier punctuator new	-0.4256001
-1.529662	numeric punctuator new	-0.42703992
-1.3769625	if punctuator new	-0.42703992
-1.3293427	return punctuator new	-0.42703992
-1.6473106	null punctuator new	-0.18778494
-1.6054077	regularexpression punctuator new	-0.18778494
-1.6796173	false punctuator new	-0.18778494
-1.6301938	true punctuator new	-0.18778494
-0.6049568	throw punctuator new	-0.42703992
-1.5349369	try punctuator new	-0.18778494
-1.5527517	while punctuator new	-0.18778494
-1.7058625	this punctuator new	-0.18778494
-1.4571131	default punctuator new	-0.18778494
-1.9544647	<s> return new	-0.80523676
-1.1928501	punctuator return new	-0.5019742
-1.2595313	else return new	-0.18778494
-1.1862142	string in new	-0.18778494
-0.26473084	<s> throw new	-0.981328
-0.51181245	punctuator throw new	-0.5862951
-0.32569596	return throw new	-0.18778494
-0.57750213	else throw new	-0.18778494
-3.7138705	<s> punctuator try	-0.7674482
-1.5670861	string punctuator try	-0.42703992
-1.5962734	punctuator punctuator try	-0.5389689
-1.8374671	identifier punctuator try	-0.29618737
-1.5606238	numeric punctuator try	-0.42703992
-1.7178327	return punctuator try	-0.18778494
-1.3830141	null punctuator try	-0.42703992
-1.6432952	regularexpression punctuator try	-0.18778494
-1.4921569	false punctuator try	-0.20317677
-1.3462279	true punctuator try	-0.42703992
-1.138911	else punctuator try	-0.42703992
-1.5667424	try punctuator try	-0.18778494
-1.7550318	this punctuator try	-0.18778494
-1.3540934	finally punctuator try	-0.18778494
-2.0711267	punctuator else try	-0.18778494
-3.7717311	<s> punctuator catch	-0.7674482
-1.6626654	punctuator punctuator catch	-0.5711536
-2.0356472	identifier punctuator catch	-0.3281155
-2.218247	numeric punctuator catch	-0.18778494
-1.992074	punctuator string break	-0.18778494
-3.3393052	<s> punctuator break	-0.8399989
-1.702355	string punctuator break	-0.2627829
-1.569401	punctuator punctuator break	-0.5276879
-2.0364947	identifier punctuator break	-0.19541268
-1.6947203	numeric punctuator break	-0.2627829
-1.7660909	null punctuator break	-0.18778494
-1.7924767	false punctuator break	-0.18778494
-1.3765253	true punctuator break	-0.33189127
-1.6529418	else punctuator break	-0.18778494
-1.8266412	this punctuator break	-0.18778494
-1.5394952	default punctuator break	-0.18778494
-1.8243406	punctuator identifier break	-0.33189127
-1.9159932	punctuator numeric break	-0.18778494
-1.7385329	punctuator else break	-0.2627829
-4.527305	<s> punctuator instanceof	-0.20317677
-2.1047938	string punctuator instanceof	-0.18778494
-2.2627745	punctuator punctuator instanceof	-0.42703992
-2.1897228	identifier punctuator instanceof	-0.19695443
-1.697225	numeric punctuator instanceof	-0.33189127
-2.0051377	this punctuator instanceof	-0.18778494
-4.063492	<s> identifier instanceof	-0.42703992
-1.1780429	punctuator identifier instanceof	-0.43502748
-1.3763674	return identifier instanceof	-0.18778494
-1.2634374	new identifier instanceof	-0.18778494
-2.8585124	<s> this instanceof	-0.18778494
-1.4247428	punctuator this instanceof	-0.20317677
-0.93746895	return this instanceof	-0.18778494
-3.9538755	<s> punctuator do	-0.44231543
-1.9492928	string punctuator do	-0.18778494
-1.9627128	punctuator punctuator do	-0.25042987
-1.9070815	identifier punctuator do	-0.19927739
-1.6255113	numeric punctuator do	-0.2684081
-1.8125517	return punctuator do	-0.18778494
-1.8044832	null punctuator do	-0.18778494
-1.6755867	else punctuator do	-0.18778494
-1.61188	break punctuator do	-0.18778494
-1.8658079	this punctuator do	-0.18778494
-1.6618787	punctuator string while	-0.18778494
-1.1041907	return string while	-0.18778494
-3.2808208	<s> punctuator while	-1.1884534
-1.5375543	string punctuator while	-0.33189127
-1.5832206	punctuator punctuator while	-0.60111684
-1.6295319	identifier punctuator while	-0.44231543
-1.6054415	numeric punctuator while	-0.27947205
-1.3293427	return punctuator while	-0.42703992
-1.4508913	null punctuator while	-0.20317677
-1.6054077	regularexpression punctuator while	-0.18778494
-1.3664277	false punctuator while	-0.33189127
-1.6301938	true punctuator while	-0.18778494
-1.5778002	else punctuator while	-0.18778494
-0.96008766	continue punctuator while	-0.42703992
-1.5349369	try punctuator while	-0.18778494
-1.4990797	break punctuator while	-0.18778494
-1.7058625	this punctuator while	-0.18778494
-1.4571131	default punctuator while	-0.18778494
-1.9256644	punctuator numeric while	-0.18778494
-1.7452245	punctuator else while	-0.19927739
-2.1133518	<s> punctuator this	-2.2256064
-1.3674735	string punctuator this	-0.27012357
-1.4024143	punctuator punctuator this	-0.7263906
-1.3603356	identifier punctuator this	-0.4478628
-1.2622153	numeric punctuator this	-0.37536865
-0.9889215	if punctuator this	-0.43887419
-1.260931	return punctuator this	-0.33189127
-1.2734228	null punctuator this	-0.33189127
-1.4801973	regularexpression punctuator this	-0.18778494
-1.2886143	false punctuator this	-0.33189127
-1.32265	true punctuator this	-0.19927739
-1.4313009	for punctuator this	-0.18778494
-1.0867966	else punctuator this	-0.33189127
-0.92681694	continue punctuator this	-0.33189127
-1.1123309	new punctuator this	-0.18778494
-1.045579	try punctuator this	-0.42703992
-1.2131251	do punctuator this	-0.18778494
-1.0645615	while punctuator this	-0.42703992
-1.2592645	this punctuator this	-0.29618737
-0.7799327	switch punctuator this	-0.33189127
-1.3415935	default punctuator this	-0.18778494
-1.257874	finally punctuator this	-0.18778494
-0.72784173	void punctuator this	-0.18778494
-0.46467593	with punctuator this	-0.18778494
-2.3631344	punctuator identifier this	-0.18778494
-1.5341828	punctuator numeric this	-0.20317677
-1.4532129	<s> return this	-1.282358
-1.0643005	punctuator return this	-0.5862951
-1.2371532	else return this	-0.18778494
-1.1147135	return false this	-0.18778494
-1.2381341	<s> in this	-0.18778494
-0.7177638	string in this	-0.18778494
-0.71930563	punctuator in this	-0.18778494
-0.5950507	identifier in this	-0.3281155
-1.0964866	punctuator typeof this	-0.3281155
-1.4743578	punctuator else this	-0.3281155
-0.9325826	<s> delete this	-0.18778494
-0.5950002	punctuator delete this	-0.5003074
-0.2761523	return delete this	-0.18778494
-0.2761523	void delete this	-0.18778494
-1.4288176	punctuator new this	-0.18778494
-0.8390908	return new this	-0.18778494
-0.71651727	identifier instanceof this	-0.42703992
-1.1593318	punctuator void this	-0.18778494
-0.8750957	return void this	-0.18778494
-2.0040708	punctuator string switch	-0.18778494
-3.830537	<s> punctuator switch	-0.68029803
-1.6261368	string punctuator switch	-0.33189127
-1.6208993	punctuator punctuator switch	-0.5389689
-1.904221	identifier punctuator switch	-0.35865334
-1.9273589	numeric punctuator switch	-0.18778494
-1.8085471	return punctuator switch	-0.18778494
-1.4307636	false punctuator switch	-0.42703992
-1.7769836	true punctuator switch	-0.18778494
-1.6728749	else punctuator switch	-0.18778494
-1.6308732	try punctuator switch	-0.18778494
-1.7535963	var identifier switch	-0.18778494
-3.025541	<s> punctuator case	-0.97321016
-1.5249814	string punctuator case	-0.24300547
-1.6713876	punctuator punctuator case	-0.4859699
-2.068943	identifier punctuator case	-0.19927739
-1.524431	numeric punctuator case	-0.32972968
-1.8107109	return punctuator case	-0.18778494
-1.8023348	null punctuator case	-0.18778494
-1.4317197	false punctuator case	-0.42703992
-1.7793955	true punctuator case	-0.18778494
-1.2598536	break punctuator case	-0.29839566
-0.5469729	string break case	-0.18778494
-1.2033803	punctuator break case	-0.18778494
-0.5469729	identifier break case	-0.18778494
-0.3568466	numeric break case	-0.18778494
-4.2584276	<s> punctuator default	-0.3281155
-1.7444435	string punctuator default	-0.19927739
-1.9736733	punctuator punctuator default	-0.42502552
-2.0919542	identifier punctuator default	-0.19927739
-1.9601259	numeric punctuator default	-0.18778494
-1.832815	return punctuator default	-0.18778494
-1.8508581	false punctuator default	-0.18778494
-1.8041152	true punctuator default	-0.18778494
-1.1320552	break punctuator default	-0.42703992
-1.1070993	return true default	-0.18778494
-1.6203989	<s> break default	-0.18778494
-0.65556747	identifier break default	-0.18778494
-1.1399614	punctuator export default	-0.33189127
-4.48942	<s> punctuator finally	-0.42703992
-2.0576572	punctuator punctuator finally	-0.42502552
-2.1540475	identifier punctuator finally	-0.42703992
-2.218247	numeric punctuator finally	-0.18778494
-4.829068	<s> punctuator class	-0.18778494
-2.4068727	punctuator punctuator class	-0.19927739
-2.4890084	identifier punctuator class	-0.18778494
-2.155674	numeric punctuator class	-0.18778494
-2.0012324	false punctuator class	-0.18778494
-2.850409	identifier punctuator extends	-0.18778494
-1.0981247	class identifier extends	-0.18778494
-1.0612327	punctuator class extends	-0.18778494
-2.577199	punctuator punctuator super	-0.20317677
-2.867167	identifier punctuator `the	-0.18778494
-0.31728548	punctuator `the \`	-0.18778494
-1.3352822	identifier } \`	-0.18778494
-0.64773583	supplied to \`	-0.18778494
-0.32379866	`supplied to \`	-0.18778494
-0.72924095	instance of \`	-0.18778494
-0.61500037	of type \`	-0.18778494
-0.39951932	of value \`	-0.18778494
-0.22908989	`the \` $	-0.18778494
-0.49100775	} \` $	-0.18778494
-0.082865804	to \` $	-0.42703992
-0.22908989	of \` $	-0.18778494
-0.22908989	type \` $	-0.18778494
-0.22908989	value \` $	-0.18778494
-0.48907536	using < $	-0.18778494
-1.0334711	punctuator ` $	-0.18778494
-0.32144848	method of $	-0.18778494
-0.32144848	one of $	-0.18778494
-0.31439373	child from $	-0.18778494
-0.31439373	punctuator `required $	-0.18778494
-0.31439373	punctuator `\` $	-0.18778494
-0.27764598	punctuator `invalid $	-0.42703992
-0.4270456	} [ $	-0.18778494
-0.31439373	} . $	-0.18778494
-2.860542	<s> return {	-0.18778494
-0.017839266	\` $ {	-0.5042068
-0.03731634	< $ {	-0.18778494
-0.03731634	` $ {	-0.18778494
-0.0154233975	of $ {	-0.42703992
-0.03731634	from $ {	-0.18778494
-0.03731634	`required $ {	-0.18778494
-0.03731634	`\` $ {	-0.18778494
-0.03731634	`invalid $ {	-0.18778494
-0.03731634	[ $ {	-0.18778494
-0.03731634	. $ {	-0.18778494
-0.4843697	dangerouslysetinnerhtml= { {	-0.18778494
-0.77901244	} > {	-0.18778494
-0.42691228	ul > {	-0.18778494
-0.42691228	button > {	-0.18778494
-0.4722525	this.state.value , {	-0.18778494
-0.41394576	react.createclass ( {	-0.18778494
-0.41394576	this.setstate ( {	-0.18778494
-0.48403332	elapsed : {	-0.18778494
-0.60510635	( ) {	-0.18778494
-0.39346844	index ) {	-0.18778494
-0.39346844	e ) {	-0.18778494
-0.3100919	> hello {	-0.18778494
-0.09926349	<s> onchange= {	-0.18778494
-0.09926349	input onchange= {	-0.18778494
-0.3100919	<s> defaultvalue= {	-0.18778494
-0.3100919	<s> dangerouslysetinnerhtml= {	-0.18778494
-0.3100919	li key= {	-0.18778494
-0.3100919	todolist items= {	-0.18778494
-0.3100919	form onsubmit= {	-0.18778494
-0.3100919	} value= {	-0.18778494
-0.4969973	{ identifier }	-0.18778494
-0.46665147	: true }	-0.18778494
-1.6523321	<s> } }	-0.18778494
-0.41227108	1 ) }	-0.18778494
-0.41227108	createitem ) }	-0.18778494
-0.30653933	{ this.props.name }	-0.18778494
-0.46564633	: '' }	-0.18778494
-0.3865661	<s> ' }	-0.18778494
-0.30653933	) .value }	-0.18778494
-0.30653933	{ this.handlechange }	-0.18778494
-0.3865661	{ this.state.value }	-0.18778494
-0.30653933	: 0 }	-0.18778494
-0.3865661	{ this.state.secondselapsed }	-0.18778494
-0.59392524	+ 1 }	-0.18778494
-0.19334425	{ itemtext }	-0.18778494
-0.19334425	+ itemtext }	-0.18778494
-0.30653933	: e.target.value }	-0.18778494
-0.3865661	{ this.state.text }	-0.18778494
-0.3865661	: nexttext }	-0.18778494
-0.30653933	{ this.state.items }	-0.18778494
-0.30653933	{ this.handlesubmit }	-0.18778494
-0.30653933	{ this.onchange }	-0.18778494
-1.2322387	} \` prop	-0.18778494
-1.2277021	} \` supplied	-0.18778494
-0.31946698	\` prop supplied	-0.18778494
-0.31946698	`invalid argument supplied	-0.18778494
-0.14293543	\` supplied to	-0.18778494
-0.14293543	prop supplied to	-0.18778494
-0.14293543	argument supplied to	-0.18778494
-0.32008475	punctuator `supplied to	-0.18778494
-2.90046	<s> return <	-0.18778494
-0.13404563	) } <	-0.18778494
-0.42792827	this.props.name } <	-0.18778494
-0.42792827	this.state.secondselapsed } <	-0.18778494
-0.66269135	itemtext } <	-0.18778494
-1.0225829	supplied to <	-0.18778494
-0.3151149	call using <	-0.18778494
-0.4841527	react.render ( <	-0.18778494
-0.3968976	> input <	-0.18778494
-0.3151149	> output <	-0.18778494
-0.3151149	> todo <	-0.18778494
-0.4966421	to < select	-0.18778494
-1.0859084	identifier } >	-0.18778494
-0.701217	itemtext } >	-0.18778494
-0.4499489	this.handlesubmit } >	-0.18778494
-0.3115211	< select >	-0.18778494
-0.39705253	< div >	-0.18778494
-0.10620234	< /div >	-0.33189127
-0.47198042	markdowneditor '' >	-0.18778494
-0.06432118	<s> / >	-0.18778494
-0.062768236	} / >	-0.20317677
-0.06432118	'' / >	-0.18778494
-0.06432118	markdowneditor / >	-0.18778494
-0.06432118	timer / >	-0.18778494
-0.06432118	todoapp / >	-0.18778494
-0.3115211	< h3 >	-0.18778494
-0.30141738	< /h3 >	-0.20317677
-0.3115211	< /li >	-0.18778494
-0.3115211	< ul >	-0.18778494
-0.3115211	< /ul >	-0.18778494
-0.3115211	< button >	-0.18778494
-0.3115211	< /button >	-0.18778494
-0.3115211	< /form >	-0.18778494
-0.49551952	select > must	-0.18778494
-0.32034653	> must be	-0.18778494
-0.6205741	must be an	-0.18778494
-0.82171607	, expected an	-0.29114082
-0.45145863	be an array	-0.18778494
-2.2171588	identifier punctuator `	-0.18778494
-0.4885453	array if `	-0.18778494
-0.48476887	specified in `	-0.18778494
-1.1987363	} \` `	-0.18778494
-1.3133038	identifier } `	-0.18778494
-1.0167336	supplied to `	-0.18778494
-0.3136738	a scalar `	-0.18778494
-0.6078611	of type `	-0.18778494
-1.1302948	, expected `	-0.18778494
-0.42611268	} ] `	-0.18778494
-1.5022764	` punctuator `\`multiple\`	-0.18778494
-0.32008475	punctuator `\`multiple\` is	-0.18778494
-0.32008475	if \`multiple\` is	-0.18778494
-0.40322125	`\`multiple\` is true.`	-0.18778494
-0.61934096	must be a	-0.18778494
-0.31946698	was passed a	-0.18778494
-1.1694138	, expected a	-0.18778494
-0.45145863	be a scalar	-0.18778494
-1.5022764	` punctuator `value	-0.18778494
-0.4917931	`value if \`multiple\`	-0.18778494
-0.40322125	\`multiple\` is false.`	-0.18778494
-1.0460664	punctuator ` check	-0.18778494
-0.32034653	` check the	-0.18778494
-0.6205741	check the render	-0.18778494
-0.40322125	the render method	-0.18778494
-1.223974	} \` of	-0.18778494
-0.31873858	render method of	-0.18778494
-0.10137809	an instance of	-0.18778494
-0.10137809	expected instance of	-0.18778494
-0.31873858	expected one of	-0.18778494
-1.3529828	identifier } .`	-0.18778494
-0.9514583	} > .`	-0.18778494
-0.6205741	check the react.render	-0.18778494
-0.40322125	the react.render call	-0.18778494
-0.32034653	react.render call using	-0.18778494
-1.0460664	punctuator ` it	-0.18778494
-1.2308846	} \` was	-0.18778494
-0.32008475	` it was	-0.18778494
-0.40322125	it was passed	-0.18778494
-0.45145863	passed a child	-0.18778494
-0.32034653	a child from	-0.18778494
-2.867167	identifier punctuator `required	-0.18778494
-0.40322125	\` was not	-0.18778494
-0.32034653	was not specified	-0.18778494
-0.7023587	` punctuator `\`	-0.3281155
-1.3546696	identifier } \`.`	-0.18778494
-5.0435576	<s> punctuator `invalid	-0.18778494
-2.7062669	identifier punctuator `invalid	-0.18778494
-0.7355888	\` of type	-0.18778494
-1.2022532	} \` ,	-0.18778494
-0.47215456	<s> } ,	-0.68029803
-0.4716301	/ > ,	-0.3281155
-0.4270456	[ ] ,	-0.18778494
-0.31439373	to oneof ,	-0.18778494
-0.31439373	to oneoftype ,	-0.18778494
-0.3960272	( this.state.value ,	-0.18778494
-0.31439373	( this.tick ,	-0.18778494
-0.43026358	( itemtext ,	-0.18778494
-0.3960272	: nextitems ,	-0.18778494
-0.36226928	\` , expected	-0.18778494
-0.36226928	oneof , expected	-0.18778494
-0.36226928	oneoftype , expected	-0.18778494
-0.8354615	expected an array.`	-0.18778494
-0.73504406	instance of array.`	-0.18778494
-1.3490238	identifier } [	-0.18778494
-0.48955518	this.state.items.concat ( [	-0.18778494
-0.7823452	items : [	-0.18778494
-1.3490238	identifier } ]	-0.18778494
-0.4336327	: [ ]	-0.18778494
-0.40215698	[ this.state.text ]	-0.18778494
-0.7039132	expected a single	-0.18778494
-0.32034653	a single reactelement.`	-0.18778494
-0.8354615	expected an instance	-0.18778494
-1.1737686	, expected instance	-0.18778494
-0.8088844	punctuator `invalid argument	-0.18778494
-1.0443342	supplied to oneof	-0.18778494
-0.84545934	return { value	-0.18778494
-0.99495506	( { value	-0.18778494
-0.73504406	\` of value	-0.18778494
-1.5022764	` punctuator `supplied	-0.18778494
-1.1756253	, expected one	-0.18778494
-0.83631974	expected an object.`	-0.18778494
-1.3546696	identifier } .	-0.18778494
-1.0443342	supplied to oneoftype	-0.18778494
-0.7039132	expected a reactnode.`	-0.18778494
-1.1756253	, expected \`object\`.`	-0.18778494
-4.066128	<s> punctuator const	-0.5042068
-2.066858	string punctuator const	-0.18778494
-1.9061122	punctuator punctuator const	-0.44231543
-2.3680153	identifier punctuator const	-0.18778494
-2.053813	numeric punctuator const	-0.18778494
-1.9248455	false punctuator const	-0.18778494
-1.7324142	else punctuator const	-0.18778494
-4.3028116	<s> punctuator export	-0.29114082
-1.6803367	string punctuator export	-0.29114082
-1.8232887	punctuator punctuator export	-0.38238436
-2.0654702	identifier punctuator export	-0.29114082
-2.0524309	numeric punctuator export	-0.18778494
-1.2773153	regularexpression punctuator export	-0.33189127
-1.9237789	false punctuator export	-0.18778494
-4.905555	<s> punctuator import	-0.18778494
-1.8727705	string punctuator import	-0.33189127
-2.1540475	identifier punctuator import	-0.33189127
-1.8825221	regularexpression punctuator import	-0.18778494
-4.1376977	<s> punctuator void	-0.42502552
-1.9820799	string punctuator void	-0.18778494
-1.8806587	punctuator punctuator void	-0.34094113
-1.5613244	identifier punctuator void	-0.35768616
-1.6417841	numeric punctuator void	-0.2684081
-1.4430488	if punctuator void	-0.42703992
-1.8336431	null punctuator void	-0.18778494
-1.6689994	while punctuator void	-0.18778494
-1.8956043	this punctuator void	-0.18778494
-2.9284184	<s> return void	-0.18778494
-1.4670882	punctuator return void	-0.25042987
-2.8621151	identifier punctuator yield	-0.18778494
-3.3489842	<s> var hellomessage	-0.18778494
-1.0700905	( < hellomessage	-0.18778494
-0.3968976	var hellomessage =	-0.18778494
-0.42798054	var markdowneditor =	-0.18778494
-0.3968976	var timer =	-0.18778494
-0.3968976	<s> this.interval =	-0.18778494
-0.3968976	var todolist =	-0.18778494
-0.3968976	var createitem =	-0.18778494
-0.3968976	var todoapp =	-0.18778494
-0.3968976	var nextitems =	-0.18778494
-0.3968976	var nexttext =	-0.18778494
-0.22132374	hellomessage = react.createclass	-0.18778494
-0.22132374	markdowneditor = react.createclass	-0.18778494
-0.22132374	timer = react.createclass	-0.18778494
-0.22132374	todolist = react.createclass	-0.18778494
-0.22132374	todoapp = react.createclass	-0.18778494
-0.43034005	= function (	-0.18778494
-0.113787055	: function (	-0.48359206
-2.8772025	<s> return (	-0.20317677
-0.24936673	<s> react.render (	-0.3281155
-0.15536088	= react.createclass (	-0.42502552
-0.2047626	<s> this.setstate (	-0.3281155
-0.3122375	: react.finddomnode (	-0.18778494
-0.3122375	: marked (	-0.18778494
-0.4438873	' + (	-0.18778494
-0.3122375	= setinterval (	-0.18778494
-0.3122375	<s> clearinterval (	-0.18778494
-0.3122375	{ this.props.items.map (	-0.18778494
-0.3122375	<s> e.preventdefault (	-0.18778494
-0.3122375	= this.state.items.concat (	-0.18778494
-0.18610351	<s> render :	-0.42502552
-0.12598313	{ value :	-0.18778494
-0.30073428	<s> getinitialstate :	-0.20317677
-0.31080592	<s> handlechange :	-0.18778494
-0.31080592	<s> __html :	-0.18778494
-0.31080592	{ sanitize :	-0.18778494
-0.106013365	{ secondselapsed :	-0.18778494
-0.31080592	<s> tick :	-0.18778494
-0.31080592	<s> componentdidmount :	-0.18778494
-0.31080592	<s> componentwillunmount :	-0.18778494
-0.31080592	seconds elapsed :	-0.18778494
-0.106013365	{ items :	-0.18778494
-0.0994393	{ text :	-0.18778494
-0.03939602	, text :	-0.18778494
-0.31080592	<s> onchange :	-0.18778494
-0.31080592	<s> handlesubmit :	-0.18778494
-0.7081587	<s> } )	-0.42502552
-0.38042498	true } )	-0.18778494
-0.38042498	.value } )	-0.18778494
-0.38042498	1 } )	-0.18778494
-0.38042498	e.target.value } )	-0.18778494
-0.38042498	nexttext } )	-0.18778494
-0.4251818	this.state.text ] )	-0.18778494
-0.75702715	function ( )	-0.18778494
-0.41700155	e.preventdefault ( )	-0.18778494
-0.31295505	, mountnode )	-0.18778494
-0.31295505	( this.refs.textarea )	-0.18778494
-0.6064472	+ 1 )	-0.18778494
-0.3942916	( this.interval )	-0.18778494
-0.31295505	, 1000 )	-0.18778494
-0.3942916	( createitem )	-0.18778494
-0.3942916	, index )	-0.18778494
-0.31295505	( e )	-0.18778494
-0.7829832	<s> < div	-0.29114082
-0.8461174	return < div	-0.18778494
-0.9521124	div > hello	-0.18778494
-0.4966622	hello { this.props.name	-0.18778494
-0.8956487	<s> < /div	-0.42703992
-0.5043936	} < /div	-0.42703992
-1.3443329	<s> } ;	-0.18778494
-0.43072772	'' } ;	-0.18778494
-0.43072772	' } ;	-0.18778494
-0.43072772	0 } ;	-0.18778494
-0.67230386	/div > ;	-0.18778494
-0.4335009	/li > ;	-0.18778494
-0.4335009	/ul > ;	-0.18778494
-0.21776281	<s> ) ;	-0.20317677
-0.16517042	} ) ;	-0.42502552
-0.22430244	] ) ;	-0.18778494
-0.355825	( ) ;	-0.18778494
-0.22430244	mountnode ) ;	-0.18778494
-0.22430244	this.interval ) ;	-0.18778494
-0.22430244	1000 ) ;	-0.18778494
-0.48119253	= '' ;	-0.18778494
-0.40322125	< hellomessage name=	-0.18778494
-0.4761959	nexttext = ''	-0.18778494
-0.93409276	text : ''	-0.18778494
-0.3151149	hellomessage name= ''	-0.18778494
-0.3151149	'' john ''	-0.18778494
-0.42798054	'' markdowneditor ''	-0.18778494
-0.10049577	<s> classname= ''	-0.18778494
-0.10049577	div classname= ''	-0.18778494
-0.3968976	'' textarea ''	-0.18778494
-0.3151149	<s> ref= ''	-0.18778494
-0.3151149	'' content ''	-0.18778494
-0.48325062	name= '' john	-0.18778494
-0.45467147	this.state.value } /	-0.18778494
-0.45467147	this.state.text } /	-0.18778494
-0.45467147	this.state.items } /	-0.18778494
-0.4793344	john '' /	-0.18778494
-0.43079743	< markdowneditor /	-0.18778494
-0.39951932	< timer /	-0.18778494
-0.39951932	< todoapp /	-0.18778494
-0.483307	> , mountnode	-0.18778494
-2.867167	identifier punctuator with	-0.18778494
-3.3436818	<s> var markdowneditor	-0.18778494
-1.0671502	( < markdowneditor	-0.18778494
-0.7603804	classname= '' markdowneditor	-0.18778494
-0.78408504	value : 'type	-0.18778494
-0.32034653	: 'type some	-0.18778494
-0.32034653	'type some *markdown*	-0.18778494
-0.32034653	some *markdown* here	-0.18778494
-0.32034653	*markdown* here !	-0.18778494
-0.32008475	'add # '	-0.18778494
-0.78408504	value : react.finddomnode	-0.18778494
-0.49064863	react.finddomnode ( this.refs.textarea	-0.18778494
-0.4897554	this.refs.textarea ) .value	-0.18778494
-0.9288622	< div classname=	-0.18778494
-1.1469216	<s> < h3	-0.20317677
-1.5711067	<s> < input	-0.18778494
-0.9514583	h3 > input	-0.18778494
-0.44257593	input < /h3	-0.18778494
-0.44257593	output < /h3	-0.18778494
-0.44257593	todo < /h3	-0.18778494
-1.5711067	<s> < textarea	-0.18778494
-0.4829154	ref= '' textarea	-0.18778494
-0.40290445	< input onchange=	-0.18778494
-0.7883983	onchange= { this.handlechange	-0.18778494
-0.49634773	defaultvalue= { this.state.value	-0.18778494
-0.49032313	marked ( this.state.value	-0.18778494
-0.9521124	h3 > output	-0.18778494
-0.76251996	classname= '' content	-0.18778494
-0.4944536	__html : marked	-0.18778494
-0.4966622	, { sanitize	-0.18778494
-2.4228156	punctuator punctuator debugger	-0.42703992
-3.3489842	<s> var timer	-0.18778494
-1.0700905	( < timer	-0.18778494
-0.8461623	return { secondselapsed	-0.18778494
-0.99594724	( { secondselapsed	-0.18778494
-0.78408504	secondselapsed : 0	-0.18778494
-0.49634773	: { this.state.secondselapsed	-0.18778494
-0.78356683	secondselapsed : this.state.secondselapsed	-0.18778494
-0.401276	# ' +	-0.18778494
-0.401276	: this.state.secondselapsed +	-0.18778494
-0.401276	{ index +	-0.18778494
-0.31873858	( this.state.items.length +	-0.18778494
-0.2583822	this.state.secondselapsed + 1	-0.18778494
-0.2583822	this.state.items.length + 1	-0.18778494
-0.49032313	clearinterval ( this.interval	-0.18778494
-0.48092145	this.interval = setinterval	-0.18778494
-0.49064863	setinterval ( this.tick	-0.18778494
-0.483307	this.tick , 1000	-0.18778494
-0.9521124	div > seconds	-0.18778494
-0.32034653	> seconds elapsed	-0.18778494
-3.3489842	<s> var todolist	-0.18778494
-1.5711067	<s> < todolist	-0.18778494
-3.3489842	<s> var createitem	-0.18778494
-0.49032313	this.props.items.map ( createitem	-0.18778494
-0.95235884	> { itemtext	-0.18778494
-0.93525904	function ( itemtext	-0.18778494
-0.45073876	index + itemtext	-0.18778494
-0.49634773	key= { index	-0.18778494
-0.48302454	itemtext , index	-0.18778494
-0.9553325	return < li	-0.18778494
-0.32034653	< li key=	-0.18778494
-1.1696011	} < /li	-0.18778494
-0.9553325	return < ul	-0.18778494
-0.9553904	> { this.props.items.map	-0.18778494
-1.1696011	} < /ul	-0.18778494
-3.3489842	<s> var todoapp	-0.18778494
-1.0700905	( < todoapp	-0.18778494
-0.8461623	return { items	-0.18778494
-0.99594724	( { items	-0.18778494
-1.1581479	( { text	-0.18778494
-0.389279	] , text	-0.18778494
-0.389279	nextitems , text	-0.18778494
-0.93831736	function ( e	-0.18778494
-0.9490692	text : e.target.value	-0.18778494
-3.3489842	<s> var nextitems	-0.18778494
-0.78356683	items : nextitems	-0.18778494
-0.48092145	nextitems = this.state.items.concat	-0.18778494
-0.49634773	value= { this.state.text	-0.18778494
-0.43443638	( [ this.state.text	-0.18778494
-3.3489842	<s> var nexttext	-0.18778494
-0.9483118	text : nexttext	-0.18778494
-0.9521124	h3 > todo	-0.18778494
-0.40322125	< todolist items=	-0.18778494
-0.4966622	items= { this.state.items	-0.18778494
-1.5744746	<s> < form	-0.18778494
-0.32034653	< form onsubmit=	-0.18778494
-0.4966622	onsubmit= { this.handlesubmit	-0.18778494
-0.7883983	onchange= { this.onchange	-0.18778494
-0.4989499	this.onchange } value=	-0.18778494
-1.5744746	<s> < button	-0.18778494
-0.9553904	> { 'add	-0.18778494
-0.32034653	{ 'add #	-0.18778494
-0.49064863	+ ( this.state.items.length	-0.18778494
-1.1696011	} < /button	-0.18778494
-1.5744746	<s> < /form	-0.18778494

\4-grams:
-0.6500483	string punctuator string </s>
-0.57954156	punctuator punctuator string </s>
-0.5865204	identifier punctuator string </s>
-0.41272274	numeric punctuator string </s>
-0.62900096	if punctuator string </s>
-0.62900096	return punctuator string </s>
-0.5992271	null punctuator string </s>
-0.5992271	regularexpression punctuator string </s>
-0.62384653	false punctuator string </s>
-0.62384653	true punctuator string </s>
-0.5992271	this punctuator string </s>
-0.64908254	punctuator identifier string </s>
-0.5622445	punctuator return string </s>
-0.7048272	punctuator throw string </s>
-0.5132898	punctuator case string </s>
-1.2625519	punctuator string punctuator </s>
-0.93144214	identifier string punctuator </s>
-1.3517523	return string punctuator </s>
-1.3836563	case string punctuator </s>
-2.7927115	<s> punctuator punctuator </s>
-1.2869643	string punctuator punctuator </s>
-1.2476261	punctuator punctuator punctuator </s>
-1.2182031	identifier punctuator punctuator </s>
-1.3874054	numeric punctuator punctuator </s>
-1.1518466	if punctuator punctuator </s>
-0.6250924	function punctuator punctuator </s>
-1.3523617	return punctuator punctuator </s>
-1.2607974	null punctuator punctuator </s>
-1.3556648	regularexpression punctuator punctuator </s>
-1.2545695	false punctuator punctuator </s>
-1.2654412	true punctuator punctuator </s>
-1.1003939	for punctuator punctuator </s>
-1.2486838	continue punctuator punctuator </s>
-0.6791692	new punctuator punctuator </s>
-1.3957705	break punctuator punctuator </s>
-0.7398305	while punctuator punctuator </s>
-1.216184	this punctuator punctuator </s>
-3.5387168	<s> identifier punctuator </s>
-1.1439403	punctuator identifier punctuator </s>
-1.2358587	var identifier punctuator </s>
-1.0564008	identifier identifier punctuator </s>
-0.83600473	numeric identifier punctuator </s>
-0.895035	function identifier punctuator </s>
-1.1473272	return identifier punctuator </s>
-1.1014466	in identifier punctuator </s>
-1.1724796	typeof identifier punctuator </s>
-1.1410911	else identifier punctuator </s>
-1.0218832	delete identifier punctuator </s>
-0.8916799	continue identifier punctuator </s>
-1.0947394	throw identifier punctuator </s>
-1.1475092	new identifier punctuator </s>
-1.127507	break identifier punctuator </s>
-0.98850375	instanceof identifier punctuator </s>
-0.9263526	case identifier punctuator </s>
-0.3881036	default identifier punctuator </s>
-0.79936326	class identifier punctuator </s>
-0.79936326	extends identifier punctuator </s>
-0.83600473	const identifier punctuator </s>
-1.2032208	punctuator numeric punctuator </s>
-1.3056226	return numeric punctuator </s>
-1.3214769	case numeric punctuator </s>
-1.3860642	void numeric punctuator </s>
-0.89798653	punctuator if punctuator </s>
-0.97141755	identifier if punctuator </s>
-1.0055085	numeric if punctuator </s>
-1.1566507	else if punctuator </s>
-0.9690427	do if punctuator </s>
-0.75668883	punctuator function punctuator </s>
-0.79520035	return function punctuator </s>
-1.0669262	punctuator return punctuator </s>
-0.98837286	else return punctuator </s>
-1.1906538	punctuator null punctuator </s>
-1.2642106	return null punctuator </s>
-1.0644377	punctuator regularexpression punctuator </s>
-0.8175204	return regularexpression punctuator </s>
-1.18711	punctuator false punctuator </s>
-1.2763164	return false punctuator </s>
-1.0144742	punctuator true punctuator </s>
-1.2122315	return true punctuator </s>
-1.0081413	punctuator typeof punctuator </s>
-1.0926096	punctuator for punctuator </s>
-0.6482514	false for punctuator </s>
-0.7791916	else for punctuator </s>
-1.4303967	punctuator else punctuator </s>
-0.67818856	punctuator delete punctuator </s>
-1.2328376	punctuator continue punctuator </s>
-0.86299074	punctuator throw punctuator </s>
-1.188515	punctuator try punctuator </s>
-1.0495374	punctuator catch punctuator </s>
-1.2641467	punctuator break punctuator </s>
-1.3892672	punctuator do punctuator </s>
-0.8225284	string while punctuator </s>
-1.2221882	punctuator while punctuator </s>
-0.7860973	else while punctuator </s>
-0.97348964	punctuator this punctuator </s>
-1.2961752	return this punctuator </s>
-1.0324425	delete this punctuator </s>
-0.99751633	punctuator switch punctuator </s>
-1.4517126	punctuator default punctuator </s>
-0.97858953	punctuator import punctuator </s>
-0.6717033	string punctuator var </s>
-0.41307703	punctuator punctuator var </s>
-0.6814904	identifier punctuator var </s>
-0.49973953	numeric punctuator var </s>
-0.5410157	return punctuator var </s>
-0.3536115	null punctuator var </s>
-0.5410157	regularexpression punctuator var </s>
-0.49561203	false punctuator var </s>
-0.49561203	true punctuator var </s>
-0.796642	for punctuator var </s>
-0.5410157	else punctuator var </s>
-0.38361624	continue punctuator var </s>
-0.5410157	try punctuator var </s>
-0.49561203	this punctuator var </s>
-0.7318467	punctuator numeric var </s>
-0.63612926	string punctuator identifier </s>
-0.6088756	punctuator punctuator identifier </s>
-0.5779655	identifier punctuator identifier </s>
-0.58132124	numeric punctuator identifier </s>
-0.72067535	if punctuator identifier </s>
-0.40000042	function punctuator identifier </s>
-0.682337	return punctuator identifier </s>
-0.60404354	null punctuator identifier </s>
-0.576001	regularexpression punctuator identifier </s>
-0.576001	false punctuator identifier </s>
-0.576001	true punctuator identifier </s>
-0.75279856	for punctuator identifier </s>
-0.6056283	else punctuator identifier </s>
-0.44613382	continue punctuator identifier </s>
-0.576001	try punctuator identifier </s>
-0.6056283	catch punctuator identifier </s>
-0.576001	break punctuator identifier </s>
-0.6056283	do punctuator identifier </s>
-0.75209224	while punctuator identifier </s>
-0.63136405	this punctuator identifier </s>
-0.6729109	switch punctuator identifier </s>
-0.576001	default punctuator identifier </s>
-0.6056283	finally punctuator identifier </s>
-0.6056283	import punctuator identifier </s>
-0.44613382	void punctuator identifier </s>
-0.6056283	yield punctuator identifier </s>
-0.46951348	punctuator var identifier </s>
-0.56756234	export var identifier </s>
-0.6553916	punctuator identifier identifier </s>
-0.53724533	punctuator numeric identifier </s>
-0.4879374	punctuator function identifier </s>
-0.3211559	regularexpression function identifier </s>
-0.6826477	export function identifier </s>
-0.5458487	punctuator return identifier </s>
-0.50142306	else return identifier </s>
-0.5657331	string in identifier </s>
-0.47345942	identifier in identifier </s>
-0.514848	punctuator typeof identifier </s>
-0.5406014	return typeof identifier </s>
-0.6658911	punctuator else identifier </s>
-0.92961866	punctuator delete identifier </s>
-0.62605006	punctuator throw identifier </s>
-0.7238951	punctuator new identifier </s>
-0.62709755	return new identifier </s>
-0.62709755	throw new identifier </s>
-0.92221856	punctuator break identifier </s>
-0.82226306	punctuator instanceof identifier </s>
-0.676135	identifier instanceof identifier </s>
-0.57922506	this instanceof identifier </s>
-0.76443195	punctuator case identifier </s>
-0.79107875	punctuator class identifier </s>
-0.6626167	punctuator import identifier </s>
-0.6631905	string punctuator numeric </s>
-0.77159613	punctuator punctuator numeric </s>
-0.6328598	identifier punctuator numeric </s>
-0.7085195	numeric punctuator numeric </s>
-0.73017406	return punctuator numeric </s>
-0.5015584	regularexpression punctuator numeric </s>
-0.5015584	false punctuator numeric </s>
-0.6631905	while punctuator numeric </s>
-0.6503554	this punctuator numeric </s>
-0.80944264	punctuator return numeric </s>
-0.48462772	else return numeric </s>
-0.63337225	punctuator case numeric </s>
-0.8260091	punctuator void numeric </s>
-0.41882685	string punctuator if </s>
-0.46479145	punctuator punctuator if </s>
-0.61953443	identifier punctuator if </s>
-0.6486523	numeric punctuator if </s>
-0.52206844	return punctuator if </s>
-0.4725611	null punctuator if </s>
-0.4725611	false punctuator if </s>
-0.4725611	true punctuator if </s>
-0.52206844	else punctuator if </s>
-0.36522818	continue punctuator if </s>
-0.52206844	try punctuator if </s>
-0.36522818	break punctuator if </s>
-0.52206844	do punctuator if </s>
-0.33964562	this punctuator if </s>
-0.6547708	punctuator identifier if </s>
-0.7448362	punctuator else if </s>
-0.8308621	punctuator do if </s>
-0.92016906	string punctuator function </s>
-0.77767813	punctuator punctuator function </s>
-0.8674186	identifier punctuator function </s>
-0.8341097	numeric punctuator function </s>
-0.7374001	return punctuator function </s>
-0.8234849	regularexpression punctuator function </s>
